[{"bias":[0.26371127,0.28985083,0.58691317,-0.08225584,0.8011706,0.3762535,0.09886647,-0.20771383,0.71355367,0.4110269,0.30621022,0.1846185,0.38365975,0.18847953,0.509371,0.060282737,-0.043858733,1.1334456,0.4313393,0.3951176,-0.26092842,0.25528207,-0.08666002,0.31066433,0.20426165,0.053650152,0.3245608,0.12354719,0.20242213,0.16116127,0.49773836,0.41997078],"weights":[-1.7204775,0.37792957,-1.0272045,-0.2620218,1.1908365,4.1063666,-0.7835456,0.14631547,0.66429955,0.5793873,0.87674105,0.19173887,-0.60766256,1.0433928,0.48548505,0.33006766,0.37765417,0.13231602,-0.06861143,0.7169799,-0.61130154,0.18222116,0.15404615,-0.6791239,0.05841389,-0.061200857,1.8357916,1.8390136,-0.3620646,3.6713135,0.47741315,-1.8043604,0.13427824,0.43877435,-0.026923675,0.2810926,1.027526,0.47313312,0.823395,0.18445465,0.20417653,2.816801,-0.18273383,0.21914154,-0.22635886,-0.213042,0.433254,0.44580483,0.31772086,-0.21749994,0.017235454,0.8226413,-3.0060024,-0.20484118,0.58500576,-0.7298288,-0.18914403,-1.0183107,0.70553577,-0.064729095,-0.2726837,0.2111168,0.6299591,-0.6993117,-0.1560328,-0.1852841,0.5932582,-0.13081689,-0.6641312,0.3352935,0.33608118,-0.2007424,0.029223807,-0.9138081,0.10951687,0.2251672,-0.32033518,2.3067622,0.23656642,0.34926277,-0.21219654,0.30829582,0.18070774,0.54901135,-0.12245177,0.08067848,0.1805338,0.29220444,-1.5190938,0.03599352,0.5230613,0.16505067,-0.37019235,0.78193945,0.5295654,0.34358603,-0.5273067,-0.042641643,0.46878764,0.3144467,1.2181606,0.3940249,0.3417466,-3.5843751,0.23813434,-1.1480627,0.11334498,0.403172,-0.35104162,-0.04065393,0.632401,0.33831707,-0.27973133,-0.87246174,-0.46907017,0.40308997,-0.0014170255,-0.5092343,0.4951384,0.19329801,-0.34865603,0.58779496,1.1492132,0.042239983,-0.8137723,0.7470309,0.15043277,0.23260882,0.0051889946,-0.058549825,1.2657605,-0.21515788,0.52359456,-0.19934054,0.7302543,-2.9192622,-0.06579401,-0.18465823,0.17764455,-0.13269818,0.16754992,-0.1967116,0.6175638,3.3411443,0.11718184,-0.13038225,0.45284674,0.3729774,1.7550871,-0.425995,-0.24105845,0.13135156,0.14577956,-0.0669817,0.22897138,0.07773817,-0.43345058,-0.064885415,-0.14321388,-0.2866174,-0.5118867,0.30617273,-0.29404745,-0.3664608,0.8727217,-0.77539986,0.7102727,-1.3802302,0.051367246,0.27112818,0.24034974,0.9115184,-0.13362089,0.01885775,0.5257814,2.699319,0.19401905,-0.39416873,0.62301236,-0.06245628,-0.8819484,-0.21968475,-0.5291995,0.47710642,-0.85595924,0.1235538,1.0371202,-0.109014146,-0.76421136,0.81972826,0.25330132,0.40318504,-0.32487306,0.040052135,0.27204442,-0.05739129,0.64506733,-0.15954526,0.41099516,-0.7265781,-0.18244383,-0.044111717,0.052245237,0.2018769,-0.3009628,2.2945776,1.0231724,0.12286156,0.153555,1.5504299,0.38857904,0.38876358,0.48823094,-0.35478443,-0.07577003,0.48850483,0.75011414,0.8157544,-0.3352675,-0.44514495,-0.4456731,0.09666539,0.614956,0.24965733,0.066561274,-0.31170237,0.38701856,0.3560636,-0.3736905,0.010136921,1.7867124,0.27205673,-0.02166371,-0.15590902,0.04971737,0.15340254,-0.2856021,2.7439978,0.261306,0.13113083,-1.2539592,0.9437243,-0.5391282,0.85478705,-0.3853705,0.3230667,0.9994073,0.57026386,0.4437327,0.21084417,-0.5057806,-0.84074473,0.36624166,0.1182683,0.7218543,0.18113616,-0.103636354,-0.054600388,0.27549034,-0.34368855,-0.32027522,0.12710193,-0.2741882,-0.85444576,0.10356766,0.17230293,0.06655973,0.14258724,0.13683617,-0.005600952,0.2567625,-0.17204605,0.6231137,0.07483167,0.18177564,0.056697723,0.1080236,-0.40401313,0.15977141,-0.20760876,-0.3024162,0.7389554,-0.018251302,0.079492226,-0.20362923,0.59818923,-0.4659893,-0.53884447,-0.015720416,-0.15511198,0.095975116,0.10056062,-0.2316159,0.31854427,0.27047297,-0.117217176,0.28437042,0.5797114,-0.053237464,0.1782006,-0.07205757,0.552042,0.071760245,0.22686191,0.19161834,0.3856687,0.44935003,0.42718276,-0.10841911,-0.23726568,0.25380993,-0.08708798,0.020724481,-0.6356578,-0.1967448,-0.18997036,-0.17456745,-0.093565285,0.4783712,-0.30537105,-0.057107437,0.18052283,0.8492008,-0.43996307,-0.7814317,0.109789416,0.09672018,0.12602861,0.057099774,-0.09655014,-0.14835352,0.16841576,-0.4305789,0.17399202,0.18610239,0.12539299,0.68773526,0.7053365,0.41613612,-0.07898081,-0.47580612,-0.18737726,-0.08128204,-0.72329783,-0.03255157,-0.23605625,0.52410954,-0.43484932,-0.20292489,-0.34613872,-0.10092286,-0.4784416,-0.025725745,0.075872414,-0.53314936,0.29805622,0.291663,1.148214,0.29902348,-0.6859684,0.099136844,0.9143438,-0.055718318,-0.5079094,-0.6804924,-0.36277786,0.12094207,1.0647383,-0.055765662,0.24417362,0.32622984,0.18155223,0.6023798,0.12420993,0.1174735,0.10983049,0.5042008,0.3428548,0.31966558,-0.0105975745,-0.007329019,0.30204332,-0.16205671,-0.11774975,-0.35070527,0.22687796,0.103735976,-0.055220883,0.039781325,-0.102931924,0.62349916,-0.4397816,0.13156927,0.2907384,0.05227499,0.3733062,-0.30707377,0.10673935,0.005934377,3.0127418,-0.17762373,0.14807066,-0.049928635,0.18766844,-0.46723643,-0.5870996,0.103467606,0.02515509,0.24647051,-0.9747845,-0.11491242,-0.24056771,-0.463902,-0.087406956,-0.12927099,0.3340644,-0.26005894,-0.22711717,0.13688518,-0.07290184,0.4888434,-0.0041532586,-0.2685236,-0.78175396,0.023608027,0.4521986,-0.04392759,0.39646685,-0.54309165,-0.1837453,0.25987306,0.17704436,0.13952585,0.4145833,0.54618305,0.39068857,0.5503748,-0.66097826,-0.63066876,0.18126714,0.126913,-0.2806385,-0.16706191,-0.10382238,-0.21945399,-0.40374455,0.09036129,0.116175316,-0.6707622,-0.49188715,-0.052601673,0.23360492,0.8675353,0.08657523,-0.5335869,0.07678187,-0.06309003,0.36679173,0.022269066,0.18383391,-0.19399223,-0.12768456,0.74331737,0.18869822,0.031203652,0.7065045,0.4234131,0.31012222,0.3050843,-0.36270934,0.8839601,-0.504299,0.037949804,0.16017124,-0.54986644,-0.22297096,0.12891865,0.08120586,2.004952,-0.39425477,0.07587565,-0.22349781,0.28124723,0.047904402,-0.023836682,0.10936393,-0.30175206,-0.37674844,0.15267844,-0.11355339,-0.20445697,0.30016774,-0.26882556,0.11551769,0.30982593,0.01137115,0.31970823,0.23312828,1.0293077,0.26075795,0.4101505,-0.06805389,-0.08126864,-0.21433271,-0.41284314,-0.92657787,0.5990764,-0.30113146,0.22419596,-0.402559,0.25443703,-0.32645568,-1.3979069,0.23741528,-0.2827312,-0.011691634,0.2796815,0.55094725,0.11936013,-0.9508741,0.065439016,0.6804637,0.07154777,0.8187997,-0.06354624,-0.04785171,0.07638103,-0.092591405,-0.0781931,0.38673288,0.119806804,0.10419482,0.10348936,-0.1100764,0.50345796,-0.09929839,0.29894033,0.6704015,-0.040120985,-0.12221017,-0.95759207,0.3936499,0.39457124,-0.0047763838,0.4642783,-0.22809236,-0.19080368,-0.17367066,0.11004818,-0.20004663,0.4264957,0.724481,-0.0069294395,-0.088760965,0.2666841,0.20900127,0.008926702,0.15271764,-0.18997847,0.1932412,-0.24141662,0.20255537,0.12814471,0.26943475,0.01637674,-0.23367392,0.19544151,-0.21378459,-0.55068296,-1.5241084,0.23204616,-0.2581326,0.50106007,0.061961733,0.27477443,-0.49188825,0.007603132,-0.0038575546,0.05651552,0.164915,0.042759374,-0.26827967,0.4936662,0.9670481,0.09369833,-0.21580838,0.027099004,0.5819518,-0.21426067,0.7578811,-0.1908137,0.07303704,-0.1547645,0.5826746,0.31944814,0.28854915,0.2783184,-0.34693217,0.3520173,0.29483497,-0.0034636506,-0.4927735,-1.022045,-0.27680904,0.07456178,-0.06959839,-0.34639478,0.4801827,-0.5014861,-0.17262551,-0.25180387,-0.24484438,0.05597986,-0.3106303,0.47666323,0.13763066,0.12399419,0.021643532,0.11450789,0.59453595,-0.09362469,-0.21728891,0.41690376,0.02296276,-0.57947886,0.19262515,0.4083528,0.15360159,0.40196517,-0.39986783,0.88390595,0.65774536,0.1486063,-0.74200046,0.14382209,-0.4544626,-0.16040109,0.2029156,-0.16996926,0.4036156,-0.46074602,-0.054651596,-0.55467063,-0.6821003,0.35790226,0.07626987,-0.32548493,-0.24801092,0.118322656,0.5709947,0.045428474,0.44198135,-0.5221383,-0.14389706,0.26153544,0.38928652,0.04829819,-0.07542918,0.2876442,0.2567668,0.3960049,-0.84718037,0.5052885,0.4924961,0.24521492,-0.44528955,0.076547235,-0.10769153,-0.2665785,0.2302691,-0.06781484,0.33416113,-1.2998941,-0.16041191,-0.1620211,0.083648734,0.17320716,-0.49074534,0.95502114,0.008934036,-0.10674465,0.50883377,0.061802115,0.30035365,-0.22386113,-0.17143838,-0.051264547,0.08647247,0.1269097,-0.31103548,0.06840994,0.29993153,-0.391011,0.095398545,-1.7986194,-0.9053926,0.1287303,0.09149363,-0.4713491,0.541867,-0.76883787,1.1911796,-0.5928809,-2.6649683,-0.2021038,-0.19771859,-0.46183985,0.19393015,-0.34048274,0.17245612,-0.34018284,0.3224992,0.16305593,0.06424106,0.15971197,2.9117904,0.03838633,0.17622322,0.35841447,0.22421037,0.2051934,0.58778787,2.137805,0.10400678,0.20057085,-0.1838327,0.11293281,-0.036846012,-0.4532372,-0.47589344,0.33381927,-0.2539084,0.23295283,0.25179973,-0.15884516,0.05285481,-0.275929,0.05504457,0.43370467,-0.4419889,-0.30069587,0.3452206,-0.43118414,0.003486763,0.2782931,0.26772168,-0.060621932,0.7090527,-0.14486673,0.007580773,0.1359565,0.058446016,1.0115138,0.28097183,0.70866513,0.2653382,-0.16950051,-0.047335535,-0.10260475,-0.67905766,-0.42021424,0.109571144,0.1716176,-0.24805681,0.39647862,0.055156548,0.33804995,-0.5362265,-1.1879017,-0.19557446,-0.18016647,0.20701276,0.29626974,0.23408842,-0.14457157,-0.8959022,0.0058913156,-0.33050057,-0.18503508,-0.032737292,-0.14862567,0.08947441,-0.09823217,-0.17170705,0.2526837,-0.29287627,0.17486736,0.07295742,0.18765743,0.22179233,-0.2315189,0.14489779,-0.38034007,0.45566314,0.55183613,0.03811916,-0.5190548,0.03959463,0.2141243,0.33813587,-0.07569582,-0.14688425,-0.36269805,0.21518713,0.19400601,0.22331402,-0.16363215,0.31445932,-0.1111584,-0.042222947,-0.068472765,0.1553383,-0.6911532,0.057623047,-0.33949998,0.08518841,0.16024244,-0.0254873,-0.18936928,0.2206406,0.20151469,-0.081289284,0.06577055,-0.24596956,-0.43401265,-0.91859156,-0.1463039,0.06763247,0.10228211,0.08640455,-0.12725227,-0.15665188,-0.00625383,-0.06346379,-0.08121322,0.04767226,0.12178972,-0.048801985,0.028341975,0.40038243,0.18436618,-0.21391435,-0.02551544,-0.29950115,-0.6636043,0.14326073,-0.09228999,0.029184397,0.25673503,0.005712897,0.72943014,0.16412482,-0.08128076,-0.27356827,0.2780056,0.13810025,0.1274208,-1.5802244,0.3345628,0.07096588,-0.0381425,0.15619174,-0.04479164,0.112348944,-0.16932191,-0.36300305,-0.5185868,-0.17961627,-0.26569054,0.06882679,-0.2390578,-0.029654153,0.11847013,-0.1892797,-0.027581872,0.33268246,-0.2668837,-0.12754767,0.08140889,0.15641777,-0.057901952,0.22190395,-0.13066813,-0.23286612,0.5468792,-0.60712284,0.16875872,0.35367596,-0.1535225,-0.7651211,0.0018966607,-0.270239,-0.26629066,0.2023697,-0.6484174,0.1437592,-0.9290099,-0.43401396,-0.5771034,0.031998865,-0.5115961,-0.35551926,0.40607595,-0.08733433,0.20975895,0.112357296,-0.043131866,0.032289468,-0.23668194,-0.028376728,-0.1089439,0.14364924,0.32611293,-0.22204137,-0.0016657298,0.10248242,-1.1252452,-0.21711166,0.09577437,0.97937447,0.15964562,-0.089194745,0.3934961,-0.31329405,-0.31238016,-0.1892271,-0.94142896,0.6836156,0.43172857,-0.27062878,-0.06498162,0.18878992,0.15006533,-0.2906046,-0.39166847,-0.06829969,-0.19065377,0.6298573,0.050686322,0.13233197,-1.0854273,-0.016423136,0.07261054,0.15686385,0.53793484,0.39897764,0.18738912,0.09162753,0.13350622,-0.22940877,0.07602252,-0.08278286,-0.08111999,-0.30918944,0.28627086,0.1482392,-0.0043753358,0.2619573,0.06412436,0.21119857,-0.23883815,-0.33995703,-0.19814585,0.12628324,-0.3612091,0.23769411,-0.3020423,-0.26577437,0.12311982,-0.361722,0.009626267,-0.004473708,-0.014528671,-0.1256915,0.058261253,0.13315697,0.5134486,0.33591616,0.5247422,-0.12814443,0.39888072,-0.3187156,-0.08168989,-0.06337923,-0.18333268,0.27065215,-0.11870985,-0.23072189,-0.29407513,0.17121363,-0.15301651,-0.335818,-0.032464687,0.017598966,0.42547685,-0.5202625,-0.30712926,-0.10815551,-0.26285404,0.07692809,0.23927003,0.35989523,-0.06111669,-0.010831258,-0.37872764,0.2038591,0.28242996,0.064669356,0.9535508,-0.013403225,0.43136194,0.23951316,-0.24145766,-0.10233916,-0.335849,-0.29234844,-0.19370231,-0.3964012,0.37304443,-0.19341098,0.36274514,0.07547868,0.005172958,-0.32077166,-0.43187675,-0.30749038,0.21332216,0.36746365,-0.019799707,0.17599885,-0.15485165,-0.527683,0.01898417,-0.059995435,0.05610127,0.12818472,0.21225512,0.119126216,-0.020771472,0.02652304,0.14977597,0.42317814,-0.14885329,-0.16973996,0.5806253,-0.16458368,-0.115649015,0.025400823,-0.33766598,0.5501374,0.15057378,0.59525794,-0.13826363,0.23575315,0.45379347,0.39311984,-0.43271565,-0.105722,0.17288637,0.063832805,-0.08177271,0.094509624,0.16806,-0.66638404,-0.0013552305,-0.047187608,-0.045396015,0.29750118,0.22891712,0.019315276,-0.4935301,0.10324898,0.4400007,0.5499649,-0.07870653,0.21929398,0.44081432,0.17566828,0.30142534,0.014297261,0.03495214,0.8401269,-0.26810628,-0.6500168,-0.27322543,-0.025527311,-0.052779444,0.07929485,-0.2079951,0.053142373,-0.062460545,-0.1928431,0.21216299,0.08724682,-0.39525646,-0.25102735,0.04036597,0.043604262,-0.37596163,-0.04053353,0.1687618,0.044408385,-0.16685177,0.032826222,-0.053546593,0.52438635,0.68440187,0.26067936,1.4734291,-0.57737935,0.11437373,0.35553482,0.108171575,-0.93916476,-0.0068678306,-0.28025463,-0.6468254,-0.21983372,-0.09328617,0.061038747,-0.21757127,-0.19486597,-0.13779819,0.22506237,-0.36672777,-0.16973114,0.31477353,0.4295999,0.090864986,0.34809673,-0.05195755,0.10549782,-0.53770465,-0.048507106,0.24552864,0.082881846,0.12241102,0.11776022,0.251598,-0.11780734,0.015914988,-0.10420806,0.44469863,0.3352769,0.310456,-0.8916452,0.07478335,-0.34349638,-0.027582172,-0.13374448,-1.2241827,0.41084868,-0.051775195,-0.7899355,0.0052024913,0.066024594,-0.1430912,0.0025516516,0.082194395,-0.018092263,0.3536591,-0.062483955,0.07454293,0.110300906,-0.106297314,0.017867152,0.079659134,0.06702514,0.38957703,0.1771711,0.36944783,0.18036205,0.6044929,-0.371786,0.070317104,0.7340651,0.26155332,-0.05426668,-0.1419295,0.016209485,0.1918066,0.13690239,-0.43769944,0.4772096,-0.13118328,-0.6808291,-0.23900363,0.11210441,-0.40782213,-0.0742826,-0.02070873,0.041256517,-0.031074263,0.039467435,0.1252703,-0.007194794,-0.24839951,-0.0034126919,0.07775115,0.07656361,0.17372167,-0.13541149,-0.049171846,0.072834685,0.13748072,-0.14636244,0.049976315,0.58602315,-0.5722778,-0.23018572,0.1269346,0.14115664,-0.1228832,0.33693966,-0.5580341,0.2860506,-0.09160517,-0.33707798,0.36857536,0.22940217,-0.12003692,-0.33752155,0.09150245,-0.50559783,0.064333566,0.26289377,-0.14249127,0.1209827,0.033205207,0.05771717,0.031614725,0.07804413,0.7313424,0.47002107,-0.018982671,-0.09605481,0.26549825,0.0042209243,0.07650653,0.31512704,-0.08506357,0.18493252,-0.012970714,-0.20654505,-0.1628956,0.059369296,0.18089609,0.35512608,-0.07109088,-0.24937814,-0.16884033,0.018145707,-0.39882466,0.18686345,-0.12824455,0.2919286,0.19764343,0.2584992,-0.26460207,0.055002812,-0.47293743,0.0075288215,0.09117214,0.09591243,0.79677415,0.17048383,0.16358152,0.016589776,-0.111327186,0.18473913,-0.074749395,-0.19917394,-0.034794386,0.7141633,-0.18893625,0.11695824,0.18067043,0.3375296,0.13822083,-0.43357426,-0.27429953,-0.19358027,-0.45919025,-0.046370134,0.41197777,0.3751895,-0.02237817,1.138365,-0.11252881,0.08427573,-0.21025017,-0.21190104,0.00960073,-0.013170592,-1.0350958,0.004713297,0.24400373,0.20937978,-0.062243022,0.10183438,0.42117804,-0.1329232,0.010566972,0.31383246,0.7898946,0.44939572,-0.3770996,0.1408379,1.1433703,-0.056338772,0.30682734,0.3783037,-0.21430682,0.010714015,0.938484,-0.0035381834,0.35066077,-0.07706086,0.14705968,-1.0433317,0.34757704,-0.45112538,-0.41660938,0.14170179,0.32574806,-0.08005083,-0.15486923,0.115899704,0.47044212,0.7493618,0.028561883,-0.101391315,1.1589072,-0.13927518,0.048301764,-0.17314242,0.8407791,0.12463443,0.11024589,-0.51193124,-0.60481167,-0.12914898,0.19555639,0.039984755,0.07819738,-0.11293264,0.27958336,-0.3268083,-0.4483058,-0.2658127,0.25692484,0.0019343102,-0.5926069,-0.32666254,0.12768213,0.19951825,0.3048339,0.016199866,-0.22970697,-0.021423452,0.36297894,0.74865115,0.3190881,-0.1277174,0.954679,0.13501179,0.16287148,-0.12985176,-0.46722445,0.054607984,0.13789277,-1.24557,-0.26077503,-0.027469732,-1.0210285,-0.1639024,-0.12223076,-0.5587315,-0.28294548,0.19818655,-0.16073948,-0.099569246,-0.010473322,0.43917167,0.012125266,-0.25094905,-0.39611083,0.14316738,-0.4350555,-0.098853275,-0.104632,0.122020125,0.06378064,0.4188738,-0.1116268,-0.15705584,0.5955987,-0.6734578,0.18808652,-0.09322754,-0.10417369,-0.484227,-0.09036591,0.40548003,-0.33721724,0.16813748,-0.56647694,0.33728248,-0.13397145,-0.3933338,0.17333192,0.13725215,-0.1461418,-0.007931829,0.19441132,0.9118003,-0.1115071,-0.014424927,0.061652362,0.03077997,0.007128178,-0.13439928,-0.03569226,0.10507698,0.39771384,0.1714911,0.082805626,-0.053885713,0.58069366,0.03107751,-0.038821653,0.38656405,-0.057165887,0.4070985,-0.21941811,0.0703517,0.79152536,0.08336815,-1.167999,0.5670183,-0.019174002,-1.4471315,0.33571556,0.30351844,-0.2892068,-0.013027986,0.3706969,0.12299554,0.4880584,0.21831968,-0.046667267,0.053004466,-0.11297881,0.044409353,0.15684943,0.040886927,0.62485766,0.21495873,0.1359158,0.07145062,0.60306424,0.1609933,0.2526161,0.27198926,0.25497183,-0.16666351,0.16499111,-0.1344753,0.65832585,0.03987484,0.081985354,0.30072835,0.08140775,-0.48142466,0.13871886,0.15543625,0.22894977,-0.27089697,0.4462615,0.30299622,-0.018312093,0.064692676,0.19112504,0.33361202,-0.24175161,-0.034071933,-0.20118031,0.07130057,0.6425696,0.11105813,-0.23752196,-0.18439332,0.46933287,0.11068282,-0.016704781,0.06406378,0.10144606,-0.17953299,0.16474158,0.008460572,0.93308794,0.06498779,0.19091235,0.16438304,0.78802735,-0.6911886,0.32872716,-0.09224426,-0.050738953,-0.18906789,0.057964675,0.8209093,0.2944234,-0.015782578,-0.07773988,0.31383118,-0.2596207,-0.1371574,-0.48182487,0.10683913,0.77494365,0.22998673,0.044133946,0.005879046,0.63493854,-0.027837617,0.36378548,-0.050772853,0.47966415,-0.018564655,0.14596516,-0.31523022,1.2555565,0.08803876,0.50775135,0.013574901,0.33051875,-0.25487354,0.18372327,-0.114706725,-0.009717542,0.3273841,0.024560343,0.7802366,-0.15731727,-0.6053504,-0.07502413,-0.13168876,-0.4591409,0.036842406,-0.41162658,0.15532833,0.16738263,0.3221337,-0.45622984,-0.41760832,0.6562809,-0.08170349,0.1925263,0.084595665,0.7226874,-0.025611073,-0.17189597,0.3272904,1.0613203,0.4962244,-0.2105619,0.34032676,0.13943084,0.16665863,0.24961203,-0.17095688,0.27617922,-0.030470734,0.42083326,0.3857781,-0.27016464,-0.13983302,-0.01881687,0.15424071,0.06437874,0.005001731,-0.2135646,0.06712899,0.4489071,0.69938344,-0.09197716,-0.37421933,1.0247618,0.19647592,0.028833225,0.21534084,0.17217314,0.22857836,0.01032877,-0.5191792,0.4542704,0.25279036,-0.36063257,0.37359092,0.13311574,-0.1485906,0.2280142,-0.21184927,-0.4026918,0.24194197,0.43040052,-0.29873854,-0.29009742,-0.02741779,-0.29076815,0.3134777,0.38690153,0.006358381,-0.14112411,0.03538445,0.14251791,0.20600134,-0.20123093,-0.09064802,1.1057514,0.01023667,-0.23437978,0.09873075,-0.61559683,-0.38840386,0.20268485,0.23122072,0.42667335,0.12588437,-0.59013176,-0.2246479,-0.30858868,-0.37358752,0.20536642,-0.0033407959,0.21784428,-0.046941157,0.24945568,0.5171474,-0.4701897,-0.04742168,-0.12629361,0.07808254,0.30491552,-0.018964047,0.17825754,0.1148924,0.49154964,1.0148855,0.09633757,-0.12209497,0.86699337,-0.18699585,-0.11468756,0.017000759,-0.28588793,1.3275009,0.016054468,0.1855746,0.23667914,0.012407868,-0.53207886,0.55601364,-0.14280392,-1.0215098,0.17948781,0.1433984,-0.26231787,-0.065329425,0.8380493,0.78048897,0.22008866,-0.20248926,0.060839802,0.11678798,0.105633795,-0.17784442,0.01909523,0.13899669,0.27984557,0.10032027,-0.10057387,-0.23659247,0.17395319,-0.3592909,0.20718071,0.12346591,0.34365734,-0.17509785,0.22965786,0.48730296,0.6255102,0.35857606,-0.42217648,0.25409374,0.23944299,-0.31384468,0.44274715,0.066234104,-0.032373864,-0.059845537,0.7720633,0.25472546,-0.39202145,-0.012822686,-0.057911348,0.017512739,0.035782166,0.023880705,-0.115360476,0.08717097,0.6937434,0.5966176,0.038364332,-0.015462673,0.4291411,0.09021309,-0.17666364,0.4607672,0.18030156,-0.23653232,-0.11108893,0.10088417,-0.0823115,0.17515154,-0.8209273,0.12035254,0.12595761,-0.95004535,0.18191724,0.27184486,-0.66845506,-0.08500806,0.23839518,-0.04740291,0.09284372,-0.38554785,-0.09124642,0.39176375,0.13897744,-0.08844969,-0.37884322,0.04070882,0.7703187,0.13846473,-0.19262207,-0.47871208,0.28794253,-0.18797173,-0.010869528,0.37002796,0.21532232,0.8379646,-0.031782888,-0.1860591,0.6887386,-0.2080179,0.293116,0.15869218,-0.01399641,-0.476545,0.17450853,0.088650584,-0.5867958,-0.04987845,0.29519486,0.26790285,0.032252204,-0.21864589,-0.087873615,0.16315368,-0.32628247,0.008055943,-0.33314914,0.19067994,0.5099474,0.07246602,0.3735466,0.05795052,-0.12065903,0.045756295,0.02246984,-0.035033792,-0.09144966,0.23290482,-0.036971428,-0.24228193,-0.13411808,0.34010184,0.008827579,-0.061839208,0.12086756,0.4018913,-0.145274,0.35809657,0.75100994,-0.07245313,0.02646897,-0.24823752,-3.0140638,-0.5322332,0.18384565,0.17768332,-2.0237608,-0.14155997,-0.019563543,-0.09185784,-0.024053944,1.6521497,0.30236202,-1.8574829,0.90992874,-0.041996747,-0.44524124,-1.2069505,0.59078,0.35208502,0.5673644,-0.45937726,-0.83787245,0.33101884,0.44357523,-0.080489345,-0.08684668,0.26167434,0.66950005,0.268755,0.6602355,0.64956486,0.75550115,0.12423171,-0.62625384,-0.4156214,0.22943623,0.077554494,0.24879596,0.033686288,-2.9335208,0.042177014,0.39383376,0.23809181,-0.73529005,-0.040374175,1.002591,0.20865445,-0.18853681,-0.37059414,-0.14231902,0.8423259,-0.12807521,0.18922442,0.72491115,0.4069353,-0.4245483,0.7506459,-0.15286644,0.21859336,0.67213804,0.1347501,0.080043554,-0.26850605,0.53813523,-0.2488732,-0.14265455,-0.072535865,0.3352531,0.0006698325,0.5782907,-0.26114553,-0.16462597,0.09078328,0.90394795,0.7288361,0.021199308,-1.3889478,1.144651,-0.60874677,-0.2947113,1.1125124,0.16250123,1.7533073,-0.14630835,0.6034845,0.23829557,0.5220464,-0.5593936,1.2183917,-0.35093594,-0.96791255,0.09586756,0.3622094,-0.027297908,0.41798183,0.24725565,-0.6834612,0.37464994,-0.9203316,-2.816959,0.3513734,0.24992293,-0.124424085,0.35646197,0.10012601,0.46590313,0.60145235,0.05022031,0.036886908,1.260725,0.09999011,-0.2984659,0.78960025,-0.01089221,0.69498855,-0.08812199,0.034156725,0.21111496,-0.26446238,-0.46548897,0.82337785,0.13726954,-0.9374833,0.46904835,0.10185525,-0.4460055,0.033633,0.9273464,0.18707831,-0.00695074,-0.45182168,0.09823108,0.15963297,0.12402404,-0.4699373,0.13610028,0.16165185,0.55471206,0.6812258,-0.29086736,-1.4486545,0.74334943,-0.5717661,0.25746614,0.44858894,-0.039462283,1.5566487,-0.129377,0.6468547,0.7835976,0.5185961,-0.102529995,0.75282836,0.77472764,-0.4519674,-0.3435453,0.16483982,0.26213962,0.019842828,0.120516926,0.45644608,-0.40634406,-0.938097,-2.2445982,-0.038936976,-0.211497,-0.28984854,-0.31167957,0.11176773,0.668466,0.6841875,-0.43823886,-0.97593313,0.9056481,-0.36890098,-0.7765328,-0.3756447,-0.7772262,-0.7851926,0.5537407,0.50454193,0.06612433,-0.23217922,-0.28303945,-0.1813799,-0.008220411,-0.3571185,0.12798692,0.29233187,-0.5486659,0.07775608,0.2553295,0.05319966,-0.17375048,-0.38127738,-0.22310089,0.42240828,0.15621169,0.02468409,-0.75900924,0.1790475,1.2359558,0.6744899,-0.21947418,0.12984571,0.20341106,-0.23200071,-0.21874945,0.2060149,0.13602778,0.48636368,0.3010873,-0.06322544,0.33278248,0.21974017,-0.74016505,0.12782253,0.13583325,-0.74289906,0.33874175,0.19525112,-0.54081416,-0.117892794,0.5802882,0.14106135,0.23487283,-0.41864792,-0.019268205,0.391728,0.34527087,-0.0071295537,-1.3075123,0.14821534,1.0221752,0.7138629,0.38115877,-0.16203046,0.05110961,-0.45335835,0.24072808,-0.28463435,0.12367024,0.70953536,0.23391461,-1.0284153,0.47109815,-0.05163662,0.1365488,0.33471325],"dims":[64,32]},{"bias":[1.0579206,-0.25514317,0.82459754,0.54744035,1.0047634,0.04521117,0.073609136,1.3616015,0.5931379,1.0735536,0.1598089,-0.17221862,-0.5338073,0.24629287,1.1225795,0.0801433,1.2497357,-0.36643714,0.05067404,0.69073457,1.859888,-0.38962367,-0.07899333,-0.032516968,0.0067335297,0.06878918,-0.25974247,0.83307654,0.5168082,-0.19525686,0.6184564,-0.09713559],"weights":[-0.037753128,0.035165038,0.07847045,-0.2711958,-0.049752142,0.20369703,0.09974908,-0.2523177,-0.5561888,-0.19338883,-0.003920219,0.7608025,-1.3868319,-0.061927084,-0.20239778,0.3797598,0.2736693,-0.19166744,0.487974,-0.050087344,-0.74996734,-0.17068294,0.15367651,1.4998873,-0.40512198,0.66920525,-0.18871544,0.2477498,-0.36405507,0.37133095,-2.2124395,-0.04414358,-0.50246024,-0.26004618,-0.22782311,0.07698682,0.019887386,-0.5909527,-0.38750196,-1.3346275,-0.8636324,-0.21078677,-0.69772047,0.5289943,-1.021816,-0.12568487,0.014335252,0.34310326,0.6872586,-1.3947996,0.023729142,-0.77585155,0.46698424,0.18551794,-0.62137556,1.4975178,-0.7461169,-1.6660126,0.07020791,-0.87656564,-0.37151864,-0.7858339,-1.3708194,-0.7212543,0.2931132,0.14113814,-0.17239358,0.15954873,-0.2031562,0.16337559,0.49826697,-0.6975494,0.55335677,-0.26961538,-0.11439817,-0.108932056,0.7999821,0.27982697,-0.16390456,-0.18577887,-0.5737436,0.35771573,-0.0037219608,1.1111629,1.5535408,0.29459774,0.30686373,0.17377572,0.62363464,0.22137123,-0.18031412,-0.38106072,0.6559528,0.41693062,1.0858897,0.447329,0.28108954,-0.025568627,-0.5166448,0.5338177,-0.80408144,-0.11648828,-0.026991064,-0.24364825,-0.4681543,-0.7670403,0.51006496,0.04470841,0.108937405,0.20760702,0.4353702,-0.040433653,-0.34159407,0.59931576,-0.16217211,-0.90194994,-1.1505132,0.47857958,0.3168079,0.43608242,0.05444891,0.18705529,0.23227374,-0.4622016,0.402887,-0.24735694,0.09995352,-0.060055003,0.66644573,0.94327104,-0.6192272,0.46562734,0.35894412,-0.09616873,-1.1165494,0.14974698,0.40572947,-0.3537724,0.29380715,-0.8910166,0.75216365,0.26472327,0.90223974,-0.42823276,-0.07411191,1.2689513,1.0807868,-0.6396234,1.0171359,-0.025774153,0.2961191,-0.1075288,0.056633033,0.60577774,0.15342343,0.47850308,0.6489447,-0.5908798,0.397216,0.5244435,0.6642564,0.29270187,0.1496107,-0.17240539,0.9666566,-0.48302856,0.8703825,0.07666614,0.5637806,0.1750151,0.9708289,0.33076584,-0.9749851,0.12328284,0.723348,-0.34081605,-1.0779607,-0.13645549,0.4198889,0.6000619,0.48998204,0.07360517,-0.052360475,0.4652877,0.98926723,0.7261907,-0.006191318,-0.4923714,0.38585123,0.1406644,-0.52016115,0.21479112,0.045872446,0.0692772,-0.10272524,0.79359096,0.48146734,0.417027,-0.091373384,-0.40975702,0.30997056,-0.15610841,0.86857694,-0.51367843,-0.5093562,-0.17469943,-0.22675945,0.23839259,-1.261243,-0.26877016,0.18637921,0.887286,0.16618602,0.32898322,-0.1647132,-0.57954353,0.5797856,0.004966093,0.16920306,0.19732837,0.081955336,-0.18750454,-0.72600603,0.2602524,-0.52616394,0.29001468,-0.5536996,-0.79420793,-0.7660917,-0.13585658,0.29439014,-0.41674736,-0.02886684,-1.1197417,0.30799514,0.25931683,-0.41752267,0.24940796,0.30370176,0.14285898,-0.27124095,-0.8330217,0.10841743,-0.3279953,0.13470688,0.6520443,-0.11815624,0.04028989,-0.071926475,-0.4661039,-0.08708013,-0.21871792,0.3512165,0.11702585,-0.9211796,-0.17572488,0.3656234,0.10195842,-0.3918066,0.08711598,-2.7061887,-0.6355814,-0.6225494,0.0073402533,0.10299431,-0.23960061,0.31473643,-1.1145338,1.5066056,-0.45357913,0.51139724,-0.25724968,0.74302655,0.48806775,-0.32833275,-0.8522499,0.4196005,-0.8071635,0.029251384,0.38035133,-0.3774228,0.3571004,-0.104539044,0.16096161,0.36847746,-0.1350477,-0.488089,0.22627877,1.2136896,-0.10727591,-0.43565032,0.24084671,0.593194,0.024095373,0.22846586,-1.9598026,0.07971325,0.6018471,0.10856085,0.322959,0.7543265,-0.4771439,-0.8106298,-0.05579846,-0.54528785,0.22227037,-0.7567138,-1.7583096,-0.7220812,0.044059765,-0.103785835,1.3577511,-0.24123962,-0.0399694,-0.6956307,-1.0487256,-0.15304804,1.2314295,0.79960567,0.002207814,-0.5478348,0.08028616,0.476323,-0.6912343,0.35001495,-0.4763103,0.259985,1.0565295,-0.62854356,-0.099103324,0.34978753,-1.3549737,0.2353288,-0.7270418,-0.29223463,0.21777745,0.6268637,-1.4480956,-0.32745802,-0.029626919,-0.5704573,-0.58810765,-0.5903567,-0.44244522,-0.08373083,-0.5823948,0.23989004,0.47142175,-0.22366476,-0.34791714,-0.6716437,-0.39110845,-0.71311015,0.11568581,-0.54531354,-0.07265362,-0.06323008,0.37443572,0.056560982,0.69999874,0.35183987,-0.12993112,1.0060775,0.48823386,0.2092347,-0.16817744,-0.70563644,-0.44260842,-0.576752,-0.36093622,0.059461944,0.76504964,-0.3459055,0.12368607,0.2369988,1.0188738,0.26174226,0.5612393,-0.2962425,-2.8459518,0.10734002,1.6970525,-0.2932722,0.55009574,-0.0342174,-0.01550898,-0.41397476,-0.87904346,-0.45590943,0.12251299,-0.27530476,0.5818112,-1.0196176,0.03341852,-0.3423343,1.0102084,-2.29984,-0.3236071,0.089138255,0.44269446,-0.27080148,-0.55957717,-0.1596942,0.36744332,-0.7362563,0.21390794,-0.09669873,0.23075703,0.2153311,-0.038272075,0.26752558,0.0072174994,-0.27833703,-0.33064857,-0.6034173,0.1462951,0.27125937,-1.0537966,-1.1929393,1.0557035,0.40473646,-0.7239503,0.027994227,1.1382842,0.37827787,-2.2265415,0.17367992,-0.7167205,0.28067583,-0.7449306,-1.1918483,-0.68746954,-0.6817356,0.060350552,-0.9850356,2.4344268,0.62638944,-0.45146647,0.3711345,-0.91468817,-0.26142016,-0.14169022,-0.114578836,0.15815172,0.14859717,0.39016694,0.6067183,0.006434051,-0.5510964,-0.49461722,-0.21009429,-0.49620405,0.656126,1.0153102,-0.38390374,1.7978668,0.18028292,0.05825633,-0.2976865,0.27663058,-0.90817255,0.968476,0.4754989,1.0996823,0.79722947,0.03455033,-0.30376193,-0.034104824,-0.6054058,-0.40767956,-0.5209607,-0.6103599,0.310982,0.025069771,-0.23763941,-0.1490669,-1.2081861,0.36587775,-1.6838078,0.33722094,-0.21347642,-0.4389502,0.12046585,0.17901552,0.3512403,0.5190424,0.5750675,0.5172565,-0.032227635,-0.32295018,2.3067846,0.4670496,0.21467113,-0.27840406,1.2959266,-0.054076787,0.028836465,0.28983805,0.5577218,1.4725022,-0.45319673,-0.14366446,0.2305542,-0.03059431,-0.19045888,-0.7912282,-2.3062782,-0.43239412,-0.04361838,-2.9971168,0.6922343,-0.25467736,-0.86493,-0.19865513,0.36019284,-0.45831874,0.19570364,-0.011960216,0.6509582,-0.105529025,-0.076194495,0.09420622,0.48681635,0.68246096,-0.98830384,0.1666368,-0.11512882,0.2220255,-0.36964238,-0.390956,-0.25547016,-0.309805,-1.3111023,0.4512421,0.45078054,0.36638516,0.5082869,0.35068837,0.18292032,-0.16889837,-0.1398271,0.39059356,-1.8112215,-0.058533072,0.022680335,-0.19934554,0.41365796,-0.029754043,-0.030153949,0.44328845,0.11840615,0.48297235,0.29121542,0.7153823,0.38638464,-0.37298048,1.4767303,0.09423471,0.03245457,-0.13534223,-0.07750428,1.2484151,-0.037570678,0.3629821,0.6189212,0.4716417,0.3280343,-0.5005036,0.03607419,0.40719754,0.57635367,0.4810047,0.050372045,0.68833005,1.1565791,0.25692663,1.0370878,0.028103173,1.1937119,0.6025572,0.37327754,-0.4486681,0.13549556,-0.45549303,-0.26325518,-1.062683,-0.78715676,-0.924694,-0.37433296,-0.32184687,-1.3456081,-0.68421155,0.74167705,0.12099266,-0.25381497,0.0019788176,0.08389449,0.24064663,0.0526767,-0.79068935,-0.06592921,-1.3114398,0.30579573,-0.25810987,0.32415482,0.51839,0.774427,-0.52887475,-1.5696955,0.50147915,0.7009402,-0.7167887,0.65550524,-0.12465142,-0.9471972,0.10786935,-1.9904419,0.15103066,-0.6412846,-2.1247613,-0.45694262,0.06605201,-0.020465113,-0.2911628,0.72746205,-0.33546877,0.051065758,-0.0059426394,-1.1246465,-0.09720817,-0.7424784,-0.18972869,0.17905019,0.085668914,0.5472172,0.4442866,-0.16682091,-0.7015004,-0.03052533,-0.18380462,-0.9096283,0.45917895,-0.30499688,0.20251764,-0.08567708,0.3961399,0.021099443,0.078513436,0.04730233,-0.4958324,-0.2195435,0.37415376,-0.60754454,0.17776084,0.05238797,-0.2435318,-0.7339757,-0.99231595,0.4864649,0.26009098,-0.70631224,0.15367772,-0.21480712,0.20507431,0.023112621,0.07768005,0.15833248,-0.044143435,0.054613113,-0.49859712,-0.92908007,0.51284236,-0.60167474,0.11907175,-0.17596571,-0.40368804,-0.2390792,0.062998444,-0.10914109,0.5482002,-0.9023065,0.55092096,-0.34697574,0.5272044,0.1487414,0.38045418,-0.03067842,0.11566772,0.97560173,-1.1671472,-0.303845,-0.042700175,-0.59446406,-0.39181495,0.32026035,-0.06447757,-0.21839273,-0.7755018,-0.7158703,0.37887484,-0.49226895,0.23517436,-0.6920543,-0.32161945,-0.036663275,0.5620633,-0.054868087,0.9162743,-0.48912892,-0.9010028,0.12562889,-0.07205606,0.447501,-1.0408912,-0.46687582,1.7609125,0.23618838,-0.69416934,1.6035371,-0.09548179,-0.2197689,0.2574179,-1.1379124,-0.7596312,1.6574712,0.6228893,0.5027878,-0.011314554,0.17082623,1.5492069,-0.25890073,0.080383874,-0.6962972,-1.1252775,0.5125117,0.20125361,-0.2073094,-0.24607062,0.2568149,0.3216511,-0.42820522,-0.032285184,0.86295885,-0.7016527,0.691947,-0.19735225,-0.21884917,0.4073757,1.1017829,0.10328232,-0.19240747,0.15267935,-0.31077084,1.0421423,0.2307127,0.1988061,0.5381369,0.4593145,-0.35299888,-0.20543796,0.28870547,-0.8549678,0.087216035,-0.1843673,0.55446655,0.70178515,1.0292201,-0.28678972,-0.74436444,0.05661322,-0.13998245,-0.7412464,-0.47638866,0.121659026,0.0005538092,0.5202952,-0.42644343,0.032365534,-0.6243184,1.7245537,-1.343512,0.10475489,0.101469375,0.14999077,-0.03585859,-1.0818609,0.13963233,-0.12208283,-1.0502639,0.14926699,0.4349009,0.923542,-0.1544464,0.6212284,-0.062387705,-0.091444165,-0.054696232,0.416296,-0.11667498,0.3096449,-0.14302668,0.07334241,0.031455677,0.25661215,-0.24806495,0.70223796,0.067949295,-0.6263467,0.17780593,-0.83245665,0.096439555,0.41454107,0.39107013,0.5728729,-0.25188568,0.11092647,-0.025718724,0.13046278,0.27702028,-0.13997586,0.6081179,-0.08390741,0.043354616,0.8219299,-0.3097588,-0.06925939,0.041012406,-0.13245419,-0.027885832,0.1671485,0.1855142,-0.16235822,-0.72114456,0.27586457,-0.044731244,-0.045526125,-0.9485281,0.096230514,0.018215122,-0.30376562,0.5710287,-1.2618494,-0.28945774,0.51028234,0.30495256,0.23365755,0.14279367,-0.26945272,-1.3607019,-0.2720271,0.3623723,-0.038089346,0.9127169,0.5091628,-0.06548253,0.48963553,0.1896051,0.21923754,0.54369175,-0.33593097,0.0036410312,-0.1495267,0.63627154,0.6338929,-0.9586046,-0.06976677,-0.034480702,-0.5116973,-0.316421,0.2977194,-0.23215729,0.37307185,-0.056644727,0.32461524,-0.44039336,-0.17311566,0.6663485,0.04958526,-0.46561557,-0.03229378,-0.24637045,-1.1846912,0.45336518,0.64379984,-0.38392934,-0.29198304,-0.91643643,-0.51957947,-0.1714793,1.0232298,0.36025715,0.76388794,-0.56364787,-0.2669169,-0.34303343,0.10023868,0.70662105,-0.10676346,0.65991175,0.8036868,0.4213433,0.16310056,-0.11279232,0.22206119,0.35001162,0.7204714,-0.3059802,0.42158577,0.62804204,0.14471146,-0.24240956,-0.25232512,-0.039363842,1.1318073,0.4192355,0.49682495,0.15080868,-0.082180284,0.26183084,0.33095825,0.13592492,-0.0463686,0.30730665,-0.43966857,-0.14868554,-0.25302717,1.3231614,0.31547928,0.24953002,0.16015662,-0.25808528,0.9446,-0.8026693,0.23958988,0.051134367,-0.31663546,-0.72866493,0.42752212,0.09926826,-0.66496766,-0.0046843556,0.9419128,-0.13150476,-0.2755637,-0.43068954,1.2152622,-0.4198205,0.12920776,-0.010677116,0.68502223,1.0863973,-0.17079124,-0.035697326,0.38047403,-0.28786498,-0.02357786,0.82823074,0.18900299,0.65938663,0.09402672,-0.44809404,-0.3733607,0.10853291,-0.46862632,-1.5577831,0.72572047,0.33151707,-0.08425928,-0.1279203,-0.12631083,0.3550734,1.0217673,-1.0913262,1.3029999,0.29802918,0.76423067,0.028077248,-0.9048262,1.8046743,-0.4477843,-0.0008825283,0.5796387,-0.78179896,0.5291744,-0.48187947,-1.03725,0.11916353,-0.029492002,-0.67070305,-0.13742746,-0.48113346,-0.54793966,-0.3317501,0.12329082,0.122280486,-0.61123145,0.5861931,0.33434066,-0.025635185,0.11688504,-0.5308174,0.4001772,0.6330237,0.07030728,-1.4438604,0.18481866,0.77213377,0.097447984,0.1382463,-0.82392067,0.54820365,-0.23998232,-0.6030421,-0.5692594,0.4916871,-0.33251998,0.17785761,0.2190065,-0.26944003,-0.058586866,-0.59326434,0.76048124,-1.4590781,0.09291008],"dims":[32,32]},{"bias":[-0.9054143,-0.28351924,3.341544,0.33152795,0.48805982,0.45645368,-0.08700375,0.64127296,-0.13040054,0.2388487,-0.521788,0.21179593,0.15478759,0.6451282,-1.7888045,-0.23957527,-0.73952466,0.5003191,0.14304702,-0.032412376,0.14562784,0.3587239,0.5249205,0.38546547,0.4605827,-0.17015404,0.5399261,0.47686324,0.22046567,-0.07693791,0.58005273,-0.7799936],"weights":[-0.99535245,-1.9688114,0.60970896,-1.6736652,0.6824883,-0.5659203,-3.594707,0.96641695,0.06675306,-0.6457074,-4.2904787,-0.6054825,-2.9958577,-1.7595468,-3.105737,-0.91385126,1.4857004,-0.5264915,-3.7700784,-1.267505,-0.08336975,-0.35744742,1.5066783,-3.9538965,-0.03359666,1.0876449,-1.633565,1.5109565,-1.234708,1.6515415,-0.5962238,0.0378148,0.5332318,0.21448198,0.29161218,0.19055054,0.16033547,0.051073413,0.20070776,-0.774762,0.25301972,0.64248407,0.8929693,-0.50822085,0.72302055,-0.35588077,0.154307,-0.0672358,1.2883018,0.33662415,-0.31272796,0.03793084,0.28869522,0.7275915,0.11196588,-0.12244634,0.17356332,-0.304101,-0.13160886,0.057199348,0.20500502,-0.8197147,-0.6056559,-0.34867147,1.8093699,0.8148111,-1.9020368,0.17405382,0.064938754,0.3188407,0.40098625,0.5908432,-0.09255275,0.43307066,0.19602685,-0.18455534,0.7213442,-0.32786998,0.82678294,-0.3614995,0.677374,-0.28988287,0.28231022,0.17375286,0.054657493,0.104483016,0.54135793,1.1919433,0.24425209,-0.21997783,-0.6228621,-0.2568459,0.46446902,0.6537883,0.09747364,-1.1759585,-0.70065194,-1.9679253,-3.3344517,-0.70783794,0.66933215,-0.15574472,-0.49240792,-0.2740349,-0.18774956,-1.3736892,-0.7895799,1.6326833,-0.5818548,-0.39618775,2.9107733,-0.23055294,-0.03284575,0.3483834,0.26225016,0.82189035,-0.67866236,0.22855845,1.7955351,-1.0763935,0.32833907,0.3519664,0.8078842,-0.29739213,0.14080898,-0.5525089,0.7231743,2.1215088,-1.1499076,-0.5500811,3.1701517,1.9042566,-0.32977706,1.0461833,-0.57107663,0.34127557,-1.526614,-1.2553923,-2.9298985,1.5439919,-1.7067692,-0.90121615,-1.0412939,2.1421885,-1.314752,1.5616021,0.08878861,0.6183774,-0.9181216,-3.582214,-0.29230857,-2.679243,0.5548346,1.2826364,0.9949775,-1.0520726,-0.99342996,0.7749582,0.9478876,1.4532955,-0.9236576,-0.15254414,-0.45571813,0.19188747,0.3018097,-0.48026288,0.3450631,0.06835481,-0.10804521,-0.4521521,-0.4263345,0.014345015,-0.1874941,0.02484607,1.8692247,1.0476631,-0.8894049,0.5467417,-0.0034609223,0.09957379,-0.06671199,-0.013924127,0.49155974,-0.088849574,0.3863254,0.50287956,0.008800844,0.32441086,-0.3042647,0.54406285,0.3519006,0.4122531,-1.4835706,0.18514001,-2.95245,0.043537498,0.26162222,0.02105492,-0.5102891,-0.31149596,-0.081245,0.20144112,0.09944503,0.31228927,-0.10918341,-0.106428616,2.320044,0.58020586,-0.6763777,0.3956443,0.0115228,-0.10287076,-0.13857709,-0.015102866,0.004991606,-0.1288771,0.25787508,0.33660245,-0.14962083,0.19708553,0.121632606,0.19693555,0.15748627,0.70179343,-0.6893039,0.47801208,1.7665783,0.6653469,0.4232334,0.37226483,-0.17158993,-0.5749527,0.64922005,-0.51761985,-0.26451185,-0.05108745,0.17276596,-0.38353285,2.1414485,2.274779,0.028584078,0.3318168,0.08859754,-0.6740506,0.6777656,-0.1960478,0.5496947,-0.7852451,0.5015138,0.33055487,0.5295869,0.72650415,0.06905098,-0.39239758,-0.3756103,-0.63737994,-0.40329212,-1.1630116,1.5190637,-0.06797871,-0.07146927,-0.8180916,-1.6693686,-0.22392479,-0.52347815,-0.0543992,-1.1435277,-0.21930762,-0.5981658,0.34967175,-3.9227235,0.7158603,-1.2665789,0.62020344,-2.2136219,1.3621997,-0.70008385,-0.5469318,-0.18231729,2.5032008,-0.02684354,-0.47128898,-1.1528075,0.43264887,-1.4201952,-1.4206986,0.9919662,1.1788572,1.2685438,0.9931403,-2.3810446,2.0446942,0.33269277,-0.21832724,0.23518343,-0.9315599,4.081051,1.2196714,3.824712,-0.73588705,1.5040996,-1.0443753,-1.6521066,-1.47076,1.4608713,0.4403529,0.8835225,-2.2323828,0.1752445,1.7885473,1.4948517,-1.5568309,1.2755934,-2.5622923,1.0463704,2.7888622,0.16199155,-0.6217739,-1.7402811,-1.3445905,1.5425708,-0.002285139,-0.22797205,0.47823066,-0.12482468,0.5318569,0.007186044,0.26090285,0.09830162,-0.09379076,-0.06027496,0.22468626,0.24239641,-0.24832727,-1.0029327,-2.7683144,-0.112105474,0.1298024,0.10655001,-0.30607724,-0.4104984,-0.42658746,-0.027504731,-0.17103806,0.07568599,0.25329772,0.01627957,0.22299735,-0.25224042,-0.55260915,0.1584564,0.13352746,-0.7967916,-0.121645786,-1.2953353,-0.34665495,0.14674975,-0.03202043,0.24693449,0.36067644,-0.067380026,-0.35461897,-0.21956415,-0.19402216,0.01673101,0.09694956,-1.89072,-3.5524933,-0.105941914,0.09779122,-0.20775768,0.19681817,-0.11653948,-0.21660061,-0.047554575,0.016707642,0.17076282,-0.2154006,0.0037763887,0.19727544,-0.24068551,0.30126658,0.09418288,0.74916786,-1.5505755,-1.0202951,-4.118936,-1.6727133,0.8114603,-0.25379515,1.049407,-1.818939,-3.7442436,-1.878507,-6.044998,2.6019256,0.8096595,4.7264266,-0.90236956,1.3909981,-0.32918525,2.6183689,1.2210065,0.7393238,-0.59475005,1.8083351,1.9984554,0.8505241,0.8315045,2.7493377,-1.7424002,3.1138363,-0.29983512,1.630212,1.6473871,7.046242,0.89955336,0.33918115,-0.46496943,0.4372579,-0.22121441,-0.12547606,0.042861097,-0.2805736,-0.013832265,0.20004651,0.14401536,-0.18567117,-0.15599921,0.09918485,-2.6532736,-0.23823833,0.8813108,-0.020976178,0.19569984,0.37300467,0.4303253,0.440465,-0.023915524,0.19042979,0.0014786178,-0.3301386,0.0046393517,0.19273053,0.3753945,0.14861937,-0.110299766,0.030505281,0.49742416,0.29124102,-1.3787578,0.26979747,0.25925007,0.71976274,-0.22610906,0.0027377303,-0.010895349,0.36051527,0.12787476,0.13927166,-0.11012182,0.011933623,-1.5341076,1.8171818,0.65728587,0.16932277,1.085564,0.28530228,0.45127094,0.12867504,0.046146896,0.5339561,0.26478255,0.48064074,0.08968939,0.78501034,0.5459708,0.5153235,0.31746766,-0.41247398,0.46923247,-0.36778018,2.126189,0.7761031,-0.26552898,0.31731966,0.18324628,-0.4828902,-0.17385685,0.22416924,0.36649948,-0.19745243,0.061076768,-0.38421392,-1.7462026,2.4955273,0.74003935,-0.4979186,0.49396586,-0.10674504,0.29343164,0.235342,-0.6999663,0.1317573,-0.7058248,-0.6155708,-0.09483449,-0.6781464,0.04124483,-0.25341585,-0.5163062,-0.3275625,0.17846856,0.7034659,0.06883762,0.63697505,-0.8166875,-0.087066524,-0.7918723,-0.75850695,1.0482562,0.64266425,2.0150168,0.22767232,0.7659683,-2.8342788,-1.509975,3.2079086,1.019155,-1.1270117,1.6641849,0.9262194,-0.3453526,-0.38441026,-0.96581423,2.4191475,-0.8323869,-0.00878343,0.91192424,-2.0497823,0.20345488,-1.0145507,0.120470785,-1.4955745,-0.022458468,-2.2391996,1.0634751,-0.5206764,0.29523835,-1.4346262,-1.3129324,1.5456207,-2.289586,-1.2021916,-4.086599,-2.7185044,-2.650885,1.4490986,-3.7644424,-2.6982179,-3.9127984,-0.22719003,-1.3736135,-3.6544898,-0.58967733,-1.2259754,0.49864575,-1.3388231,0.5880518,-1.3873144,-1.1869174,-6.8585973,-1.0794655,1.2837409,0.50672793,2.4338245,-1.0937662,-0.27360162,1.3541244,0.1395686,0.47205913,-0.065342575,0.015596131,-0.04933994,0.041384865,0.11702471,-0.053526066,0.48784983,-0.13417187,0.1805219,1.4120307,0.46244252,-0.80902755,0.2937621,0.26393032,0.07674787,-0.021697573,-0.19424549,0.27013072,0.09846663,0.545428,0.3643716,-0.45867765,0.48089603,-0.17380613,-0.37211406,-0.26769897,0.16046771,0.17982937,0.09322457,-1.8641311,0.20842029,0.34925663,0.38542354,0.43877068,-0.18998466,-0.099340394,0.044370733,-0.010044616,0.039796513,0.027581735,0.100548044,-3.3963168,0.061301544,0.7036125,-0.2370174,0.1952873,0.24945001,0.33582824,-0.115442134,0.41992283,0.14092413,0.32110265,0.10998459,0.12681401,-0.04592,-0.10322935,-0.24197906,0.3860028,-0.07265729,0.48081678,0.6551778,-0.4336795,-0.056679063,-0.11325889,-0.18606392,0.40480462,0.010805938,0.32019615,0.17970808,0.15367125,0.4761887,0.9492497,1.1796633,1.781518,-0.7325024,-0.28631702,-0.53349656,-0.38689017,0.43071043,-0.28118297,0.7744398,-0.60860777,0.2833457,-0.687204,0.65682924,0.18991022,1.6004348,0.10787518,0.42009053,0.18135545,0.25857395,-3.7487633,0.15013559,0.3905076,0.43133926,0.45662212,-0.38261747,-0.17019439,0.2696284,-0.23310755,-0.0991294,-0.46521392,0.42348263,-0.30417705,0.05688678,-2.6991873,-0.5083917,-0.57378244,0.44434592,0.030200731,-0.36702117,-0.13251193,-0.08798379,0.076667495,-0.19436298,0.3511007,0.71031183,0.009594102,0.4392945,-0.15170495,-0.06331335,0.17069626,0.3162322,-0.8472096,0.45327213,0.86260444,-0.47574496,0.07945888,-0.021467483,-0.54070663,-0.11833554,0.19902699,-0.24495164,-0.028802168,0.36750895,-0.050440457,0.16027287,0.08389804,1.4205709,-0.6785065,0.12919044,-0.09556323,-0.19514702,-0.21480273,-0.40182117,0.15378273,0.3434529,0.30359596,0.13339822,-0.049077086,-0.046288848,0.017689936,0.25528204,0.17361133,0.68296987,0.71711814,-0.05708667,0.7270128,-0.096329644,-0.26808786,0.2110071,0.23441339,-0.32306352,0.11720191,0.12828656,0.22082381,-0.22702478,0.13259476,-0.11981975,1.0202984,2.2319424,0.3935258,0.01439916,-0.098529406,0.056320652,0.017205467,0.30211937,0.4584277,0.048841357,-0.05681234,-0.444565,0.19622745,-0.10151998,0.16749746,-0.24492857,-0.10658446,-1.0011097,-1.7190899,0.056940183,-0.5125395,-0.5119213,-0.07323991,-0.013731295,0.20869076,0.2303712,0.017075697,0.04438617,0.20246686,0.26430583,0.12891844,0.3397504,1.0679561,1.5406479,-0.866643,0.086073875,-0.35486543,-0.41235757,-0.0050051166,-0.0076842634,0.110876754,-0.03671302,0.26508468,0.35590988,-0.0056332997,0.17381147,-0.09971187,-0.041704465,0.052818496,0.27371314,-1.7826997,-0.46011108,-1.1004056,-0.20150906,0.39711046,0.75632095,-0.5981979,0.31673253,-0.27444354,0.052520532,-0.07387961,0.5670139,-0.2075502,0.32482284,0.450891,-0.74675804,-0.31565467,0.614544,0.2357349,-0.22991645,0.37629357,0.15842287,0.14137498,0.023830757,0.3002852,-0.51594526,0.2510923,0.28630865,-0.023445534,0.18067436,0.5254397,1.0495694,2.8417249,-0.076482005,-1.0725458,-0.0009794091,-0.12959138,-0.39266342,0.8508527,-0.1977404,1.0621,0.14730757,0.5655453,-0.3824517,0.40328437,-0.19477035,0.15912135,-1.6898363,0.9787439,-0.48901275,-0.8528354,0.40319192,-0.8955493,0.30280223,0.19038196,-0.31875914,-0.4944685,0.030852614,0.43936992,-0.34293273,0.3444549,-0.26038373,-1.4557947,-1.2289122,1.7697525,0.7329121,-1.7039671,-0.44820097,-0.93142074,0.39274925,1.2880061,-0.13522305,-0.7328767,0.20558201,-0.079281524,-0.7903311,0.43226314,1.5284925,0.483716,-1.8479643,0.06281798,-0.96910125,2.4344409,-0.45675632,-1.0043948,-1.2513727,-1.2558196,-0.6295011,-0.96272177,0.8629616,1.2249626,0.93963426,0.39883927,-0.30983853,-0.19570091,-0.45662475,-2.8428266,0.5777514,1.3039104,-1.1458076,-0.7094229,-1.5591155,0.98866075,1.7333295,-0.5468793,0.7901644,0.3590335,0.48020363,0.25579318,0.6732154,0.11893487,-1.1765659,-0.33710968,-0.2509989,0.03776143,2.4212189,0.4920802,-0.18269534,-0.19763897,-1.1555963,0.37047064,-0.26172712,-1.8462738,0.18089536,0.806266,-0.46231613,0.26468572,0.47052172,0.7221172,0.00873948,-1.2957644,-0.23255655,0.13854901,0.16046524,0.39166597,0.1417946,0.096485615,0.32992038,0.22952157,0.04338967,0.036542926,-0.2658277,0.68621624,-0.45323476,0.8404258,0.29244214,0.38322794,0.21966574,-0.22919886,0.5883621,-0.2869802,0.3103774,0.1990487,0.46359724,0.61864805,0.45228195,0.35505176,0.28056782,0.0017466247,-0.23877771,-2.1994996,-2.883516,-0.10754841,-1.8843162,-0.8136331,-1.2251943,-2.6577473,1.5159154,-2.7857041,-1.0934889,-2.9737284,-1.0081615,-5.120616,3.302621,-1.5947162,0.36984274,-1.7277385,0.35056934,-0.5409557,-4.300524,0.36093003,-2.7624784,-1.7055422,1.2484229,-0.682648,-4.287152,-0.21676579,-7.7328515,-2.7287896,0.58049524,0.97839296,1.5186465,2.1830738,0.16234687,-0.35049003,0.14676955,-0.37087235,0.0994153,0.075778455,-0.13596311,0.14505117,-0.016522111,0.1308664,-0.29654083,0.061932605,-0.2753077,-0.97816014,-2.5602257,0.0030279509,0.16258842,0.029261418,0.23568009,0.3019077,-0.3725838,-0.2881002,0.34885973,-0.25699273,-0.25915128,0.3676799,-0.28436953,0.37017012,-0.053228192,-0.12549582,-0.24675676],"dims":[32,32]},{"bias":[0.35973498],"weights":[-4.246025,-1.39663,-4.232172,-1.5697434,0.7042704,-1.1539727,-1.3394228,1.1855366,-1.617234,-1.1799324,3.683476,0.79563236,-1.2475419,1.8838264,5.1280017,3.5190537,-3.4324973,0.66184396,-1.1814282,-0.91830015,-1.3856859,-1.4036121,1.146457,-1.1511303,0.5710561,1.1209333,-1.2119409,1.277761,-0.92680347,1.4238265,1.2014239,-2.4612956],"dims":[32,1]}]