[{"bias":[0.28776988,0.4698088,0.29635367,0.23163244,0.30414093,0.115017645,0.32078582,0.6279377,0.5837678,0.44583243,0.3661424,0.40219972,0.29751956,0.46792448,0.16334844,0.8255733,0.3471383,0.29531437,0.35535046,0.26853687,0.3775181,0.19286318,0.26048884,0.13013919,0.19434814,0.509938,0.33733955,0.109997116,0.18130903,0.303564,0.3989567,0.31473213],"weights":[-0.039173476,0.23144567,-0.12333525,-0.16431881,-0.40936938,-0.31548244,-0.43686298,-0.119086534,1.0174674,0.98114824,1.0195397,-0.08681923,-0.051749382,0.80760807,-0.7541255,-0.06947341,-0.6780573,0.12933712,0.817096,0.14511263,1.2838632,0.048731036,0.27270433,-0.22463971,0.6331506,-0.24397689,-0.22853898,-0.1587046,0.47690344,0.027202122,0.43990034,0.015423818,0.52374756,-0.44879723,-0.19383779,0.20985593,-0.23202193,-0.060560644,-0.1906423,0.026468104,0.17411113,0.97664016,0.56196624,-0.5809417,-0.21052507,0.65825707,0.013201285,-0.36043468,-0.11962678,-0.12439658,0.09189597,0.194512,0.27473816,-0.22647823,0.010456873,-0.023584522,-0.6164407,-0.19501804,0.37001938,0.49367705,0.009155834,-0.2542994,0.20695977,0.191217,0.05710118,-0.4349241,-0.29937506,0.39927104,-0.24277666,-0.18367445,-0.55338496,-0.5232579,0.91344255,0.69750684,0.42088592,-0.2502503,-0.05386847,0.3311221,-0.10183902,0.37502053,-0.15195411,-0.2933932,0.07903176,0.08348082,0.5135634,0.12113736,-0.44547927,0.09304043,-0.10743352,-0.14335954,-0.5042882,0.47327736,0.9165936,-0.112210125,0.11418289,-0.3920732,-0.44984338,-0.053378005,-0.12282998,-0.57242507,0.036519434,-0.42342246,0.65654004,-0.070806935,0.23600543,-0.38247105,0.050795395,-0.14938954,0.31668878,0.60732573,0.20620504,0.23588723,-0.23232074,0.48646456,-0.35805807,-0.46102536,0.10199874,-0.20512187,0.56410795,0.028546194,-0.5279772,-0.0654699,0.33208874,-0.2871343,0.56385356,-0.07747921,0.4109728,0.027703574,-0.27119675,0.29658252,-0.14012799,-0.21081461,0.073542535,-0.15976377,0.40572256,-0.29690745,0.33303818,0.72927666,0.4080283,-0.22460984,0.44454506,0.5897143,-0.030765926,0.002261132,0.28883538,-0.20627029,0.120821945,-0.26505107,0.39919934,0.096746214,-0.44780353,0.13952936,0.5339324,0.06291047,0.18069965,-0.6852402,0.17729661,-0.56231207,-0.27835113,-0.26587322,-0.35101268,-0.1770815,-0.23172536,-0.44308907,0.60779166,-0.060844142,0.82756376,0.00013120387,0.5053725,0.85795236,0.8960595,-0.2779854,-0.059227213,-0.8974269,-0.21115254,-0.6103993,-0.15344931,-0.090251945,0.3151075,-0.7456309,0.19268292,-0.6167493,0.7564755,-0.04516872,-1.0832928,-0.21951209,-0.1966935,0.79691464,-0.33453274,-0.106746644,0.1464008,0.11984077,-0.7026506,-0.21345724,-0.022250513,-0.46308666,0.18129529,0.033735268,0.2492792,0.056866113,0.37283713,0.54554725,0.31284422,0.089335255,0.079687044,0.14557457,-0.13428225,-0.49510515,-0.99319744,0.09612273,-0.057801615,0.0061422866,0.41396612,0.39302975,-0.24689753,0.011658827,0.6349157,-0.36982042,0.3065597,-0.56234664,0.5614295,0.021407416,-0.23247951,-0.15282579,-0.17200097,-0.32496816,-0.15950234,-0.41669238,0.24004734,-0.003851737,-0.3051163,-0.32392046,0.4701122,0.63711387,0.14317271,-0.17914282,0.3409872,-0.17145126,-0.06289373,-0.008755116,0.061189346,-0.34872618,-0.7403003,0.19161323,0.40059087,0.6316405,0.11949848,0.22066456,0.78560126,0.25467893,-0.46415377,-0.22625238,0.23928177,0.11898505,0.97049695,-0.44630843,0.12476901,-0.21689218,-0.16585898,-0.20762277,-0.11515093,-0.51432765,0.3743115,0.008202041,0.049713433,0.6106304,0.014968584,-0.109894685,0.31615946,-0.33638754,-0.21438272,-0.06588536,0.67393374,-0.24333581,-0.24673723,-0.092039265,0.6195309,-0.09613398,0.13547821,-0.33975407,0.1339844,-0.043562684,0.8467601,-0.004762762,0.006273521,0.44362518,0.19805653,-0.29333043,0.35251054,-0.02241882,0.16420877,-0.036482543,0.021165567,0.005265769,-0.34154296,-0.5865033,0.34461993,-0.037599634,0.63287985,-0.33632368,0.4466185,0.45500353,-0.024715828,0.113530144,-0.10712868,-0.3914632,0.20399341,-0.33343217,0.35327092,0.044857405,-0.12366538,-0.32843524,0.086183324,0.009489021,-0.1588602,-0.027276276,0.0055028866,-0.34576362,0.027191488,-0.07990349,0.012164484,-0.25459555,0.18937269,0.19360676,-0.37733755,-0.7453878,0.39616558,0.13618055,-0.21666043,0.5142347,-0.13115688,-0.08568178,-0.2497889,0.1997973,0.022019256,-0.24181367,0.11357805,-0.17801191,0.2902729,0.3480631,0.27842712,-0.16251028,0.24977762,-0.13948137,0.24847482,-0.011119972,0.8970937,-0.12530997,-0.46012017,0.12531497,0.3115428,-0.21813339,-0.03564814,-0.08971532,0.21670333,-0.021636624,0.09399696,0.005136766,0.07124676,0.11303965,0.91755563,0.46905878,-0.7835276,-0.09372058,0.7672248,0.09235283,-0.2957549,-0.24852495,0.18902412,-0.59172744,0.80318224,-0.16034791,0.45503783,0.44818506,-0.36598262,-0.2120966,-0.4058462,-0.1034263,0.30827707,0.32277614,-0.108714394,0.26766026,-0.21224435,-0.1847544,0.45330572,-0.2792825,-0.23388289,-0.41938075,0.08485259,0.1095904,0.28155306,-0.09391976,0.25074673,0.9214903,-0.5021611,-0.37466845,0.41562584,-0.55241907,-0.2399501,-0.12314397,-0.34225538,-0.09855977,0.87206113,-0.33760747,-0.22436179,0.10283161,0.18907703,-0.1516794,-0.32271546,-0.049844038,0.8901644,-0.15660529,-0.009960201,-0.27367288,0.27634174,0.06856772,-0.39862764,-0.31269664,0.33192852,-0.19408917,0.42997077,0.14649455,0.22940755,-0.15266342,-0.34974682,0.2520344,0.18085657,0.10659,-0.19148628,-0.07948306,0.39878428,0.4449387,-0.11537072,0.039078277,0.2643607,0.2893408,0.81133276,0.7253448,-0.07384083,-0.33071253,0.018486105,0.060329605,-0.20846885,0.633238,-0.21218956,-0.16875698,-0.17386733,0.091867045,-0.22566347,0.076036006,-0.12358411,-0.33187747,0.2871401,0.02891169,-0.40236217,0.13330445,0.2685621,0.30691317,-0.0755737,0.014503585,-0.016819542,0.3479034,0.4946297,0.048811022,0.04549773,-0.21827987,0.14440998,0.05407931,0.28090522,0.4793106,0.3655473,-0.23134358,-0.039207947,-0.1887006,0.37426844,0.022361249,0.04812473,-0.088032894,0.23892778,0.08209556,-0.009225342,-0.28869966,-0.23962773,0.20262973,-0.14498569,-0.022515342,-0.0396298,0.12622981,0.35993052,-0.1306186,-0.49483162,-0.08457245,0.2734932,0.34008858,0.37367272,-0.15772581,-0.20574874,0.1366519,0.1468422,0.5149627,-0.16023755,0.3230515,0.27577975,-0.05022285,0.18965317,0.02816566,0.1365646,0.26354876,-0.30286825,0.16349272,0.1497317,-0.39983964,0.09597306,-0.12169251,-0.15518141,0.11879703,0.092248276,-0.39544353,0.8503542,-0.055048548,0.061865177,0.1103851,0.0608042,0.07709891,0.30616558,0.012352873,-0.10823624,-0.08741584,0.10619535,-0.00496365,-0.45222488,-0.45829165,-0.055696346,0.16204733,-0.019981822,-0.32506603,-0.071274735,0.17738383,0.111930124,0.20713866,0.2920798,-0.0518558,0.7464251,0.07967838,-0.14802265,-0.10067167,0.09895898,-0.27327722,0.38530266,0.08790985,0.05511489,0.16403767,-0.16788287,0.5045924,0.07088363,-0.36836854,-0.41930258,0.4352765,-0.3637406,-0.36834788,-0.1315345,-0.00050019694,-0.35024598,0.22022673,0.22001754,0.7024779,0.2539185,-0.30197018,-0.2868698,-0.024840578,-0.026674686,-0.3439275,0.37636536,0.025102854,0.025640886,-0.28188425,0.011537581,-0.204904,0.29869437,-0.29801062,0.66061175,0.029753838,-0.032565612,0.17020273,0.6297725,-0.36772874,0.3520702,0.118446566,0.4958831,0.14200932,0.6803217,-0.08814733,-0.18394142,0.22019914,0.102697596,0.08656375,0.395904,-0.16779979,-0.75929034,0.14913078,0.41372573,0.026748402,0.29748887,-0.009095155,0.014769688,-0.19145975,0.09256581,-0.009408298,-0.4831257,0.09118346,-0.20010157,-0.084449634,0.2900598,0.13231902,0.076895915,0.34679,-0.016711403,0.7011823,-0.09285657,-0.027380751,0.3508087,0.54597056,0.25597557,-0.18580028,0.10374497,0.055812884,0.41832995,0.16957301,-0.16253074,0.8886295,0.010369629,-0.14085507,-0.7911777,-0.006516118,0.21936339,-0.039322454,-0.361691,-0.2110865,0.22976695,-0.31109428,-0.079781264,0.03889036,-0.1676759,0.019951858,-0.10147894,-0.1419697,-0.4128513,-0.0029085819,0.12410587,-0.02664577,1.1032584,0.047370534,-0.09406495,-0.29065204,-0.17963366,-0.04741977,-0.019422863,-0.09790223,0.7538306,0.2824061,-0.4047828,-0.085332155,-0.14255819,-0.3403075,0.50566554,-0.02276768,0.48675263,-0.26610088,0.47018462,-0.5814747,0.2517499,0.13718823,-0.43982285,0.08250186,0.32376006,0.0047749314,0.87634486,0.030229162,0.37219438,-0.33142924,0.648302,0.49933544,-0.16628808,-0.13998184,0.19710287,0.8340268,0.116501935,0.14375803,-0.40854535,-0.15294693,-0.26228312,0.6135383,-0.79293567,-1.0544754,-0.03663461,-0.07438116,-0.25771385,-0.050963093,0.40228033,1.0242013,0.46468908,0.01248133,-0.6815826,-0.16581939,-0.10153246,0.10874953,-0.19547424,-0.51259905,0.17793295,0.25869918,0.08821586,-0.026640696,0.74451977,0.02551782,-0.001713362,-0.06075722,-0.0035249717,0.32457057,0.12967747,-0.0014388692,-0.03228841,0.1284989,0.41467336,0.29645258,0.098389864,0.26751375,0.68799156,0.024075978,-0.09916885,0.027682155,-0.24724948,-0.0983047,0.35601312,-0.014121239,-0.020479694,0.22584584,0.008269416,0.0491612,-0.02180186,-0.53115803,0.29909647,-0.40792885,0.21556197,0.081449606,0.17276251,-0.15447773,0.13883886,-0.012989728,0.13920121,0.016132724,-0.0076583447,0.036218077,-0.5319162,-0.32894114,-0.08800325,-0.12772977,-0.20258388,-0.33255792,0.75131243,-0.29852325,-0.13872077,0.3054111,-0.001696819,0.063053265,0.050717294,0.1517077,0.304722,0.1978515,-0.48385534,-0.26133543,-0.016372753,-0.31642362,0.41756913,-0.023747278,0.32808602,0.052719917,-0.15415807,-0.31330982,-0.71870637,-0.3525226,0.17003885,-0.13445719,-0.6213224,-0.3641066,-0.2731185,-0.38036197,0.09443441,-0.29107687,-0.16727196,-0.28334913,0.1169947,-0.33556798,0.15930203,0.16289514,0.6849289,-0.3621129,-0.044241153,0.01786232,0.22296588,0.09766492,-0.5101697,0.3325664,-0.4441965,0.2065478,0.2245861,0.35355166,0.2426019,-0.18679579,0.5097656,0.12743032,0.2165865,-0.18749739,-0.045295015,-0.23066087,0.1713385,0.048798062,-0.16320428,0.054423053,-0.04805516,-0.13762634,0.19690554,-0.10000596,-0.3651871,-0.5961728,0.20236374,-0.37673518,0.36226946,0.3851569,-0.43069842,-0.24226691,0.30231732,0.13200396,-0.0030484127,-0.01809332,-0.12642315,-0.08128573,0.18912628,-0.036995273,-0.4003441,-0.4165748,-0.073845886,0.5340488,-0.4252321,-0.20174293,0.5364715,0.09871429,0.35064095,0.22642456,-0.15439181,-0.14049207,-0.55633086,0.05949146,0.6858692,-0.13006909,-0.07490738,-0.08431269,0.26626778,-0.51539695,0.17481734,-0.25216714,0.23681435,0.018671883,-0.09677467,-0.12819226,-0.22046025,-0.050390992,-0.027844472,-0.119405225,-0.11182628,-0.30043423,0.48353428,-0.5379299,0.029740864,0.3556254,-0.08101445,-0.12856005,0.049258377,-0.07319743,0.01649917,-0.021542914,-0.16317387,-0.28038543,0.08205229,0.05944494,-0.19495322,0.22411335,0.15290669,-0.30790398,-0.19075142,-0.17390133,-0.21916112,-0.27823922,0.15745166,-0.1408245,-0.05056689,-0.16016218,0.10047892,-0.33482468,0.20262957,-0.3864723,0.4786415,-0.118906155,0.046341505,0.2125569,-0.53058225,0.108016916,0.19138777,-0.12856826,0.1601493,0.7097149,-0.07388297,0.49330354,0.06690891,-0.18713258,0.24145491,0.42358762,0.17656414,0.6333699,-0.1651003,-0.30562693,0.4534609,-0.33609822,-0.22435056,0.004343324,-0.32395148,-0.07560626,0.21370888,-0.10518577,-0.22856593,-0.13541691,0.2713331,0.3465876,-0.7141267,-0.7683244,0.14809811,0.06979825,-0.0048718494,0.11291952,-0.22677018,0.34755564,0.08285938,0.119167775,0.8334671,0.4701691,0.110217065,-0.514065,1.2745998,-0.11381629,-0.033361685,0.59634143,-0.13416669,-0.5486911,-0.4902607,0.091268644,0.3588835,-0.03914242,0.710465,-0.091003634,0.07406411,0.08385448,-0.40060806,-0.06498598,-0.22731562,-0.14591274,0.059780803,-0.45945996,-0.044679094,0.10422588,0.0775133,-0.049475126,0.18410084,-0.15973628,-0.21799701,-0.08732259,0.26743108,0.10631221,-0.37380773,-0.16276793,-0.00095573603,0.101509415,-0.26227096,-0.3712852,0.22251485,-0.24618131,-0.017965695,-0.085995145,0.12296027,-0.37332872,0.1666669,-0.68933815,-0.18459137,-0.34586275,-0.32793564,0.019992108,-0.29328918,-0.011170817,-0.032872718,-0.48304635,-0.27932656,-0.07479093,-0.5340441,-0.21730073,0.41270423,-0.1646427,0.70885587,0.15206355,0.24276453,-0.0003073899,-0.1420223,-0.24295487,-0.27048215,0.41553897,-0.18598624,-0.2451114,0.29698163,0.17412314,-0.3868706,-0.29349566,-0.29723382,-0.19480793,-0.1207149,-0.003976391,0.9444123,-0.00015831887,-0.11100631,-0.85704213,0.7771504,0.0617295,-0.14056112,0.32868403,0.10167101,-0.38099718,-0.47684985,0.4602037,-0.092279606,0.34946546,0.36995983,0.2518572,-0.3385461,0.10703267,-0.41014287,0.16853634,-0.13189654,0.23762143,-0.11458537,0.092886925,0.38497126,-0.039529573,0.5640306,-0.21397384,0.09691614,-0.33351377,0.08872317,0.51165926,0.24344991,-0.27847925,-0.12340891,0.18934834,0.4032001,-0.0066299243,-0.06647532,0.13134387,0.26947382,0.3300168,-0.024639096,0.36408213,0.059214015,-0.1884319,-0.032706022,-0.17280942,-0.14389427,-0.2619454,-0.8633693,0.08071818,0.10562123,0.06471549,0.30673343,-0.047789566,0.07375958,-0.4463864,-0.09342407,0.24962384,-0.19720362,0.14750622,0.43086174,-0.30180258,0.270015,-0.43328837,-0.05887694,0.0005604425,-0.08442243,-0.4455979,0.20994456,-0.1662887,0.3307519,-0.17676899,-0.37840986,-0.3864189,-0.118516125,0.1695901,0.32915133,-0.21308905,-0.14339873,-0.40060726,-0.0066669276,-0.053948466,0.51328033,0.30025512,0.21864228,0.07164062,-0.2974982,-0.19604453,-0.08297349,-0.39173764,0.25541866,-0.0734637,0.0040337453,-0.7929963,0.053381007,0.8551918,-0.08916449,0.1956337,-0.16192886,-0.27116993,0.0036374908,0.27208453,-0.0957822,-0.45607987,-0.16719216,0.122159734,0.08844546,-0.1459667,0.44396392,0.15208177,0.373856,0.08248595,-0.07464691,0.019974597,0.22760285,0.36373958,0.12654379,0.19719268,0.58544683,-0.14456268,-0.39577523,0.08334347,0.41442066,0.003664009,-0.21757208,-0.061802197,-0.20021519,-0.4501676,0.28431946,0.50054103,-0.023314599,0.0061456063,-0.106879,-0.15443613,-0.04416539,0.14166947,-0.39245355,-0.164157,-0.14702842,-0.8955606,0.112875305,0.16747472,-0.017775513,0.10325607,-0.018811539,0.03155519,0.37113145,0.57861906,0.1250332,0.070433475,0.40041482,-0.16916144,0.1663925,-0.50572896,0.08175891,0.61526185,-0.03051073,-0.13525681,0.17770699,-0.5461524,-0.5635089,-0.6745654,-0.8701728,0.74028736,-0.3789816,0.32598767,0.14556818,-0.15565716,-0.11062324,-0.29012418,-0.33778375,-0.43904594,0.42498168,-0.001086032,-0.17699589,0.23501395,-0.19777536,-0.016311944,0.33931395,-0.02888166,0.1105485,0.4116121,0.26924175,0.012693851,0.1610721,0.29485065,-0.18673155,0.25433883,0.14397451,-0.361098,0.20700645,0.1318773,-0.40856373,0.041389957,-0.1561212,-0.29465824,0.6230632,0.23723178,0.2985608,0.13605087,0.068026364,0.6189463,0.036903866,0.58549184,0.39727786,0.015614615,0.054369394,0.08958676,0.26463842,-0.45589432,0.6699486,0.26025978,0.005702381,0.07365883,0.520447,-0.075368784,-0.040213782,0.1501997,-0.33862644,0.24397355,-0.4863493,-0.11176704,0.0006374375,0.359675,-0.059476294,-0.310515,-0.46973792,-0.57384133,0.26244983,-0.17256653,-0.021276666,0.5763994,-0.45779637,0.011862672,-0.07317189,0.051284306,0.23912703,0.32970908,0.61792797,0.0022725887,0.2013832,-0.84180063,0.4579374,-0.034233663,-0.18349808,-0.41327715,-0.4521861,-0.18864305,0.16724207,-0.21604717,0.101616025,0.18827176,0.2085016,0.5501774,0.01997493,0.43638664,0.30090448,-0.18080114,0.33376527,0.015912572,0.18548532,-0.15106976,-0.13874917,-0.07808158,-0.09706238,0.54737526,0.22098108,-0.052552115,0.44569123,0.13622716,0.08114386,-0.377914,0.30638543,0.7371267,0.5320311,0.15667029,0.23261942,0.09604992,0.09445398,-0.13443069,-0.021021709,0.22897464,-0.009944438,0.092139274,0.22683515,0.3200684,0.40727627,-0.5610799,0.24375711,-0.5605442,0.008072621,0.5463091,-0.24074009,0.15694077,0.5221954,0.5347424,-0.081262216,0.27791852,0.09070861,-0.058510907,0.18028136,-0.36887962,0.3586439,-0.44486338,-0.3596901,-0.12739867,0.23467898,0.003175421,0.21138602,0.100577444,0.3045991,0.6790899,-0.1555397,-1.3679832,0.21740131,0.16346991,0.07726366,-0.15491724,0.1817151,0.2523873,0.069754675,-0.5528042,0.27663687,-0.5621351,0.02931742,-0.54062337,0.18367693,-0.4967583,0.12575561,-0.14240089,-0.14789876,-0.038079835,0.013751484,0.12804386,0.4052439,-0.1214845,-0.3360295,0.573682,-0.053811643,0.252612,0.19128065,0.23581786,0.15453286,-0.17492385,0.15012011,0.27996492,0.08806043,-0.09121253,-0.1953475,0.3736339,0.15337399,-0.11170412,-0.3811236,0.8686672,0.27886006,0.24308717,0.15765509,-0.245624,0.2722399,-0.3780374,0.24652937,0.1591977,-0.06590188,0.2967356,-0.016924117,0.56170434,-0.106298946,-1.0996532,0.30357414,-0.20920417,-0.1640527,0.48913673,0.14193967,0.09928463,-0.09994004,-0.78880745,-0.17788365,-1.150455,0.20193748,0.0516856,0.2291341,0.4790411,0.11067006,0.2865736,0.48046786,0.100229286,-0.7959086,0.10035794,-0.15452558,-0.46718317,0.11170505,-0.22208594,-0.09196295,0.18102919,-0.28258473,0.6308645,0.25276983,0.48906842,0.044544425,-0.28150982,-0.88715994,-0.04523716,0.092852004,0.26076487,0.42803508,0.07036376,0.15909351,-0.16348876,-0.3788595,0.70351535,0.02035479,0.031961244,0.09369229,-0.5120843,0.1244447,-0.613896,-0.84923077,-0.042500082,0.5362499,-0.14759102,-0.13441063,0.26707417,-0.07540071,-1.4150525,-0.021256043,-0.3336207,-0.44460115,-0.30194843,0.12567799,0.08272628,0.09668231,-0.43578842,-0.11754732,-0.24387513,0.11145597,0.17496231,0.23929593,0.54038167,0.42962468,1.039829,0.0015919082,0.46963257,0.18800895,0.29942685,0.77883494,-0.10356311,-0.13357845,0.55613357,-0.34646478,0.058834847,-0.5511035,0.020603873,0.4101903,-0.7535715,0.08743997,-0.10302311,0.06821243,0.0068067834,-0.16590887,-0.22684896,-0.14717163,-0.1148175,0.5879322,0.40805817,-0.047739085,0.27819994,0.10478124,0.40556592,0.16620442,-0.12071159,0.15815312,0.053571645,-0.01297892,-0.4532019,0.13370624,0.47375533,0.17901984,0.58244383,0.22637501,0.33590326,-0.6935411,0.11763332,-0.05634285,-0.71583706,0.23501234,0.49722454,-0.017612018,-0.26485717,0.3204359,-0.09087667,0.08382089,-0.40241534,-0.018084567,-0.03267446,0.13688377,-0.25732285,0.2486682,-0.55504984,-0.16615401,0.7017515,0.40493152,-0.26906055,0.57924324,0.45822304,-0.040435188,0.37575468,0.16155879,0.04498527,0.17988716,0.075727075,-0.31325072,0.649962,0.10709628,-0.15307544,0.0721587,-0.13383244,0.106709056,0.48581722,-0.11923614,-0.28173995,0.41410086,0.24063161,-0.12878212,-0.35883242,0.35399082,0.07231152,-0.10039322,-0.14823619,-0.27297068,0.64897776,-0.00910784,-0.09093441,0.2989631,0.36144882,0.011289161,-0.29456073,0.50870395,-0.24780057,0.23813319,0.35128602,0.17779966,0.6136632,-0.32137835,-0.1059594,-0.12692483,-0.541093,-0.034225468,-0.13531056,-0.39353412,0.19996727,0.12450438,-0.10253959,-0.20798932,0.17977867,0.17510924,-0.31862712,0.53293616,-0.6132091,0.2643534,-0.26662683,-0.36560285,-0.1995436,-0.08912397,-0.4808396,-0.5002421,0.18301642,0.26598966,-0.43538582,0.20202419,-0.3859649,-0.16448483,0.3229895,0.017602835,-0.02529928,0.10085633,0.046515185,0.1086317,-0.08383481,-0.19746128,-0.1265047,0.17559853,0.08204395,0.33904734,-0.3178796,0.21432546,0.11151629,-0.04070751,0.23151013,0.29623866,-0.056523457,0.23505196,-0.7196149,-0.17846718,0.012301625,-0.15347128,0.022894444,0.442411,-0.09624151,0.1714232,-0.045012575,-0.12940033,-0.32154354,0.38902104,-0.070941806,0.02681674,0.4449499,0.15724745,-0.6411992,0.5851321,-0.6127884,0.6338953,0.67859167,-0.15218529,0.53751314,0.017340034,0.18161485,0.18504281,0.039422777,0.4367947,-0.79743594,-0.025671283,0.4760551,0.009178124,-1.166629,-0.61346656,-0.51622486,0.0011299906,0.52436966,0.46626702,0.16009386,0.2163342,-1.1060045,0.14998949,0.4504777,0.12746657,0.015860429,-0.18601759,-0.005544385,0.075321585,0.2662498,0.17211565,0.13501203,0.14472425,0.6059462,0.2962538,-0.42034325,0.33728734,0.26105005,0.16690356,-0.08364028,-0.25020653,0.05294278,0.11220644,-0.25198644,0.00851911,-1.2750485,-0.32294077,-0.015006253,-0.17797382,0.1705614,0.18876418,0.15742421,-0.06710241,0.34828573,0.14909922,-0.30207136,-0.070332915,0.6797086,-0.04726297,-1.1316856,0.52322805,-0.3029736,1.0376621,-0.32922274,-0.090114206,-1.0417175,0.20388553,0.8065523,0.27754694,0.06403816,-0.050680917,0.101903036,0.10505457,-0.0354311,0.15864514,0.37214077,0.4859815,-0.09010196,0.48139635,0.2532203,0.61983025,0.27223036,0.34348142,0.31358004,-0.15098593,-0.5225583,0.1594917,-0.314203,-0.046333157,0.113233075,0.10109543,-0.60729563,-0.090429254,-0.12549624,-0.45346618,0.47433347,-0.07158688,0.1829711,0.36524838,-0.3492027,-0.056203596,0.43993622,0.21710439,-0.015281795,0.16467589,-0.09822962,-0.35566366,0.16071586,0.016296534,-0.15043116,0.2362527,-0.91257584,0.28434345,0.26728278,0.06443583,0.33680105,0.3373149,0.10298874,0.012498645,-0.06294913,0.34826374,-0.36886707,0.34206325,-0.47257712,0.14600272,-0.773991,-0.9272513,-0.3950381,0.020137755,-0.52443916,0.22499403,-0.2632343,-0.22239745,-0.005548507,0.17136848,0.23221034,-0.013595789,0.0197548,0.17224984,0.144108,0.21727173,-0.11247609,0.40431777,-0.23400088,-0.2158878,-0.40731502,0.05815931,-0.1986776,0.012747977,-0.7294727,-0.40128094,0.08683757,0.23338874,-0.28803107,0.13878767,0.097279295,0.12710147,-0.4444871,0.17895697,-1.9388247,-0.2719134,0.18644114,0.7094142,0.12118508,0.40588614,-0.83664346,-0.32592472,0.21358845,0.0034182156,-0.21009299,-0.49916723,0.098901585,0.4843511,-0.103638984,-0.23569319,0.38015753,0.0005006687,0.2275545,0.28236285,0.07287274,-0.010021656,0.13950573,0.015826287,0.3874051,0.19989796,-0.12985085,0.3592718,-0.64585143,-0.071795866,0.16074403,0.08831208,-0.68245673,-0.09146209,0.1291607,-0.37898532,-0.31211355,0.111535,-0.07724526,0.517501,0.17988393,0.05679942,-0.42243817,0.35691386,-0.0070363036,-0.3727037,-0.1826974,-0.24924856,-0.5081195,-0.121629424,-0.16061236,0.07643557,-0.41482493,-0.2598016,-0.5770432,0.09543222,-0.4200047,0.18247539,-0.10144178,-0.3964644,-0.29730803,-0.5590613,-0.24469033,-0.3435915,-0.80131257,-0.26135492,0.24272256,0.131111,-0.10781667,0.46092433,0.14392082,0.09055336,0.4298258,-0.0024062875,-0.3261386,0.49955586,-0.35577667,-0.08696542,0.11137109,-0.17634533,-0.96602744,-0.20541227,-0.25441334,-0.14329858,0.2872401,-0.16783454,0.086115696,0.33754396,0.3541401,-0.04361537,0.31278098,0.03359138,-0.8051359,0.11449916,-0.27759352,-0.5719169,0.0206513,-0.18492359,0.06443637,-0.0077571166,-0.14379036,-0.124558456,-0.12918921,0.17358539,0.0019281958,-0.071853906,-0.51761967,-0.25638422,0.13644682,0.4253852,-0.19329548,-0.64030826,0.06886709,0.4482057,-0.060886893,0.17743917,0.33455008,0.11790392,0.42510897,0.18812901,-0.67729753,-0.14336851,0.043400973,0.5456212,-0.050823774,-0.24210644,-0.08436906,-0.22913584,0.039857894,-0.20487288,0.17429869,0.064625874,-0.5727759,0.21456052,0.57767296,-0.028468875,0.007351828,0.3387154,-0.13615033,0.22129185,0.9088044,-0.25245008,-0.6849652,-0.2007614,-0.64784354,0.12437775,0.078220464,0.2127778,-0.22563462,-0.10775404,-0.42310023,-0.19581611,-0.12542589,-0.1679738,0.06834572,0.8101412,0.15318312,0.18999054,0.17850718,0.049839184,-0.24011916,-0.2809125,-0.30701908,-0.21341217,0.20278087,0.22471868,-0.64136577,0.15264563,0.3415172,0.24025926,-0.92319584,-0.045099575,0.41633317,-0.022445118,-0.27294204,0.104936734,-0.04980085,0.19674422,-0.116364025,0.19425535,-0.039577015,0.035276465,0.48087302,-0.05705097,-0.28490785,-0.20390391,-0.016314361,-0.13841206,-0.7054569,0.042857356,0.677741,-0.24933371,-0.5436344,-0.32999417,0.04696194,0.3583381,-0.27981633,-0.18580735,-0.16421394,-0.020753246,0.033759773,-0.25303555,-0.27656454,-0.20886044,0.13533323,0.6137444,-0.414844,-0.92963576,0.027819851,0.112983756,0.262848,0.3121734,0.16637614,-0.049568083,-0.5194061,0.16918737,-0.2422298,0.0022099097,0.37499225,-0.20048633,0.31237358,0.40385908,-0.30635142,-0.17404369,0.23081034,0.05959893,0.42320332,0.33227095,0.08008356,0.0861494,-0.5366224,0.10615477,0.13647766,0.1711919,-0.74052083,0.49729368,0.45946896,0.13233566,0.11180974,0.0267707,0.07018199,-0.01400263,0.06970086,0.13589488,0.023268867,0.6933065,0.03794613,0.039651964,-0.64511114,-0.110467255,0.56403416,-0.3202038,-0.10327443,0.3287635,-0.5910805],"dims":[64,32]},{"bias":[-0.47884625],"weights":[-2.3995385,-2.7250974,-2.2614508,-2.4208915,2.3168354,-2.046882,2.2026656,-2.4764242,2.4752836,2.6256812,2.112585,-2.3928099,2.195004,2.3776042,2.0794663,-2.4887872,-2.3833635,-2.3116117,2.6852987,2.102604,2.3380418,2.3893082,2.3625839,-2.6126437,2.5633495,-2.558045,2.0668738,2.1888492,2.4350507,-2.508206,2.0676153,-2.2847612],"dims":[32,1]}]