[{"bias":[0.20396891,0.34893557,0.22420001,0.39490992,0.07046641,0.27402282,0.17533463,0.3900274,0.3651692,0.11793651,0.13339397,0.44328898,0.13450094,-0.011309456,0.1717426,0.32725093,0.35603768,-0.026621623,0.23479623,0.21242934,0.4440942,0.43930984,0.097331434,-0.019708825,0.32785082,0.3568109,0.048142623,0.12505846,0.30855703,0.304267,-0.3607686,0.44610313],"weights":[0.6613466,0.4938468,-0.4912428,0.19115938,-0.3629055,0.24467339,-0.1727574,0.60275215,0.09059893,-1.1434404,-0.2866438,-0.9050241,0.082793035,1.0369519,-0.10901837,0.09214654,0.61386955,0.41723824,-1.193847,-1.1674386,-2.6543612,-2.7664702,-0.59636545,0.011170659,-0.1145175,0.25693503,-0.90518916,0.23373346,-0.25979644,-0.46500146,0.7236295,-0.23501314,-0.011578245,-0.36253455,-0.013615938,0.045736272,-0.42461023,-1.0094606,-0.69848734,-1.0091387,0.29458737,-0.18021132,-0.1595688,-0.48752627,-0.47922394,-0.6155869,0.075866535,-0.31766033,0.4886562,0.24896613,0.43795845,-0.24617168,0.61891794,0.07360979,-0.28082484,0.7261013,-0.05259138,-0.5813841,0.632082,0.25954595,-0.083293974,-0.658409,0.21359995,1.1779763,-0.07579562,0.34934172,-0.5105553,0.46673414,0.18096355,-0.094645314,-0.093006864,-0.55779475,1.5122386,-0.35284242,0.05485045,0.5417876,-0.43785203,0.46693558,-0.17179835,-0.21071774,-0.007710346,0.5341839,0.55985713,-0.82196724,0.02005881,0.06064854,-0.10154874,0.73375666,-0.18677905,0.44589484,0.6228808,-0.19283135,0.6154052,1.2317158,0.24467428,0.8686746,-0.0137964785,0.16622938,0.0886563,-0.04143559,0.5598702,-0.7321971,-0.18805572,-0.04774884,-0.09121876,-0.29479367,0.33613816,0.26513767,-0.15024763,0.24873717,0.10040757,0.20273261,-0.44993562,-0.007828259,0.6689277,0.36586884,0.0049576834,0.1366199,0.053151008,-0.12218175,0.042214613,0.03176815,0.44462073,0.22579834,0.033274546,-0.28729087,-0.38655758,0.368932,-0.65918684,0.28659087,0.0049967803,0.2602764,0.047900382,-0.5044595,-0.31329992,0.013442961,0.33385038,-0.66325724,0.6032597,0.31059003,0.18816431,-0.14730068,-0.10251911,0.28805527,-0.49069965,-0.059661075,0.37417263,-0.2880841,-0.15374014,0.68349874,-0.07660387,-0.31510836,0.35824484,0.4688746,-0.11492972,0.91567343,0.5180844,0.23149733,-0.08343578,0.710325,-0.09525664,-0.2764414,-0.23837037,0.2608322,0.8360069,-0.5180973,0.17860825,0.11215372,-0.032491837,0.33276972,0.72128946,-0.08516647,-0.08195991,-0.057844643,0.038991805,-0.30185068,-0.3594612,-0.033359215,-0.00028823758,2.156804,-0.11917786,0.045476466,-0.009635591,-0.6101696,0.044256527,-0.037350915,0.2654841,0.4612104,-0.006113214,-0.3056523,-0.03500721,-0.49345276,-0.5152479,-0.0725532,-0.079066254,0.2210839,0.13726543,-0.70290846,0.3300884,0.1278911,-0.097403266,0.4154062,0.37714714,-0.041261073,0.15048465,-0.019416343,0.38929197,-0.29318354,0.6327368,0.3308721,0.17203029,-0.13723105,-0.12677445,-0.027640922,-0.31944603,0.37828922,0.06695808,0.3311058,0.16322745,-0.38985834,0.4710264,0.8981636,-0.11607116,0.36429855,0.5062127,-0.27848518,0.54116184,0.14570822,-0.12936859,-1.7707417,-0.42341647,0.60511905,-0.7534179,0.37177536,1.2587411,0.007892778,-0.7942302,0.23917674,0.47935763,-0.08110226,0.59907657,-0.09698202,0.69125736,0.41991994,0.5446604,-0.08561241,-1.1727871,-0.22789265,0.5001943,0.1808898,0.2963769,0.45861626,0.44715664,0.38307226,0.18751605,0.5248588,-0.14610675,-0.35073516,-0.015206473,-0.32364196,0.022555878,0.19656879,-0.06850807,0.10061277,0.13168728,0.6672708,0.41091508,0.24492714,-0.4153244,-0.35486367,-0.07854012,-0.7422777,0.40777096,-0.095415816,0.35314494,0.026356416,0.19464672,-0.3517545,0.17261115,-0.05536101,-0.033317864,-0.1506876,-0.37069455,0.25830075,0.12751837,-0.019604819,0.15841039,-0.51292956,-0.13037018,-0.26425144,-0.069897376,0.107393324,-0.16324581,-0.2819957,-0.041245524,0.36826792,0.2786758,-0.2943527,-0.2637878,0.00095226837,-0.3886765,-0.23664236,0.06639297,-0.42576736,-0.08618547,0.16514347,-0.20865886,-0.28500545,-0.055769313,-0.14729902,-0.15957156,-0.46286476,-0.054055247,-0.3965024,-0.23637405,-0.06753952,-0.38884646,0.5306273,-0.3106957,-0.3360255,-0.36573136,-0.010762887,0.090327345,-0.03707612,-0.08822876,0.011373485,0.3634526,-0.09614663,0.25067663,-0.3749528,0.32367676,-0.13909273,-0.23551475,-0.009893119,0.2040285,0.13757753,-0.042202637,0.092844576,0.085388355,0.1015582,-0.14423731,0.001936932,-0.30600178,0.729396,-0.06426513,-0.052009076,-0.07151427,-0.005691972,0.58845305,0.7571387,-0.19775178,0.242863,0.15174611,0.43705824,0.11350851,-0.043166243,-0.3065855,0.7945936,0.05139051,0.31783256,1.1405246,1.2514752,0.7626454,0.13435578,-0.37501565,-0.24028668,0.14736027,0.27840617,0.29244557,0.0101769045,0.37727413,0.28714344,0.2624901,-0.44208565,-0.27376747,0.13945298,0.008593647,0.41759893,-0.08328636,0.7582521,0.6931368,-0.12441693,0.09276471,0.057839774,-0.3866992,-0.26940534,-0.06961493,0.20881873,0.25191942,-1.549049,-0.21151766,0.37394428,0.3666069,0.13389274,-0.06844458,0.06834631,0.054588176,-0.41878757,0.3456878,-0.789055,-0.72669697,-0.029750811,0.20997836,0.79195553,0.68101573,0.2706803,0.04206419,-0.75393844,-0.16894127,0.3211864,0.2201613,0.23064297,0.3006667,-0.025958324,-0.4658543,0.29490298,-0.18938285,-0.09594961,-0.18856074,0.057651445,-0.28696752,-0.0724895,-0.2688883,-0.2324157,0.0055334056,0.07254659,0.5863002,-0.0050155204,0.019776938,-0.073854215,-0.1437079,-0.06846495,-0.008445109,0.21330734,-0.024091896,0.7581946,-0.76387024,-0.8172944,-0.23948008,-0.0665763,0.20133574,0.04922635,-0.12811323,0.49858907,0.2676589,-0.22675598,-0.15392472,-0.20618747,-0.18038672,0.278761,-0.24447827,-0.61825997,0.12632343,0.6464964,-0.65710694,-0.0069200625,0.45437804,0.16767651,0.64219433,0.41145656,-0.41906258,-0.2008379,-0.08722832,0.032368492,-0.055438336,0.21294978,0.5713828,0.19675495,0.41038156,-0.12917268,-0.49699613,0.009975096,0.05211963,0.21417864,-0.08375352,-0.17638825,0.35121056,0.025801651,0.12327665,0.1950824,-0.5404913,-0.16526891,0.00067134347,0.4035658,-0.011437537,-1.1327116,0.15677908,-0.20491667,0.02633097,0.034906443,0.29950482,0.10636898,-0.24404341,0.17071916,-0.036410548,-0.16908441,0.24136883,0.29657164,0.70658576,0.2038122,0.45627883,0.3063545,-0.21413644,-0.48197678,0.3109288,0.043175142,0.43931088,-0.2737478,0.15897998,0.42985338,0.019673025,-0.041103482,0.51829034,0.1478894,-0.34572098,-0.41899157,0.3997129,-0.5419849,0.057566404,0.5917054,0.23018636,0.17580484,-0.42015824,0.27587578,-0.5117274,-0.029413756,-0.3423601,0.35569674,-0.043057904,0.26122576,1.2118144,0.15044576,0.63427967,0.43084282,0.013069384,0.117305025,0.23235503,-0.3357205,0.115910895,0.18041241,-0.18082711,-0.3970552,0.008989985,0.12829007,0.3895551,0.060885634,-0.35995334,0.38096052,-0.4160618,0.22100835,0.5449662,0.5972284,-0.07940058,0.32014892,0.6325767,0.48062238,-0.010141116,-0.15481643,0.24946396,0.30347914,0.21532269,0.18726139,0.8342385,0.26999858,0.063500196,0.46173474,0.04332784,-0.11267125,0.15407513,0.3591401,-0.44677868,0.17848267,0.4663789,0.028290438,-0.15988982,0.66432315,-0.09527245,-0.19398881,-0.19600952,0.3152897,-0.23606184,-0.18109226,-0.16295367,-0.09340345,-0.09787447,0.65279144,0.4141422,-0.35833535,0.18837525,-0.011556631,0.3776505,-0.47280565,0.064612955,0.1239592,0.2296867,-0.6907453,-0.81986994,-0.7028879,0.0900433,-0.478608,0.22152469,-0.038719617,-0.42122483,0.22649732,-0.05815004,0.31863603,-0.054539967,-0.59714246,-0.40655112,0.0076202354,-0.27058196,-0.021632098,-0.9924714,-0.6516499,-0.07848084,-0.03979421,0.51212573,0.048760593,0.19948317,0.47768775,0.15334667,-0.6573605,-0.072663404,0.00042668174,0.099737376,0.2092482,0.6122303,0.17184493,0.24149978,0.48602036,-0.53293425,0.11144989,0.3247761,-0.10974798,0.6296487,0.6498962,0.6966549,0.14673848,0.42965582,-0.16052555,-0.17944077,-0.23073566,-0.12757605,-0.16075194,0.05399288,-0.31404153,0.032716095,0.15007581,0.2290173,0.21228386,-0.08014763,0.010603236,-0.19100824,-0.07683573,-0.27548832,0.041112866,-0.33509257,-0.04765494,-0.1763154,0.89673924,-0.56752676,-0.13397728,-0.24255449,-0.37166885,0.21827742,-0.39013407,0.30590987,-0.22538733,0.05293647,0.35459617,-0.10442289,-0.28208813,-0.011070523,-0.16539164,-0.3640552,-0.22340415,-0.13326742,-0.24743055,-0.2090738,-0.08465283,-0.19755839,0.15892816,0.030110879,-0.24594423,0.16711752,-0.25761506,-0.21216525,0.0030415033,0.3067003,0.4772377,0.10813411,0.18741666,-0.2850689,-0.70930177,-0.3498003,0.05709093,0.06423373,0.31058732,0.3705148,-0.38471714,0.387192,-0.053603396,0.27860993,-0.0661137,-0.86967856,0.16478285,0.49722415,-0.0029359728,-0.24997221,0.3702454,-0.25062114,-0.22596967,0.88111913,0.2045067,0.060744435,0.31417498,-0.48157614,0.009734186,-0.23653051,-0.45333245,0.3425757,0.24119206,0.1535043,-0.13823019,-0.80758864,-0.5569085,0.22952843,-0.22754918,0.13329561,-0.5037133,0.035064697,0.114202715,-0.03476834,0.17817132,-0.073720045,0.095790334,-0.52181864,0.20526682,0.57360756,-0.48627636,0.2137812,-0.87067693,-0.3124105,0.37078458,0.30749983,0.62740064,-0.27987313,0.22289243,-0.40852347,0.5049814,0.118712135,-0.52215064,0.58622766,0.39532253,0.48539096,0.82062507,0.3593573,-0.27690652,-0.208702,0.32700652,0.23000811,-0.7252435,0.16753049,-0.052771688,-0.24449249,-0.42663485,-0.04198212,-0.55932605,-0.16061929,-0.4644113,-0.02768441,-0.20266676,0.04781574,-0.2442983,-0.019443495,-0.067222595,-0.21618772,-0.1829616,0.40463492,-0.06111104,0.21119028,-0.10865522,0.49940395,-0.8168629,-0.42725536,0.56432587,-0.5515827,-0.25254035,-0.38708854,-0.4850629,-0.25436023,-0.10746132,-0.19483876,0.09480813,0.16986701,0.39251697,-0.026209252,-0.26694885,-0.59150374,-0.26453936,0.23738457,-0.12710759,0.3038044,0.14564486,0.075771995,0.34600523,0.019631602,-0.23302555,-0.07475872,-0.13535327,0.35758725,0.39402145,-0.050165143,0.2694313,-0.13603479,0.6370363,-0.52729774,0.2739119,0.27765155,0.36322695,-1.0752271,-0.17152673,0.38454688,-0.24879806,0.03806409,0.32449126,-0.08715446,0.52694947,0.1690199,-0.06122742,-0.46356827,0.60707825,0.19214645,0.17882942,-0.31469202,-0.23877765,-0.18086728,0.8455614,-0.5105377,-0.4337123,-0.012046611,0.21545942,0.228616,-0.023791214,0.032050274,0.036708713,0.7512607,0.25987774,0.37781212,0.33182335,0.11015637,-0.33306912,0.6383238,0.5940384,-0.4280398,-0.29829785,-0.032658946,-0.23146474,-0.17941627,-0.48093972,-0.1376021,0.09934241,-0.06650027,-0.22354336,-0.048494168,-0.27006897,0.0076762624,-0.57367915,0.10068107,-0.5859302,0.026280917,-0.005705212,0.25629303,0.2339559,-0.57151735,0.056847505,-0.38109434,-0.06562239,-0.43469965,0.17489,-0.16320483,0.142392,0.32302338,0.06575544,-0.22355537,-0.08649404,-0.5078242,0.04002893,-0.04219459,-0.016487423,-0.03894757,0.6057179,0.3004882,0.10996306,0.3388021,0.17757237,-0.38902134,-0.012989363,0.085194744,-0.16088806,-0.48131123,-0.3634438,-0.29948452,-0.11668332,0.24921583,0.13977495,0.35850468,-0.027458215,-0.039855987,-0.10327898,-0.25459626,-0.11872626,0.1329911,0.25777406,0.43015933,0.007155559,-0.27780437,-1.0421215,-0.075431466,-0.14638345,0.2454986,0.40265128,0.4718177,-0.31341282,0.6619498,-0.13663271,-0.06444182,0.37711766,-0.050295528,-0.26287198,-0.43252262,0.49579394,-0.20335339,-0.52728015,-0.2994326,-0.3353458,0.054664128,-0.5940544,0.5129474,0.049563862,0.22774668,0.14219114,-0.55248046,0.011038303,0.05449295,0.39851025,0.22812903,-0.08704099,-0.3991769,-0.6248144,-0.3249855,0.32315636,0.29725966,0.29458687,0.18722512,-0.12586267,-0.018322023,-0.20853375,0.101228096,0.18913887,0.3179947,-0.27259368,-0.35742623,0.087815225,-0.6784706,0.787352,0.06464563,-0.27211645,-0.04527812,-0.5180767,0.092524745,-0.016862549,-0.06705207,-0.2681015,-0.08418926,0.32726088,0.15997559,-0.16130644,-0.0812072,0.030341504,0.36602437,0.55682933,-0.32635754,-0.3830491,-0.04506214,-0.101394795,-0.0568044,0.03519146,0.025788883,-0.093314394,-0.44476652,-0.008653964,0.040600993,0.2503569,-0.06457417,0.31954756,-0.06504215,0.24096566,-0.18837592,0.30814496,-0.13509963,0.21023676,0.0029835908,0.00934815,-0.62542284,-0.06403516,0.037895583,0.20562945,0.2325401,0.08021594,0.3997144,0.6023135,0.28823212,0.29919785,0.2369625,-0.22662513,0.32387343,-0.31187883,-0.29758936,0.06704677,-0.13747017,-0.3719095,0.09265311,-0.2463702,0.31851763,-0.15030903,-0.760822,0.11851842,-0.20566334,0.09587794,-0.30770007,-0.28622025,-0.51263964,-0.112798154,-0.32930064,-0.5364,0.57814056,-0.12881435,0.3768492,0.26744577,-0.46774468,0.041206803,0.0877097,-0.5224153,0.3704425,0.75196975,-0.4418048,-0.28643787,-0.05618767,-0.09016949,-0.14242397,-0.3658542,0.17808937,-0.021501811,-0.63558966,-0.6675624,-0.33534378,-0.1074781,-0.048730444,0.44692987,-0.5081898,-0.26315176,0.58651453,-0.08136771,0.16610238,0.028284753,-0.18022226,0.61172485,-0.13167103,0.11158984,-0.40976715,0.10485922,0.32561824,-0.019546572,0.24706027,-0.0672954,0.19751891,0.6203196,-0.15396394,0.14175053,-0.1552715,-0.087308906,0.06715546,0.2671714,-0.112806015,0.007442797,-0.619811,-0.7731195,0.04641236,-0.07237371,-0.15112922,-0.02462627,-0.19780736,0.48879543,-0.06267568,-0.361804,-0.009056477,-0.059813228,-0.2618486,-0.06906915,0.19803305,-0.015377069,0.45452306,0.059752654,0.03505156,-0.23659801,-0.3027096,-0.5918398,-0.41841912,-0.1818898,-0.15826158,-0.042966295,-0.20092736,-0.3044619,-0.40203544,0.3415245,-0.6236044,-0.104431316,-0.14017601,0.03238933,-0.0643488,0.121985085,-0.259421,-0.74818933,-0.33631504,0.57945246,0.052186873,-0.34799525,0.34419224,-0.1422274,-0.8106979,0.32824394,-0.2907825,-0.17481855,0.20166132,-0.025757737,0.13284622,0.2437433,0.31352615,0.103388526,0.7174597,0.84423,-0.20095713,0.34115538,-0.31060493,-0.2817655,-0.085524045,0.21708739,-0.04407256,0.095144354,0.31506813,0.03878386,-0.29207253,0.27658647,-0.067757286,0.10001476,-0.28591788,0.4605363,0.19062606,-0.11969419,-0.3526633,-0.1699427,0.087668255,-0.2517951,0.102077305,0.2999679,0.06734617,0.0036076582,0.29632115,-0.095856726,0.12916602,-0.0017349098,0.3966473,0.43406948,0.004195358,0.0073271645,0.30293673,-0.21177591,0.42474586,0.036862526,-0.12763149,0.45930943,0.3648855,-0.30248585,-0.6712805,0.10425193,0.3339119,-0.26406386,0.26998442,-0.39668593,-0.10995006,-0.22244284,-0.38173005,-0.4894411,-0.19866349,-0.031468455,0.30656612,0.31203124,0.09641262,-0.2842897,-0.06394294,0.03766603,-0.14273643,-0.104012,0.06443053,-0.008316248,-0.0076113637,0.46524614,-0.37647256,-0.26128724,0.074555956,-0.046963517,-0.18460122,-0.12273168,0.00567092,-0.30604425,0.13968498,0.0070539415,0.31486064,0.096727595,-0.41336828,0.2631408,0.37933436,-0.008429426,-0.043419406,0.051507153,0.013997167,-0.28011394,-0.21347125,-0.008832698,0.06988525,0.5624738,0.15092699,0.04121009,-0.16520303,-0.13766119,0.08743883,0.010503154,0.045707364,-0.36000505,0.08710291,-0.24258648,0.34850743,0.43147814,-0.14492606,-0.14003727,-0.29994357,-0.011445252,-0.2871759,0.061005864,-0.18858859,0.33927673,-0.49755925,0.20648034,0.45083284,-0.15373434,-0.173743,0.40572137,0.39451766,0.11478772,-0.11635033,-0.278958,0.13697658,-0.10271877,0.40951642,0.4326636,0.28509992,0.08518614,0.19813561,0.19076024,0.28414127,0.3354534,-0.30693272,0.1972002,-0.44395402,0.25962776,0.15094751,0.13715097,0.64816296,0.16631588,0.6119728,-0.7204307,-0.21334359,-0.5932942,-0.2574346,-0.37097022,0.09767953,-0.18398693,0.04946781,0.15472518,-0.27787754,-0.025267806,0.28819823,0.4632746,0.30383638,0.15795113,-0.109530084,0.7734104,1.0745107,0.19721563,0.47997567,0.19097424,-0.48446462,-1.0853516,0.25092417,-0.008849558,-0.19520535,-0.11817823,-0.26591602,-0.18862286,-0.13976641,-0.76261723,-0.12379041,-0.21479854,0.059754908,0.0690244,-0.8200576,-0.18465121,0.36777097,0.019503376,-0.012053007,-0.4122556,-0.7552047,-0.04488965,-0.039949656,-0.37944803,0.059088275,0.28189278,0.1984714,0.3959903,0.14459848,-0.014822327,-0.33489755,-0.32278523,-0.20316467,0.21352965,-0.13731112,0.6604828,-0.46988013,0.44872585,0.4655977,0.08533954,0.7327329,-0.03856606,-0.12577796,-0.24330708,0.33037034,-0.1841474,-0.11334585,0.38045228,0.18648295,0.4594129,0.19309935,0.16097617,-0.19743377,-0.21226805,-0.5485535,0.44941667,-0.33120063,-0.13816036,0.15697649,-0.08914646,-0.08918936,-0.4154752,1.1069336,1.219026,-0.41796482,-0.009943244,0.12362675,-0.28417057,0.007938859,-0.14647661,-0.06885375,0.0446167,-0.7562616,-0.07731562,-0.107228376,0.29433173,0.1032128,-0.048418116,-0.39685795,0.85517687,0.14360045,-0.0804468,0.11415018,0.31333256,-0.15415487,-0.022751557,0.08174311,0.24543114,-0.043106265,0.3005367,0.18945971,-0.17719111,-0.31081975,-0.30501035,-0.35789627,0.3408512,0.018483343,0.36924127,-0.090540655,-0.4864452,-0.20967223,0.49295834,-0.40022632,-0.07586655,-0.25076395,-0.2257142,-0.023461435,0.051243994,0.46629858,-0.310637,-0.6835123,0.323855,-0.28969508,0.18568653,0.054628722,-0.20595483,0.113874905,-0.072091274,0.078538775,0.53253794,-0.13110524,0.1682066,0.25028604,0.101068445,-0.061507415,-0.061114468,0.46644485,-0.24400502,-0.20546551,-0.3689695,0.21249115,-0.339026,0.19465315,-0.1442222,-0.23894677,-0.15913805,-0.21024138,-0.52771723,0.18340494,0.17861056,0.36717603,-0.59808713,-0.1620074,0.39468172,-0.36111733,0.038143888,-0.27289227,0.1275358,-0.07707153,-0.2701682,0.12690541,0.0011360558,0.106947705,0.54256606,-0.020458803,-0.50414085,-0.5890104,-0.14807932,-0.30893016,-0.734933,0.041350834,-0.04734251,-0.13786876,-0.39905822,-0.045650005,0.3542444,-0.23360209,-0.32275456,0.5028477,-0.90693665,0.23551108,-0.27570137,0.34170577,0.08927837,0.05785726,0.42807987,0.09964317,-0.19845815,0.108572535,-0.4192933,-0.4884981,-0.29419997,-0.043880552,0.1493187,-0.0013818792,0.16053426,0.4306907,0.65336466,-0.21170017,-0.105440274,-0.133716,-0.5432599,0.20139039,-0.26852015,-0.40726045,0.031426724,-0.04204432,0.015282849,-0.3059775,-0.059955075,0.27164066,-0.20665394,0.14626147,-0.36358446,0.38797504,0.28484017,-0.31671405,0.057118032,-0.67105657,-0.44376677,-0.3330052,0.019857645,0.21613207,-0.10493015,-0.74104536,-0.22121292,0.069581404,-0.07326841,0.36081362,-0.11441689,0.38989666,0.1647011,0.71705765,-0.45877647,-0.01943872,-0.34104446,-0.13545944,0.16088864,-0.2540583,0.1543081,-0.18673229,-0.6158229,0.11920795,-0.24340035,0.22739506,0.13793387,-0.03960703,-0.29931512,0.18999924,0.112664066,-0.04734767,0.30211326,-0.015851593,0.09433324,1.0338637,0.23119894,0.12029849,0.3164615,0.24356131,0.08948424,-0.24548516,0.55823207,0.27487266,-0.7740958,0.6840611,0.26511827,0.026240848,-0.011148722,0.15997444,-0.17721248,0.36486393,-0.07321764,-0.10098633,-0.66837996,-1.3113202,0.028705979,0.31865308,0.38020468,-0.14775011,-0.5096448,-0.2227606,0.20688185,0.15970342,0.4862832,0.29713413,-0.0035493537,-0.34322748,0.40522516,-0.08755602,-0.029680064,0.07122705,0.22351322,-0.23088278,-0.0653675,0.25459936,0.36633557,0.86966807,0.6563548,0.4882042,-0.46938172,0.5360371,-0.47499436,0.24664107,0.75243944,-0.32381675,0.23676255,-0.5692313,-1.2229401,-0.1733617,0.44231814,-0.13094604,-0.3590522,-0.5001335,0.7138927,-0.08621562,0.04839712,-0.20522612,-0.016648091,-0.07347587,-0.24092095,0.33818522,0.17829704,-0.4652715,0.23392406,0.021110296,-0.34444022,-0.4544617,0.26022756,0.0706781,-0.3777738,0.20707825,0.07991727,0.035003148,-0.5603199,-0.055970084,0.2693052,-0.5100783,-0.05559359,-0.22920433,-0.43770465,-0.39541888,0.28422153,0.0784111,-0.035804037,-0.19727325,0.12853304,0.33177936,-0.07418191,0.54775256,-0.18080029,0.40975252,0.2377984,0.43243214,0.22387666,0.05649505,0.037411187,0.22708137,-0.38113984,-0.06272674,0.13471276,1.9174598,1.6870557,-0.22011858,0.84954476,-0.37147272,-0.28782436,0.41452777,0.12909958,-0.082631856,-0.47051105,-1.3157119,-0.39276886,0.050076086,0.08539397,0.44228086,-0.7868548,-0.62057495,0.8465979,0.0855639,0.14758801,0.009459358,0.19840579,0.020170525,-0.3856566,0.4595057,0.46769783,0.33082694,-0.036982935,0.27571827,0.02041891,0.00799676,-0.37232557,0.64689535,0.19853571,0.026576813,-0.2958299,0.117152475,-0.5609512,0.120079584,0.7404653,-0.23261979,-0.21403958,-0.29116917,-0.40365437,0.13990326,0.31330135,0.17011388,0.1790233,0.16310833,0.26697016,-0.18741411,0.26651534,0.08013041,-0.061502542,0.10107295,-0.20802197,0.046041574,-0.040546462,0.20073175,0.37103257,-0.07072295,-0.32769603,-0.18422116,-0.17381017,0.5461338,0.2078663,0.14919643,-0.096848994,0.26832584,-0.2505273,0.4670744,0.37891135,-0.20034495,-0.054533463,-0.36384377,-0.435204,0.24817397,-0.1652252,0.60926193,0.19515419,0.0024364167,0.045469135,0.08878328,0.103242785,-0.15415767,-0.80736834,-0.7075648,-0.22711433,-0.5667487,0.014192489,0.16650638,0.39227733,0.84945357,0.3460323,-0.13604484,-0.25059485,0.92439604,0.00810302,-0.518849,-0.89629054,-0.33493003,0.40938535,0.24672855,0.2988299,0.14416012,0.081771575,0.17720173,-1.1851459,0.084676534,0.42041922,-0.03428229,-0.1724118,-0.3743853,0.32202557,-0.32188168,-0.018962093,-0.45275056,-0.12637053,0.092832655,-0.25947118,-0.41502017,-0.13681038,0.17982039,0.53396666,0.17628871,0.43524277,0.36040503,0.09541077,-0.0854424,-0.6842513,0.10711064,-0.5865572,0.13985516,-0.43824875,0.0067793746,-0.22514509,-0.2612944,-0.22979286,0.2865497,-0.7469126,-0.80671567,0.38336524,-0.7337225,-0.92021865,-1.168235,0.56089854,0.6236119,0.7884721,0.20220546,-0.06786653,-1.8565416,0.20915322,-0.17042603,-0.0659612,0.22619878,-0.86597365,0.18724218,0.011016673,0.4723033,0.84585106,0.62415,-0.33508354,-0.117675714,0.12916838,1.329926,-0.90089667,-0.03920361,0.30867562,-0.91260767,0.3713771,0.10525221,-0.74290466,0.44454733,-0.31176168,-0.34793088,-0.6457933,0.55797464,0.8445389,0.1999851,0.06323772,-0.43694806,-0.003049209,0.47671968,0.25093213,0.08325046,0.43722725,-0.036389835,-0.4157039,-0.5289123,0.8895253,-0.5686646,0.9248793,0.7316843,1.0285891,-0.32374284,-0.29750782,0.15811494,0.41366038,0.42718467,0.9329795,-0.36213017,0.30780062,-1.7176279,-0.84315693,0.08954662,-0.0075300517,-0.03200205,-0.028498063,0.20367531,0.09050282,0.067275636,-0.5134927,-0.27538234,-0.69064736,-0.097411886,0.1467838,0.2877326,0.020920254,0.21965532,0.91713256,-0.28671506,-0.24009159,-0.4892211,-0.116744906,-0.82887137,-0.30201298,-0.10723348,-0.27846196,0.0432227,-0.21505527,0.56083256,0.3555091,-0.5375152,0.51140755,0.4723888,-0.45350927,0.48528418,0.07828052,0.036271006,-0.7109096,-0.6099446,-0.36555395,0.27260295,-0.16239312,-0.84947723,0.23039448,-1.1872085,-1.2137204,0.33455616,0.21517624,-0.047757342,0.42734027,0.340483,-0.5599165,-0.7962942,-0.5719102,1.5288811,-0.06160279,-0.1112132,0.018456515,-0.07979537,-1.1670208,0.8795245,0.60131574,-1.5079654,-0.24524562,-0.060703848,-0.81110597,-0.03581113,0.0658599,0.36911082,-1.0698162,0.70775175,-0.52569723,-0.08695112,0.03245346,-0.26529866,-1.8307967,-1.6526558,-0.3611284,-0.61156034,0.23145945,0.22282146,0.09873524,-0.025164902,-0.3372769,-0.46655875,-0.6878329,-0.099225864,-0.22823735,-0.419259,-0.5763818,0.19850363,-0.0047359304,0.4435606,0.70870787,-0.2705655,-0.70818317,-0.38706002,-0.40098035,0.09663952,-0.4754652,0.638731,-0.10570014,-0.16329949,0.09641318,0.4694827,0.5274548,-0.93300563,0.15183339,0.8873759,-1.8980057,0.41228122,0.051899634,0.54336774,0.35373014,0.4075656,0.15798688,-0.962475,-0.6648193,1.024612,0.37115338,-0.1709116,-0.07523683,0.74018824,-0.12955658,0.039286256,0.505372,-0.9699245,-0.7677237,-0.014887624,0.12953822,-0.033016592,0.3415006,-0.1873398,-0.096368484,-0.43105915,0.7877976,0.40073258,0.17527384,-0.041699104,-0.5728558,-0.5793895,-0.035408016,-0.3834821,0.013552792,0.046703443,0.42923698,-0.030363224,-0.31319538,-0.3524331,-0.24150312,0.79906183,0.5655733,0.02920328,-0.15839823,-0.14782128,-0.24358514,0.106276244,0.026085448,-0.4355799,-0.5100561,-0.5455665,-0.47501883,-0.3229029,-0.08080384,0.4692502,-0.37653694,-0.96836,-0.17780101,0.47375026,-0.12917952,-0.93032426,-0.27580327,-0.2346486,-0.026045447,-0.20021594,0.009181693,0.41897273,0.24249318,-0.10439117,-0.0296646,-0.4222394,-0.6095587,-0.12391499,0.31438467,-0.24033639,0.39058262,-0.9542257,-0.68084526,-0.28669402,0.4399866,0.09528097,0.8543805,-0.6054024,-0.82357556],"dims":[64,32]},{"bias":[0.45528913,0.14937052,0.20724721,0.14968398,-0.008416872,0.025357423,0.5224201,0.13783857,0.19129875,0.18595056,0.07820218,0.3229646,0.18327962,0.06835744,0.21056503,0.21824297,0.069972344,0.6754751,0.054060884,0.04726914,0.3964465,0.20266932,-0.24239221,0.08091151,0.4928694,1.0036298,0.11834817,0.13952547,-0.3067138,0.47059882,-0.3635716,0.48381418],"weights":[-0.22716533,0.2827325,-0.12548678,-0.36238986,0.27740577,-0.51643616,-0.6772705,0.37115797,0.10482244,-0.07162969,0.1331598,-0.03230081,0.28225425,0.013227609,-0.16103047,0.39120907,0.2927801,-0.22801216,0.02396314,0.19998862,0.3187164,0.22342253,0.9220913,0.24431437,-1.1329073,-0.25083095,0.29330638,-0.5861339,-0.52772033,0.29186285,-0.47046435,-0.16305463,-0.6342094,0.14153537,-0.5531233,0.016850092,0.8564613,-0.11027933,0.10860352,-0.25355792,-0.016221406,-0.09300304,0.12649547,0.25452137,0.32808793,0.90933543,0.3777073,0.11099318,-0.4541504,1.0985806,-0.14640749,-0.11513791,-0.081019446,-0.120971315,-0.1507849,0.3002553,0.107644945,1.2998993,0.2254746,-0.0793595,0.10134375,0.38264504,-0.28305906,1.1495427,-0.44738016,0.13903153,-0.13038774,-0.3245696,0.10635193,0.15115003,-0.732531,0.04084547,0.26688293,-0.08875257,0.78363633,0.1465486,0.5892911,0.15585384,-0.1080568,-0.29903316,-0.1266197,-0.84969825,0.19942252,-0.08523858,-0.026080495,0.045917746,-0.02205643,0.2271683,-0.7686919,0.7741593,0.31300238,-0.27691925,-0.27068907,0.48465127,-0.15723209,-0.2870298,-0.3676705,-0.761375,-0.16482024,-0.052984633,0.12732902,0.1040845,-1.5698183,-0.53714246,0.4135202,-0.104364164,0.40110782,-0.72033054,0.32605028,0.6597176,-0.22001822,0.13152176,0.07970158,-0.86210173,-0.33957508,-0.6550582,0.3345206,0.4032279,-0.56771135,-0.2987118,-0.622352,-0.10718524,0.06502061,-0.88240933,-0.33266532,0.030065123,-0.08573679,-0.039991878,-1.0673851,0.31746212,0.2811339,-0.29738215,-0.14779045,-0.5912185,-0.83673084,1.1881871,-0.4078833,-0.7789731,1.1356795,0.2620942,0.067865364,-1.8613509,-0.7026179,1.1689502,-0.85046005,-0.8647255,-0.6698075,-0.6345966,0.939847,1.3396113,-0.69719464,-0.76828593,-0.98003584,0.31721938,0.3495127,-0.45649368,-0.47883418,0.37280938,-0.43511412,0.99803954,-0.23538116,0.3560219,0.61899656,0.1138653,0.2638301,-0.020640692,-0.1888917,0.022207288,0.1775568,0.30254892,0.38951403,0.63071936,0.036357727,0.63364667,0.43297225,-0.36341542,0.30095997,-1.2054157,0.28511,0.31636915,0.058054425,0.047013205,-1.0525832,0.4273393,-0.18548661,-0.543628,-0.10847494,0.26953253,-0.49018008,0.39481974,0.4727052,0.80807596,-0.8890836,0.5888511,0.33635622,0.16036746,0.028850088,-0.15188384,-0.80811036,0.07779648,0.2431872,-0.18161249,0.3613457,-0.21734922,-0.10065292,0.41490027,0.4770014,-0.119198285,-0.18631062,-0.43450594,-0.2705519,0.25451612,0.2321454,0.22132598,-0.2926723,0.13134655,-0.16293845,0.786482,0.35805494,0.6021612,0.2924562,0.19196688,-0.07905398,1.0909499,0.55378157,0.6418271,0.058799136,0.13319588,0.109951705,1.1249745,0.85557383,0.4614527,0.33520594,0.6344478,0.124904305,-0.008060814,0.08612782,-1.1969168,-0.0975071,0.16315968,0.43262988,0.22324464,-0.02525635,0.42240742,0.3137851,-0.25485682,0.72894716,0.049421504,0.48653117,-0.6857984,0.50959784,0.3914977,-0.12118769,-0.17847146,0.3353488,-0.14956844,0.46737382,0.33021018,-0.19575737,0.35955793,-0.17485672,-0.13481839,1.1549613,1.0478451,-0.34377077,0.24361593,-0.28902897,1.0727181,-0.85245097,0.9329189,0.21786971,-0.21523571,0.35047612,0.8320034,-0.18757786,1.03974,0.7683423,-0.28572503,1.0637207,-0.59396833,0.69492126,0.60056126,0.26633003,0.6388505,0.8596356,-0.068291195,0.22035351,0.047828343,-0.26381478,0.0139185805,1.0398353,-1.0678986,0.091154695,0.1969091,-0.37839678,-1.5993663,-0.38495108,-0.8260581,-0.9515311,0.23121582,0.85341877,1.0290428,0.61688584,0.6312223,-0.37695375,-0.65990394,0.25988135,-0.31198034,-0.18555479,-1.4138467,-0.923473,0.8283681,-1.279094,0.21703632,-0.4019506,0.16755056,-0.35781634,0.26076347,-0.10261929,-2.1712525,0.1555771,-0.07085684,-0.6832648,0.8613286,0.7940142,-0.37072557,1.2628452,0.0052732094,0.19876085,-0.27584833,1.2006581,1.1784927,-0.016321527,0.6896535,-0.12515359,0.006886592,1.2089629,0.99420184,0.53636897,0.16653793,0.14928454,-0.6068077,1.909726,0.5359045,0.3905767,-0.93020713,0.10545035,-0.35450342,-1.0322332,0.5212718,0.3173821,0.5855269,-1.5510794,0.00040829933,-0.5226931,-0.14897002,-0.10648886,0.24345845,-1.4883705,-0.1072171,0.7606179,-0.3373975,-1.016175,0.3390323,-0.7244785,-0.37482765,-0.12488042,-1.5694296,0.7239744,-0.4015254,0.44672078,0.99633634,0.43613952,-1.1342179,-0.44746038,0.12000465,0.4625542,0.36236134,-0.5488502,-0.45046932,0.15762213,-0.2572539,-0.28412628,0.16800651,-0.2979475,0.18416785,-0.52873003,-0.3444864,0.050362576,0.4137039,-1.1753122,0.23334917,0.23644665,-0.09199419,-0.24243742,-0.14993523,0.27824637,-0.4858767,-0.3257624,-0.14863068,0.22638543,-1.5218543,-0.29687124,-0.071446754,0.115830004,0.6531509,0.8798893,0.065182395,-0.6484794,-0.13033393,-0.17874257,-0.08749842,-0.29564637,0.19602935,0.3923629,-0.466218,0.0609351,0.0040519712,0.45436862,0.8745618,0.088050075,0.39327067,0.5853558,0.46186584,0.19144052,0.3117118,0.2369567,0.017561702,0.06433783,1.1268898,0.2692301,0.50894034,-0.119544335,0.7147172,-0.064774565,0.073726706,-0.15696386,0.77120143,-0.96480745,0.23071128,-0.017013554,-0.95716435,0.24591243,-0.09839415,0.24678968,0.16421793,0.39691484,0.56668377,0.32953224,-0.24342543,0.0533733,0.23542152,0.508327,0.17980687,0.6928378,0.46103644,-0.09909591,0.10844041,0.787531,0.301026,-0.13827407,0.31414956,0.25285172,-0.105583794,0.2704347,0.7591954,0.4514206,0.034271974,-0.2546925,0.74233866,-1.0409907,0.018063087,0.2446129,-0.75673485,-0.25069827,0.18837282,0.49717456,-0.346074,-0.4700648,0.26263458,0.40897524,0.57081145,0.49409252,0.3638722,-0.037484232,0.2830142,0.43064705,0.45579097,0.23042123,-0.038102508,0.6270649,0.6133631,0.27126047,-0.11039191,0.2012895,0.2249452,0.27589765,0.0001246261,-0.020409275,0.1331897,-0.26657882,0.19697568,-0.17468773,-0.046689834,0.6319809,-0.52273285,0.51611704,0.44707802,0.8465191,0.41196305,0.54432315,0.36803395,0.8281761,-0.21473524,0.14021781,-0.23103292,0.3207186,0.1547876,0.3678205,-0.0049835662,0.4710042,0.1661547,0.6097886,-0.012328401,-0.18200204,0.4012978,-0.357079,0.30559635,0.42145163,1.725006,0.32119808,0.5502071,0.10968342,1.12501,-0.16189373,0.4411375,-0.07427874,0.5491243,0.18655999,0.51305085,-0.59664494,0.38638034,0.42689744,-0.27961135,-1.3330054,0.28514728,1.0023928,-0.50479984,0.7311914,0.87411934,-0.40203062,-0.1189196,-0.0790662,0.6378034,1.1568713,-0.09217351,0.037163258,1.3436532,-0.29847088,-0.37247628,-0.7194134,-0.80810106,0.31652823,0.05147835,-0.11788458,-1.0378522,-0.55285776,0.05950001,0.18508896,-0.46909368,0.5007754,-0.29897887,0.1065538,0.48076376,0.15922752,0.77863294,0.43516824,-1.4844702,-0.66460544,0.97850615,-1.1431649,-0.5574986,0.88957894,0.9072601,0.6093639,-0.5782537,0.9845323,-0.7437095,-0.034420125,1.4203298,-0.49023184,-0.095530756,0.9894548,-0.67581815,-0.61910886,0.3782435,-0.62265617,3.3985212,0.44533747,0.03938878,0.12602386,-1.0183347,0.7430703,0.44658625,0.64150816,-0.017572101,0.12177754,-0.55298716,0.23331788,-0.6236175,0.026332842,-0.98099935,1.5246012,-0.545293,0.5588985,1.3868747,-0.6185687,-0.24243651,0.15357825,0.26980042,-0.4213122,1.1464936,0.59934753,0.9751166,-0.46221524,-0.08389358,1.0455091,0.8751344,0.5307178,-0.28672802,-0.061590392,-0.37013754,0.26510686,-1.1113075,0.2849167,0.5295387,0.59524477,-0.6463338,0.8425547,1.2359682,-0.51831484,0.55473006,0.48374242,-0.01334159,0.18207657,0.5295752,-0.27548885,0.121696405,0.42172614,0.38203296,-0.012368096,0.19061725,0.1317188,-0.36443666,0.10457474,0.47285655,-0.28118038,-1.5672286,0.16350839,0.3094306,0.1948529,0.44719383,0.055310667,0.046106115,-0.7517922,-0.33470434,-0.12692676,-0.12632783,0.37559503,0.14297585,0.22676194,0.38899434,0.40278736,0.33706987,0.07829829,0.05273574,-0.29147694,0.25209063,0.013792641,0.3560858,0.02577202,0.11055955,0.5910303,0.3118916,0.35810372,0.39760044,-0.1744087,0.41255277,-0.09993645,1.2497762,-0.24407367,0.3504547,0.21093298,0.47310165,-1.0309079,0.073653474,0.49416998,0.2537856,0.2815354,0.22806208,-0.49249932,0.32273662,-0.39742765,0.5263536,0.8011567,0.455975,-0.095874615,-0.20249088,-0.2808593,-0.3945781,0.1285905,0.27739304,0.00562953,0.45838067,0.3733903,0.10756741,0.2547202,-0.47515595,-0.095173426,0.3884473,0.39380088,0.415294,0.7631973,0.13031289,-0.51836383,0.045940008,-2.0184224,0.23468712,-0.18326482,-1.317615,-0.27606028,-0.08492063,0.21671657,-0.06260124,0.19882411,-0.6642631,0.7169449,0.09178081,0.060630355,-0.008596892,0.117717385,-0.0054232683,-0.05279876,-0.75889784,-0.5699434,0.13220277,0.63392276,0.6505412,0.31554794,-2.1256173,-0.3459255,0.1079372,1.455223,-0.44503585,0.055652674,0.14508092,-0.20404136,-0.07570959,-1.4581913,0.7943843,0.6042537,-0.35841057,0.41870904,0.4474056,-1.4218893,-0.68568325,-0.3798851,-1.1596688,0.09749994,0.24206588,-0.19117703,0.3870116,-0.21671526,-0.15226923,-1.2754936,-0.50581974,-0.06872667,0.16073185,0.7531344,-0.36935425,0.34102672,0.39090687,-0.45641622,0.07557669,-0.47841847,-0.6545182,-0.50004745,0.23290296,0.0053815385,-0.8414002,-0.6634457,-0.2535187,-0.19841447,1.5592268,0.1354742,0.20309255,0.22402456,0.06750898,-0.2904988,-1.0162584,0.29718092,-0.38494653,0.1270072,-0.15360048,0.73451483,0.29388756,1.1203794,0.18341623,0.076657176,0.0869913,-0.3379565,-0.62613827,-0.6897744,-0.023514898,0.3995583,0.32371247,0.11905346,0.8396451,0.7865768,0.18549109,0.31574655,-0.31375265,-0.7784219,0.46698934,1.3112938,-0.46373963,-0.5704883,0.10798648,0.1575279,-0.17352793,0.51974577,-0.31979322,0.42774814,-0.3124729,0.0692522,0.32737654,0.63656414,0.1472992,0.43634143,0.009480116,-0.23959655,0.53129077,0.64352274,-0.3805963,0.08732921,-0.22873802,-0.5413704,-0.033756107,0.11785064,0.38584992,0.6741729,-0.60777617,0.55401224,0.46461836,0.128281,-0.30925158,0.81070733,-0.75968355,0.16702332,-0.23045722,-0.690395,-0.10088994,0.04712583,-0.44347242,0.010727527,0.35348693,0.3274247,0.9130623,0.9082871,0.36182714,0.22352548,-0.22295237,-0.3198458,0.31088117,0.39169413,0.29240742,-0.14741528,0.84498614,0.38004634,0.15801698,0.6494293,0.20516558,0.50342166,-0.5055511,0.54503477,-0.065051466,0.5408429,0.036947384,0.16734193,-1.2184331,-0.03466419,0.0136931855,-0.30001605,0.12296612,0.123335235,0.41593936,-0.45775825,-0.51964045,-0.7180047,-1.2371385,-0.93705755,-0.78145856,-1.5935565,-0.83741635,0.27580398,-0.20908043,-0.9774158,-0.92629045,-0.63352203,-0.27445573,-0.1458834,-0.6306088,-0.6408447,-0.21004796,-0.519121,-0.51117116,-0.55599797,0.48352247,-0.94998085,-0.81395984,-1.4736047,0.91263556,-0.9902378,0.09318891,-0.2115694,-0.65897095,-1.3763603,-0.42308182,0.58077604,-0.5878355,-0.22220641,1.140707,-1.0591985,-0.71656173,0.65542126,-0.071587734,-0.40555868,-0.017048543,0.57723695,-0.5393249,0.15963928,1.3571066,0.37087563,-0.19067712,0.49447054,-0.15841879,0.29633552,-0.024817433,-1.7712922,0.89157397,1.7894998,0.44880387,0.003779237,-0.20405202,0.27796173,0.21896671,0.6318456,0.26167628,0.58264506,0.6975869,-1.3296072,0.7110744,0.646193,0.33601838,-1.1595448,-1.5728097,-1.4826056,-0.4444786,1.0272677,0.24770331,0.54997945,0.3641987,1.5233629,-0.85198176,0.5581473,0.7636483,-1.2348863,-0.4901079,-2.0505629,-0.68516076,0.25631273,1.5479683,-0.61586696,-0.38274375,-1.299292,-0.6582354,0.19444917,0.30828142,-0.40257898,-0.5521295,-0.61166775,0.7030073,0.5010413,-0.6282481,0.66705096,-0.4516643,-0.42827693,-0.044028364,0.5777421,-0.11182787,-0.5664689,0.1920098,0.16791289,-1.0318217,0.96085674,0.3087893,0.7431213,-0.031668987,-0.5190397,0.5045963,-0.8702068,-0.70559496,0.123165414,2.6828475,1.1164751,-0.05226413,0.9576654,0.8027393,0.656701,-0.48580045,-0.64980865,-0.6533444,0.012594382,-0.14298105],"dims":[32,32]},{"bias":[0.23824866,0.11519649,0.11773072,-1.9520388,0.20726119,0.30793506,1.035388,0.33137426,0.28059593,0.13315411,0.2932302,0.32200837,0.31628162,0.09042497,-0.056693364,0.083988786,0.08844014,-0.5232514,0.20914783,0.15905586,-0.038756926,0.2282205,0.31628957,0.24208166,0.15683584,1.4334388,-0.033456866,0.1296161,0.10967412,0.12836035,0.10363803,0.15881923],"weights":[0.57881397,-0.40180132,0.13797179,3.342118,0.46751198,1.6252863,-4.167536,1.1323744,0.9890865,-1.4055108,0.72943705,0.55682135,1.1241425,-0.51350236,0.25086266,-0.27529734,-0.12333677,-0.873652,0.7601085,-0.14315736,-0.051277015,0.4347002,0.53763264,1.1745901,-0.537125,-3.140106,-0.03818768,-1.7932862,-0.031581137,-1.0834408,-0.09360121,0.85400426,0.0007162757,0.018229512,0.24992327,-1.3695397,-0.34427384,-0.17231385,2.6995974,-0.13481551,-0.29496944,0.15282896,-0.20705704,-0.3397473,-0.18382743,0.40155688,0.0553395,0.3203688,0.44954184,1.2221915,1.3573518,0.433536,-0.25285414,-0.01923619,-0.4127683,-0.44516382,0.14288156,-1.1473693,0.19332668,2.0586061,0.4809681,0.46988517,0.08344274,-0.37158316,0.47117266,0.06846082,0.12934177,1.3796046,0.45906553,0.006590152,-1.4798845,-0.016492028,0.2646638,-0.2760778,0.16646333,0.050134815,0.2930243,0.16469185,-0.06077902,-0.18578456,-0.20228857,-1.3785864,-0.9861542,-0.19004652,-0.09767334,0.46993253,0.5052209,0.31794333,0.05398895,-0.09089737,-0.14009829,-2.3984895,-0.18205497,0.24109016,-0.1798538,0.34164616,0.0523353,0.04104077,-0.015447145,2.2870388,0.0020850003,0.2740887,-5.8461018,0.44895285,0.34566918,-0.11376084,0.45504576,0.45438206,0.30753663,-0.030903583,0.23033917,-0.34936297,-0.35634184,-1.6931121,-0.3971383,0.029513147,0.25445503,0.29266474,0.3970007,0.39609247,0.039121065,-0.69198143,0.058878668,-1.9265767,-0.10278177,-0.024764286,0.03523082,0.015344946,0.048198387,0.47991323,-0.14422631,-1.8229789,-0.2314664,-0.12520507,2.801576,0.017194532,-0.21877941,-0.0646305,-0.020870658,-0.14908226,0.2922939,0.4545166,-0.025598262,0.17059486,0.14705181,0.1201567,2.0020595,0.3725275,-0.13678914,-0.17492406,0.00611302,0.11638248,0.23899566,-1.2194957,-0.116856635,1.801586,0.36929622,0.2698676,0.42534196,-0.29826507,0.10670961,0.03951972,-0.09913881,2.4768724,0.41267055,0.11980634,-1.3473958,0.011586649,-0.045958735,0.2802291,0.004339153,0.37041453,-0.033554457,-0.15943767,-0.2229433,0.1454439,0.24184445,-1.019829,-1.9480999,0.2330317,-0.2683415,0.17771886,0.37586027,0.31213808,0.23230445,2.7386155,0.07897508,-2.0472221,-0.14339443,-0.17274468,0.29305252,0.09989769,0.72979444,-0.5343998,-1.0709448,1.5898442,0.9058608,0.78926843,-6.8269997,1.4541731,1.308842,-1.4546822,1.3209118,0.85881084,0.58690757,-1.2737837,-0.0351661,-0.9413814,-0.5800655,-3.694039,-1.3646473,-0.7921811,-0.091563135,1.5594008,1.0104331,0.73579913,-0.95370543,-5.2053776,-0.3933831,-0.508542,-0.44478124,0.30977494,-0.6414123,1.4134173,0.42173743,0.059955772,-0.07228334,0.3056588,0.42527363,0.42905605,-2.8558218,0.19370215,0.0115153,0.10108883,0.10499882,0.36140049,0.19732693,-0.13492136,-0.2005967,-0.27503815,-0.075796716,-0.46875343,-0.91909003,-0.02614643,0.18117085,0.35088974,0.011674013,0.25124687,-0.33064902,0.947666,-0.021314617,-1.8674759,0.11161615,0.03884803,-0.2509196,0.23765166,0.49921474,-0.2611055,-0.17267618,-0.21230277,-0.06617418,0.5108976,-0.87309813,0.28471193,0.41799918,-0.023003586,0.028289592,0.48447272,0.1743202,-0.4105352,-0.1578164,-0.39473134,-0.32992023,-1.0874367,-0.53079087,-0.117444254,-0.085780255,0.18118425,0.4106771,0.37636548,0.08954591,-0.2750785,-0.04154993,-1.3553858,0.03614283,-0.12673484,-0.05884893,0.33779174,0.29118073,-0.3089309,-0.24154632,-0.9396004,0.19987099,0.44110683,-0.34006876,0.34212705,0.21764451,0.15607744,0.445566,0.0054344684,0.01746717,-0.254592,0.054712325,-0.022846293,0.017006494,-0.11151435,-1.1507434,0.033039555,-0.056494147,0.23795399,0.4196974,0.19116558,-0.06574585,-3.6108494,-0.14869933,-0.12348988,-0.099791385,0.05856381,0.0341372,0.19994043,0.41958153,0.21552683,0.39174277,-0.621727,0.20154987,0.24402414,0.12426693,0.17871344,0.3208236,0.52253073,0.08047947,0.11838182,-0.041478954,0.44533923,-0.013344677,0.22126919,0.44319543,0.70306,-0.4354125,0.15625325,-0.16969101,0.44886312,0.3575222,-0.08852537,0.11934001,0.16807012,0.21709554,0.32074472,0.33738872,0.08970481,-0.047910932,0.19943264,0.40495944,-0.23917119,-0.30673826,-1.0095472,0.38021794,-0.024152895,-2.9908772,0.24245057,0.4114017,-0.18702126,0.28321695,0.5313899,0.19995707,0.080892,0.088867776,-0.3434335,-0.16841412,-0.92754304,-1.5451382,0.16369404,-0.07998364,0.39543208,0.54030627,0.27894902,0.22411358,1.2890513,-0.36171055,-2.159179,-0.21807906,-0.02091546,0.061853144,0.4145429,-0.14604451,0.053981196,0.013025038,-2.8741257,-0.26299396,-0.24495134,1.1421193,-0.3030618,-0.31766823,0.25158098,-0.41632393,-0.40721437,-0.017169185,0.35010198,-0.22522868,0.31364772,0.43207976,1.4126273,-0.20255567,0.46954554,-0.2844676,-0.3880369,0.12779845,0.020805042,-0.10728992,2.439698,0.24751227,0.28491628,0.32335415,0.14386204,0.048551995,0.11542005,0.1813662,0.15588647,0.22974285,0.43309364,0.29986635,0.17580108,0.6170055,0.43063173,0.43491533,0.25896937,0.42431027,0.30921865,0.29070786,0.39771834,-0.09935209,0.37524843,0.18153821,0.39815918,0.26148143,0.2390888,-0.17143655,-0.018539177,0.15882148,0.009851192,0.41081914,2.1438324,0.36146718,0.46489206,0.25042242,0.5131515,0.40534297,0.16965601,-0.36053944,0.44870254,0.2341499,-2.0966733,-0.15257439,-0.32018846,2.6680775,-0.24137948,0.03447259,0.652222,0.012342311,-0.440381,0.14384168,0.43836382,-0.30522272,0.26317722,0.14313254,-0.26411858,0.84840393,0.53407663,-0.30644202,-0.46049726,-0.028360274,-0.2355529,0.39488888,-0.099888615,0.5459631,1.3871555,0.32188594,0.22266,0.23095885,-0.41222835,0.5707697,-0.1413752,-0.3570376,1.6029721,0.2375015,0.44316146,-2.9244986,0.10170526,0.41868472,-0.02837096,0.28864464,0.4387415,0.16689396,-0.1450541,0.036105845,-0.2833635,-0.28050607,-2.0327196,0.20951796,-0.25087416,-0.057911664,0.4460782,0.4763864,0.37981853,-0.062144347,-0.16859914,-0.42395237,-1.4490613,-0.3491373,-0.11221469,-0.0615562,0.1438084,0.4907095,0.04294802,-0.07649071,-0.09113177,0.24828567,0.39921984,-2.6493132,0.53364336,0.032565825,-0.20975605,0.20437169,0.018838076,0.40355313,-0.3828043,-0.15862828,0.21936965,0.04298794,-0.93987095,-2.744468,-0.11629434,-0.2773188,0.17361549,0.52285516,0.116914205,-0.27530882,-0.46534833,0.07902899,-0.89137775,-0.06926866,-0.34005994,-0.12611656,-0.03790317,2.0307047,-1.9228868,-1.6808975,4.4568143,2.6781442,2.2710278,-4.683566,2.7424738,2.5331528,-1.3474284,2.6060588,2.3755558,3.0823457,-1.4770023,0.09791895,-1.9925076,-1.7500789,2.922535,1.0182741,-1.6765527,-0.19800456,2.4191365,2.5444589,3.2489722,-1.604302,-1.3904313,-1.9631646,1.1867126,-1.7557849,-0.8189138,-1.6972489,2.4626129,-0.13229173,0.30843797,-0.074293785,2.0779424,0.3425647,0.3369781,-4.7743287,-0.0034576715,0.42961004,-0.14351556,0.36722893,0.2694353,0.4591944,-0.14397314,0.002579838,0.23919272,0.11644538,-0.27594313,-1.2841663,-0.14057462,0.034240432,0.37076616,0.37886453,0.06392555,-0.18478395,0.51362103,0.16446704,-1.3324403,-0.1731493,0.33276847,-0.2217375,0.2183328,-0.0029892905,0.27706942,0.5537532,-0.17621914,0.045527797,-0.047826048,0.9960628,-0.20573683,-0.425515,0.2422249,-0.4441175,-0.46025738,0.048453435,0.19328061,-0.14833806,0.045729704,0.5035514,1.1639864,1.5439273,0.10880159,-0.21900629,-0.3645776,-0.122414276,-0.3965095,0.12652397,0.12159879,0.24136257,1.8955042,0.45571584,0.56769145,0.52942425,-0.10765557,-0.28363883,-0.05803753,0.26089883,-2.569834,-0.31168655,0.060633305,1.9800624,-0.32172114,-0.28655547,0.37541938,-0.1528201,-0.22450659,-0.13856481,0.360719,0.15688041,0.46942267,0.20381686,1.2683346,0.7130679,0.29713222,-0.32933635,-0.14623204,-0.341716,-0.09834747,0.14788271,-1.364188,0.3479317,1.1017098,0.36842754,0.13268639,0.00830647,0.010855062,-0.052679777,0.067182355,0.4747802,0.17552592,0.09964859,-0.1424108,-0.880297,0.11048142,0.30797264,0.5743624,0.33516073,0.37615445,-0.22779776,0.399774,0.10261629,0.25611174,0.087826,-0.2416592,0.7467988,0.42862698,0.2084594,-0.014169278,0.20774779,0.08377636,0.50383526,-0.9159198,0.46568614,0.08684717,0.40482223,-0.017357467,0.42324728,0.20351152,-1.468817,2.2102873,2.8351264,-3.2783134,0.64698577,0.2746283,4.957465,-2.020801,-2.0874207,1.2223439,-1.5932927,-1.6450212,0.28932363,1.1704684,0.24422176,2.1236582,2.4209802,2.6188056,0.6247725,2.3151858,0.11295807,-0.15989639,-1.9767562,0.009877727,1.4839032,6.5426307,2.108887,2.8752673,2.0953681,1.2039973,1.8911707,0.33281198,-0.28221798,0.4203431,0.20312858,-1.1900151,0.0018812824,-0.36550173,1.5669804,-0.11741145,-0.2554579,0.50512785,-0.041165203,-0.09026999,-0.11313539,0.3880961,-0.14317054,0.13000019,0.0799118,1.387336,0.82547396,0.28275067,-0.28014427,-0.40109643,-0.34145406,-0.03571999,0.38320428,-2.037765,-0.11654123,0.8356831,-0.108335055,0.19784537,0.45531636,-0.412969,0.64376545,-1.0410377,-0.5345854,2.6003385,0.41533804,0.41611382,-3.44923,0.6966481,0.43902415,-0.29189664,0.4735404,0.4433666,0.66299284,-0.34747103,-0.25326833,-0.6750583,-0.03190194,1.8649424,-0.7396794,-0.27174082,-0.11636394,0.6243378,0.5825486,1.3697463,-0.6883417,-1.3608209,-0.6049639,-1.8711576,-0.29478654,-1.7589406,0.037920028,0.4308268,-0.40656322,1.4591542,0.8041421,-3.9685304,-2.0364149,-1.952715,4.6229296,-0.76696783,-0.29999763,-1.1804539,-0.17747007,-0.5104091,-2.2642438,-0.04972523,-0.03955171,1.180503,0.3705462,0.014097985,1.3748462,0.75519156,-0.2060793,-1.6826727,-0.21969108,-2.2271924,0.021844897,3.9265716,0.7392781,0.4588549,0.6460443,1.0508507,0.78222376,-1.9354343,-0.28921893,0.31961706,0.35843393,0.10018576,-0.37358022,0.14959417,0.9025118,-0.33280158,0.18564308,0.056702625,-0.050442327,0.37383646,-0.11105481,0.09614052,-0.21118931,0.23587707,0.39237767,0.8612046,0.12928557,0.45659956,-0.059179004,0.2467559,0.014745211,0.25004485,0.016035086,-0.6284907,0.34805062,0.7410784,0.18852302,0.09725038,0.166473,0.23489544,0.047474857,-0.39255112,-0.19865865,0.6200505,0.1094566,0.3023325,-4.836704,0.3269185,0.55734,-0.4825592,0.59540826,0.3000307,0.36278525,-0.4734747,-0.14920914,-0.3094654,-0.36694422,-1.2993854,-1.5420548,-0.13879757,0.03561902,0.13940816,0.16705316,0.21766777,-0.36411047,-0.78052026,-0.0028650577,-1.8284158,-0.010243382,-0.15191953,-0.12121152,0.5551078,-1.3063791,1.3815997,1.2064183,-4.5257583,-0.4350781,-1.321654,6.9128594,-1.2879082,-1.13193,1.4546373,-1.0818502,-1.1897694,-0.55403405,0.31309736,-0.050398294,1.8752706,0.93326145,-1.1335753,2.519973,1.0901618,-0.26891452,-0.3785273,-1.1147352,-1.4399385,1.5429826,0.77001685,0.87039953,2.104947,0.8933525,1.094875,0.91654587,-0.6069881,-0.34594685,0.42232892,0.17807566,-1.4959588,0.023418713,0.06263088,2.1386676,-0.29399207,-0.2884601,0.27711493,-0.29028004,-0.0077679707,0.050179053,-0.12342774,-0.3641886,0.37128544,0.2060528,0.7425828,1.2874912,0.3574738,-0.14500536,0.040107556,-0.32138696,-0.2687154,0.26093087,-1.6864297,0.4122645,0.5512109,0.2094334,0.44592452,0.44293854,-0.11636505,0.29199478,0.1605254,-0.084143706,3.7761896,0.15935135,0.09949613,-4.0084662,0.09915634,0.5008448,-0.3686864,0.44684887,0.30131721,0.4623577,-0.39509904,0.08852045,-0.4113474,-0.28304952,-0.6335461,-3.63492,-0.0439255,0.111958496,0.45506495,0.3451714,0.10649547,-0.1569681,0.69524294,0.055701744,-1.747078,-0.25989556,-0.2214766,-0.22234178,0.059267506,0.4284813,0.38217983,0.32501248,0.47466937,0.36931652,0.4556496,1.7868509,0.60550445,0.079530954,0.121291794,0.24359994,0.20464437,0.5811081,-0.14382857,-0.016648054,0.42208815,0.3913376,-0.090384066,0.1818466,-0.005721191,-0.10242235,0.407957,0.011297252,0.53122616,0.22482239,-0.60226923,-0.036764417,1.2262274,0.21456274,0.46110713,-0.10247943,0.28723156],"dims":[32,32]},{"bias":[0.2847679],"weights":[0.87534845,-0.67992854,-0.75579524,6.670115,0.77940106,0.93257624,-9.490659,0.78903764,0.85445565,-0.51338875,0.8476311,0.6578481,0.9522222,-0.54550177,-0.03673595,-0.84398395,-0.69833046,-2.7177386,-3.755935,-0.74938315,-0.046537656,0.8890928,0.5276315,0.8550418,-0.7020462,5.877672,-0.79155785,-6.63856,-0.8347416,-0.8590232,-0.7584004,0.8354095],"dims":[32,1]}]