[{"bias":[0.303784,0.10515795,0.36739525,0.27366188,0.14104006,0.4178676,0.61263937,0.14505333,0.24474564,0.23759036,0.3925097,0.25826085,0.463402,0.48064104,-0.17590214,0.4841481,0.42426202,-0.11215686,0.07791398,0.28253296,0.44732773,0.28586662,0.10755453,0.4883192,0.23729613,0.29344,0.40374443,0.30700874,0.14428419,0.488615,-0.19449997,0.09081643],"weights":[0.2955628,-0.07483301,-1.1234013,0.015751831,-0.055633947,0.5197519,2.0701597,-0.51177496,-0.08423314,0.8475911,-0.19464056,-0.4384031,1.3688608,-0.73724097,-0.6313453,-0.92434996,0.19276169,3.8360603,0.60607725,-2.1820848,1.6415,0.2787025,-0.24953984,-0.09695689,0.26656687,0.28842404,-0.98003906,0.29400983,-1.0665818,0.39680833,1.7018708,-3.4840593,-0.2848505,-0.1285304,-0.51018906,-0.28092566,-0.22261599,-0.07629748,0.0488534,-0.17682439,-0.26790643,-0.06452541,0.2985663,0.1207443,0.5998436,-0.07311577,-0.14963287,1.3706093,0.92409813,0.41774514,-0.16612105,0.3872583,-0.04907654,0.09907116,0.7654576,-0.10094361,-0.2881156,0.22980581,-0.64685595,0.997428,-0.5554808,-0.05573154,-0.09529185,0.073021755,0.06290958,-0.12198904,-0.9671015,-0.04977222,0.42333308,0.05509466,0.3482253,0.122602366,-1.0854568,0.35862926,0.005616706,-0.43713236,0.57496506,-0.32162747,0.030676465,0.8709219,0.25577557,0.47670743,-0.35753602,-0.49951246,-0.5298195,1.0862333,0.8729408,-0.08014383,-0.508962,0.64284396,0.09319844,-0.6174738,-0.10705088,0.2576607,-0.44682372,0.08615035,-0.0606733,0.3506007,0.34352463,-0.30198506,0.7017534,0.16987753,0.091032386,-0.26556423,-0.14633642,0.81046945,-0.41828364,-0.5134097,0.8272959,0.44922432,-0.029727437,-0.0070180926,0.5339457,0.49568185,-0.40980864,0.15264842,0.7171626,1.5130349,-0.2694414,-0.29406708,-0.26208487,0.551433,-0.56732595,-0.5730565,-0.5336161,0.22304533,-0.065530166,0.13355093,0.31338033,-0.15943936,-0.6795424,0.20706515,0.77443457,0.86770195,0.091939464,0.11208174,0.11226981,0.6309134,0.3549705,-0.34821475,0.96576315,0.30998155,-0.25242355,0.37043235,0.19955608,0.092123374,0.02324238,0.038838036,-0.29284725,1.9250872,1.0981628,-0.42222098,-0.5282867,0.37737095,-0.18661305,-0.6025327,-0.58809245,0.9862765,-0.9992619,0.4489244,1.0653749,-0.47891358,-0.6732122,-0.95058006,0.24737386,1.0052199,0.2549031,-0.47490427,-0.32847092,-0.66885906,0.20693563,0.020857323,0.69142884,-0.8737763,-0.27480567,0.8100453,-1.6359208,0.0061506676,-0.6098724,-0.5119232,-0.21535705,-1.3945657,0.44058776,0.12190452,-0.970623,0.7691483,-1.3982117,0.562865,-0.5764934,0.3918638,0.11809637,0.13885699,-0.12411072,-0.44385716,-0.55765164,0.32197443,0.6672043,0.2510687,0.14182201,-0.36215454,-0.16129047,-0.24528416,0.53260636,-0.037498407,0.52174294,0.5815071,-0.27334616,0.45299152,0.24594222,0.39655235,-0.6603964,0.47513428,0.17624423,-0.17547631,0.5053482,0.2456376,-0.35726714,0.7872925,-0.0013655066,0.42704237,-0.012567926,0.3425614,-0.42689145,0.86654234,0.19353172,0.4837098,-0.40539935,-0.14289793,0.3888105,-0.56774205,-1.0801573,0.4763427,-0.32765767,-0.15034446,0.9864476,-0.29890037,-0.19595999,0.02400461,-0.06791473,1.8114408,-0.1753359,-0.16583757,0.16013703,-0.94171673,0.23450466,-0.08022793,-1.0423273,0.24962817,-0.14487584,1.8335353,-0.9198158,0.38465244,-0.42178673,0.6126456,0.41669473,0.3478988,-1.133209,0.24296053,-0.17847365,-0.19705114,-0.17275101,-0.27201423,-0.19675831,-0.6462698,-0.10707683,-0.6572453,0.363836,-0.40561405,0.3312586,0.23333116,-0.34562838,0.39508078,0.18091145,0.49703398,0.046362635,0.14108759,-0.27401954,-0.23573484,0.42605338,-0.27046543,0.010540319,-0.040711075,0.07042097,0.54608,-0.14708038,0.08113531,-0.1581906,0.44803545,-0.12136992,0.24013387,-0.76703525,-0.07383881,0.087841764,-0.021293052,0.18177995,0.014059662,-0.3564415,-0.09362683,0.2848343,-0.43252262,0.04417537,-0.035082135,-0.09390564,-0.10716708,0.15559874,0.5016893,-0.1595809,0.19878736,0.163844,0.25497332,0.2732769,-0.051118568,-0.20336047,0.21276958,0.025973378,0.47198144,-0.010302335,0.2660098,-0.36294457,0.22569187,-0.11578827,-0.04331774,-0.38066792,-0.13631973,0.3971466,0.20577961,-0.28083986,-0.29557994,-0.2905639,0.23774318,0.063427426,0.38178805,0.4446516,0.22877598,-0.084023945,0.12580498,-0.23165466,-0.17622516,0.16420983,-0.017987704,1.0089775,-0.048072178,0.38917622,0.13097712,-0.19709677,0.49646732,-0.103708975,0.42609861,0.044301815,0.06298126,0.42713735,0.23314339,-0.4529254,0.23333892,-0.8794476,0.019646488,-0.030011088,0.05854566,0.32892063,-0.007517777,-0.54418635,0.409754,0.57651854,-0.20354725,0.43544346,-0.050530765,-0.053525224,0.6709987,0.42418864,0.58838415,0.020197274,-0.43750617,0.047440264,1.0088052,0.99424165,0.29832494,-0.23750265,0.36976007,0.076262824,0.77468514,-0.35632637,0.49708197,0.18561834,1.0074681,0.08370322,-0.5083273,-0.37130666,-0.15515807,0.120751865,1.2183908,-0.8506273,-0.41275272,-0.6750217,0.82860297,0.3214309,-0.5227166,0.5729677,0.12776177,0.029656062,0.90120214,0.025678651,-0.35139272,-0.105063915,-0.038843602,-0.2517866,0.4213691,-0.15015152,-0.16310823,-0.19750695,0.16583689,-0.8050156,-0.08432441,-0.43472108,0.12210535,-0.13988322,0.2148586,-0.27865377,-0.043613497,-0.08178439,0.51507527,1.0625515,0.27652046,0.03403336,-0.60975814,-0.4281926,0.68353754,-0.2824894,0.2362892,0.4292784,-0.8270967,-0.10415452,1.0835562,0.304634,-0.62779766,-0.5282883,-0.7912959,0.6806553,0.1395915,0.03642959,0.15461437,-0.6577405,0.12267495,0.13894844,0.55495477,-0.26720855,0.35316312,-0.13535309,-0.10841797,0.5027537,-0.012757132,-0.47193697,-0.0021902034,0.6312713,0.27745524,0.31357485,-0.34608692,-0.15793538,-0.7159926,0.62169677,-0.08752344,0.22435255,0.123471424,-0.15487477,0.5402598,-0.12752168,0.21030629,-0.80858624,-0.03495872,0.08825276,0.007449781,-0.506379,0.37792316,-0.65686345,0.3542591,-0.028854711,-0.0079447655,0.24709463,0.25730094,0.39097598,-0.5933827,0.1196855,0.15104891,-0.6291088,-0.013515806,-0.1420637,-0.17049482,-0.14837945,0.074076325,-0.27465853,-0.1601463,0.65889066,-0.355747,0.21833524,0.25167128,-0.17633016,0.644008,0.14999422,0.016969733,-0.402076,0.7240447,-0.062250517,0.046139464,0.49813586,0.2797656,-0.15706663,0.18497014,-0.13546155,1.394731,-0.092936054,0.18975982,-1.0755384,0.069593094,0.34061116,0.0067067402,0.114837684,-0.07548451,0.2053811,-0.03454272,0.09896753,-0.26118776,-0.09035255,-0.29455218,-0.26230237,-0.062027693,0.10527061,0.27687708,-0.113978215,0.5977944,-0.3470085,0.4277127,-0.18882462,0.53466326,0.14626105,-0.14182878,-0.106580876,-0.15179779,0.021179054,0.074953854,-0.24568373,0.6879267,-0.30228302,0.5494435,-0.3866555,-0.4330023,-0.4005709,-0.1150541,-0.033298332,-0.116799615,-0.09511875,0.041487813,0.20020406,-0.6095708,-0.32109463,0.18850803,0.43789354,-0.3174529,0.24398276,0.34926543,-0.15666176,0.014334534,0.29339397,0.04806863,-0.038800437,0.52410245,0.009809306,0.09549978,0.06826354,0.18142842,0.11324728,0.271459,-0.11512145,0.29118735,-0.042485908,0.17511459,-0.02327683,0.058729813,-0.04313415,0.3885347,-0.49491686,-0.05262275,0.53304285,-0.1365532,-0.2403285,0.046593748,-0.09411859,0.13737762,0.12445337,-0.6068581,0.83360136,0.62578166,0.020878118,-0.2668686,-0.7154232,0.06012582,0.24106064,-0.22931933,0.05503248,0.2404484,-0.1946897,-0.04640986,-0.06362115,0.34656766,-0.10764012,0.6029248,-0.16722035,0.05749124,0.05191724,-0.09513659,-0.099844284,0.19020987,-0.17535877,-0.12263191,0.06695751,0.12258122,-0.013633972,-0.21080665,0.08573464,0.24754004,0.07230847,-0.04183716,-0.022116965,-0.01927866,-0.19607076,0.71027696,-0.006713101,0.033919822,-0.25901905,-0.22346747,0.23458286,0.07060378,0.06523584,0.17867684,-0.25023693,0.80270493,-0.13221815,-0.5095781,0.34228665,-0.07033355,0.2123019,0.4672867,-0.2800847,-0.3596903,-0.55917424,0.30070615,1.0187346,-0.07718432,-0.1332181,0.37287134,-0.47077754,0.276389,0.1665471,-0.20433053,0.39442116,0.014474388,-0.030788215,0.7727004,0.12649624,0.22276549,-0.3124719,0.013506841,0.4942537,-0.09451676,-0.009713298,0.11971968,-0.67641914,0.093865454,0.2479351,-0.06037399,-0.5224736,0.04875597,0.4337377,-0.29528406,-0.03449327,-0.4351785,-0.10785646,0.18749519,0.24638711,0.10799424,-0.4936408,-0.03318158,-0.31338012,-0.03915726,0.059893303,-1.057022,-0.033104327,0.22658053,-0.057643462,1.110236,0.14866726,0.59291303,-0.37436655,-0.5502647,-0.014228322,-0.27250347,-0.964175,0.34931725,0.10674154,0.14398651,-0.5384412,0.53098464,-0.22821142,0.30609918,0.16231549,-0.8617512,-0.28379256,0.09055861,-0.27593252,0.4164535,0.34434712,-0.09709486,0.16793624,-0.27623937,-0.014820404,-0.059696686,1.0334496,-0.0991333,0.21659212,0.1056772,-0.26553097,0.37478206,0.08345799,0.18937802,-0.5809941,-0.27943277,0.22590686,0.41431648,0.17866436,0.4413035,-0.09357661,0.24835277,0.110229164,0.20688243,0.16304947,0.3182857,-0.09854948,1.2874916,0.045051184,0.10569464,-0.7154766,-0.17544878,0.1610845,0.4352822,-0.48530582,-0.15972456,-0.19800825,-0.44208246,0.74361086,-0.28371465,0.31671706,-0.34608227,-0.23379253,0.009124082,0.3406393,0.09816732,-0.33333609,-0.09667414,0.01728633,0.21813272,0.6000245,-0.08891996,-0.46018493,0.14065444,-0.2335217,0.5882575,-0.21641375,0.16657947,-0.49882865,1.4302657,-0.07108864,0.020579811,0.009577952,0.23700581,-0.081402056,0.08483842,-0.04373032,-0.32130808,-0.05437772,-0.34486684,0.32606438,0.15401614,0.019609066,-0.46408513,-0.12638348,-0.007821412,-0.30181605,0.07973698,-0.10478138,-0.24859284,-0.034268018,-0.26290524,0.3867383,-0.23075262,-0.23003747,0.0063877185,0.18547992,-0.08553199,-0.04250997,-0.040594894,0.052033495,0.75064903,-0.59554416,-0.39091635,-0.44226104,-0.047042612,0.10034661,-0.29517475,-0.4302269,-0.50075513,-0.41820136,0.19553348,0.12883587,-1.056459,-0.4238464,0.7447721,-0.2172504,-0.062140234,0.26197693,0.16041236,-0.0995258,0.780997,-0.13398327,-0.03328723,0.041821226,-0.40522572,0.054551184,0.05391709,0.13973121,0.2581712,0.3193683,-0.07432984,0.1881086,0.1857507,0.22545329,-0.20811644,-0.21917175,0.14676097,-0.20440052,-0.4478239,-0.05704249,-0.12676585,-0.50165904,0.1497498,0.48500863,0.07947121,-0.48680007,-0.21232215,-0.02214246,0.57823706,0.068502225,0.22606269,-0.23890232,0.1267901,0.04752092,-0.17594035,0.009627779,0.033818938,-0.17490672,0.22958577,0.0722071,0.25197706,0.17987467,0.14409466,0.02315986,-0.19129452,-0.26268595,0.648846,-0.44229525,0.15165243,1.1698108,0.08971912,0.30643067,-0.15325052,0.2992043,0.09235043,0.17752425,-0.06585995,0.06968452,-0.010621655,-0.047629185,0.3241802,-0.07094296,0.079685725,-0.5253791,-0.00002374843,0.33670464,-0.26601118,0.34639233,0.045032352,-0.65905,0.070126124,0.0967827,-0.29624107,-0.1264825,0.29164627,-0.25802892,-0.052349277,-0.27327403,-0.41482946,-0.29796985,0.3709792,-0.33273354,-0.1523561,-0.35064214,0.24286847,0.10206583,0.35908875,0.29859746,-0.81490755,0.1733697,0.18322597,-0.094010904,-0.30839694,-0.2346846,-0.09400341,-0.30716965,-0.37160358,-0.032727003,-0.33161393,0.35786688,-0.31614602,-0.1747316,1.0639193,-0.4427,0.04511361,-0.3900223,-0.039875295,0.9836476,0.3483202,-0.070802085,-0.38552338,-0.5468171,0.37218052,0.8561093,-0.10629161,-0.32020387,0.24047081,-0.27455205,0.23740207,0.49996164,-0.16146076,-0.15831988,-0.11223412,-0.14759727,0.45426604,-0.11575028,0.021709181,-0.3938853,-0.22555245,0.52688336,-0.24620889,-0.1301848,0.27986634,-0.60808545,-0.24456233,0.21102092,0.31789634,-0.07387646,0.1583258,0.12619661,-0.42834732,-0.021801451,0.14641576,-0.15843342,0.44748017,0.03429991,-0.022401268,-0.19115217,0.19886106,-0.017228529,-0.16804555,-0.06723951,-0.4063713,0.049703434,-0.1876214,-0.17696157,0.42907098,-0.34867293,0.35208088,-0.3145301,-0.8262833,-0.010463202,-0.076890856,-0.010238342,-0.025244713,-0.041796066,0.05529056,0.33483312,-0.16415815,0.38116646,0.19963653,0.066586055,-0.62280476,0.06895603,-0.18359582,-0.41444552,0.1854071,0.17246747,0.20891768,-0.7116301,-0.18433575,-0.26264316,-0.23058502,0.827293,-0.6602915,0.01660074,-0.39067987,-0.28139535,0.114463314,-0.4171028,-0.09383514,-0.035515755,-0.67589676,-0.06825605,-0.122191034,0.54728085,0.20464009,-0.16068403,0.11344122,-0.0013289916,0.59021634,-0.19800822,0.26165968,-0.043385282,0.93876356,-0.27097628,0.28313693,0.04658616,-0.13771763,0.04378427,-0.12302871,0.24216954,-0.11089578,0.24648216,0.18627632,-0.04473921,0.8560387,0.10806293,-0.32709253,-0.25540972,-0.39588496,-0.2800244,-0.18751141,0.09863985,0.17540587,0.25244647,-0.44574445,0.06397881,-0.3259505,-0.35347188,-0.005275765,-0.32800332,0.11382572,-0.2999077,0.14244206,0.12997966,-0.9698161,-0.08273007,-0.6157742,-0.38413957,0.0037004205,0.9172732,-0.119778976,-0.19219615,0.036679674,-0.15961453,0.2220471,-0.05472437,-1.3442225,-0.28812963,0.5832797,-0.26181534,0.042606346,0.23503792,0.26318103,-0.019972637,0.3247545,-0.08524993,-0.11936823,-0.1814861,-0.0937905,0.014080254,0.32238567,0.12990345,-0.08927807,0.2769971,-0.12866077,0.49595726,-0.24543035,-0.64504695,0.4968523,0.07515816,0.18589698,0.9510434,-0.49609974,0.3219139,-0.27262974,0.08708884,0.40735963,-0.11718174,-0.1714303,-0.029612392,0.007234956,0.11113965,0.12226298,0.0004178896,0.118997194,-0.066214755,0.7075402,0.017801302,-0.054118905,0.14750797,0.3666592,-0.32484654,0.25270677,0.006626186,0.085830286,-0.26010716,0.012682434,-0.181169,0.05621197,0.12718247,-0.17301857,-0.19164827,0.37339947,1.2392585,-0.19641271,0.021067416,-0.18411449,0.12451038,0.30966744,-0.047410358,-0.2931272,-0.006927433,-0.16673408,0.015940707,0.25669205,-0.19268294,0.051425938,-0.5787975,-0.018169137,0.05019229,0.027519245,0.21477526,-0.1792126,-0.38273618,0.10480721,-0.22870772,0.31051472,0.16748625,0.29678223,-0.1374791,0.14876318,-0.59303635,0.65971404,-0.45643276,0.6025824,0.0062931376,-0.0018802602,0.0022162653,0.28435,0.15949719,0.09222184,-0.10084851,-0.4816167,0.12496009,0.11482406,0.115567975,-0.13962857,-0.014292061,-0.019579165,-0.11656922,-0.32647452,-0.09770173,-0.22838865,0.23169813,-0.17790864,-0.32350224,0.4844561,0.5103158,0.18164489,0.025529966,0.29116777,-0.018724406,-0.19849485,-0.41012308,-0.095436834,-0.31343648,0.22659199,0.22785273,0.25378877,-0.17289427,-0.15281126,-0.19468687,0.42669243,-0.07119715,0.4986561,-0.12435666,0.20205782,-0.24079135,0.32604724,-0.26909307,0.13993247,-0.15667525,-0.085049935,0.14287338,-0.27082503,0.32357872,0.10102077,0.16562933,0.016277935,-0.2860688,0.047472257,0.049877215,0.11250373,0.2669266,0.16434017,-0.21983173,0.5086438,0.37279874,0.33973116,0.22824557,-0.2252694,0.051741228,-0.43099377,0.10747208,-1.0020295,0.090016186,-0.19728826,0.06748718,0.016015895,-0.1623476,0.21095985,-0.005227996,0.5878461,-0.16024972,-0.24559838,-0.33413973,-0.06491839,0.2319829,-0.17692892,0.010140525,0.21283603,0.42425606,-0.023481518,0.050018426,0.29999158,0.49586648,0.26512828,-0.12268283,0.3012416,0.03958409,0.22355387,0.05008642,-0.0011003511,-0.46291485,-0.32503965,-0.33862132,-0.45827696,0.0141330995,-0.38360125,0.025268827,0.31439984,0.34801793,0.025503853,-0.38377088,0.3277969,0.20535916,0.06474192,-0.19975626,-0.306135,-0.15567783,-0.017121106,0.31414193,0.019286327,-0.25730386,0.4035856,-0.40235397,0.30836022,0.007700249,0.0036092792,-0.18482873,-0.059179775,-0.30960426,-0.27239406,-0.09872442,-0.28369832,0.06419696,0.13339789,-0.010861635,0.55480707,-0.29801244,-0.79308134,0.1444777,0.9613986,0.13527519,0.2893232,-0.07353185,0.085444,0.38318902,1.1113017,-0.28868267,-0.3577999,0.0059411633,-0.06601865,-0.025409259,0.12313685,-0.17360847,-0.08803742,0.28824332,-0.88496196,0.51843965,-0.62373143,0.206684,-0.43133414,0.009756186,0.10258856,0.71323407,0.29619923,-0.14530678,-0.7214657,-0.12831716,-0.0092639215,-0.058893647,-0.8064081,-0.19328402,0.62183446,-0.09722703,-0.08776431,-0.67784876,0.11329856,0.20895743,1.1225246,-0.2693643,-0.45316133,0.05641921,-0.33413965,0.32243505,0.04596208,0.010377546,-0.13048483,0.29760483,0.037014384,0.043673303,0.13480891,-0.27907076,-0.20832361,-0.38490114,-0.099706426,0.2635407,-0.024464898,0.08606859,-0.28084844,0.050376944,0.13825148,-0.02651467,-0.48066252,0.052509125,0.33891737,-0.6907645,0.5599771,0.45821258,0.174752,-0.10762723,0.3570132,-0.002058157,-0.016710829,0.39354765,0.11108006,0.23217411,0.24765298,0.06512729,0.069903575,0.7218379,-0.45933324,0.07018448,-0.049232636,-0.3285781,0.16444659,0.073309645,-0.094228834,-0.19257744,-0.0383835,0.263316,-0.16955423,0.14511606,0.1377179,-0.33814013,-0.40777686,-0.11106018,0.039660543,0.17341295,-0.27798426,-0.31829488,0.14049986,0.18155164,0.18190075,-0.28152868,-0.4001075,0.06120318,-0.099451356,-0.13139176,0.3966276,-0.39622194,0.1856057,0.2255709,0.23605326,0.63222265,0.088318534,-0.4133937,0.052179486,-0.6140831,0.40583533,0.6158232,0.7692736,-0.23896387,-0.36618838,-0.0025838837,0.43502054,-0.10545841,-0.75945705,0.075355835,0.05761999,-0.32267246,-0.53327143,-1.8736106,0.096807234,-0.16435611,-0.4627457,-0.284777,-0.31845948,-0.100990616,-0.41058373,0.2836367,-0.0055341083,0.24963586,0.09424533,0.7204758,0.39609778,-0.2933652,-0.13915695,-0.10574128,0.062049095,0.03600125,0.2880182,0.107385,0.06102929,-0.26567507,-0.042907767,0.06011987,-0.061956137,0.26380607,-0.45027906,-0.20869946,-0.34910202,-0.24373175,0.07887583,-0.7921919,0.060068816,0.1513221,-0.2450041,-0.076593526,-0.4039043,-0.25094783,0.47091806,-0.02337784,0.22736432,-0.060464833,-0.029247673,0.15970317,0.42013654,0.257815,-0.4423204,-0.1461402,0.07845948,0.36739725,0.27437,0.16526672,0.042001203,-0.1353386,-0.51706195,-0.23736075,-0.25484073,-0.3963134,-0.14467062,0.048455775,-0.111255124,-0.03675717,0.14994052,-0.13856748,0.19936274,-0.43200585,-0.2440017,-0.2706375,-0.13392411,-0.11891676,-0.4036021,-0.0259158,0.31019083,0.004895589,0.07177461,0.05933295,0.18966441,0.8170133,-0.5471756,0.44715893,0.47079784,-0.11869693,-0.25721088,0.36523196,0.18961367,-0.31890666,-0.2651669,-0.6352487,-0.019818256,0.18793982,-0.17793159,0.0120342905,0.105045095,0.34200686,-0.6419106,-0.76450497,0.331381,-0.022880532,0.6206353,0.1857245,-0.4351555,-0.33279857,-0.25073606,0.046300337,-0.07454802,-0.20732236,-0.28617245,0.13131094,-0.4051882,-0.083348714,0.14419387,-0.011334893,0.45942083,0.062246263,-0.17789447,0.2898714,-0.07629955,0.20843215,0.14161661,0.006143705,0.16981304,-0.11302814,-0.15401894,-0.023118379,-0.62732893,-0.090717025,-0.20833214,0.024448184,0.23442322,0.21292087,-0.2565557,-0.35309428,-0.105499014,0.27872872,-0.64559203,-0.45228383,0.037923105,0.056705903,-0.37337828,-0.13025253,0.20276469,-0.11124854,-0.30068105,0.24756755,0.29611695,-0.17932725,0.16519126,-0.17373738,0.018052015,0.5286088,0.17148666,0.24909563,0.38004285,0.019676754,-0.17160337,-0.9667514,0.2188724,-0.14338781,-0.09119983,0.20846789,0.31189537,-0.12099961,0.50611955,-0.3349382,-0.45622578,0.012063907,-0.19514878,0.0011568872,0.32871437,0.21524651,-0.52790844,0.6694703,-0.52832013,-0.2716897,-0.2469375,-0.66452783,0.7608955,-0.8086192,0.27442306,0.08147277,-0.29954773,-0.15374084,1.1346478,0.17378333,0.44037136,-0.4286945,-0.4486133,-0.70055664,-0.2251649,0.4109613,0.263144,0.044722334,0.49690452,-0.14391239,-0.7263735,0.065496996,-0.45495492,-0.0769121,-0.35657686,-0.36405566,0.1684637,-0.11809792,0.042214982,0.29961202,0.5917554,-0.67115575,0.017521402,-1.0529532,-0.6874457,-0.6610732,0.34613144,0.29171798,0.2118765,-0.32882968,-0.051920313,-0.10333023,0.43688977,-0.32882884,-0.25646654,-0.17502448,0.15829337,-0.4485664,0.14040235,-1.0877795,0.2963795,0.4891274,-0.5486073,0.04087568,-0.36685073,0.15876539,0.4758172,0.32014894,0.5735097,0.12752591,0.11382809,0.52253246,0.07064338,0.44118074,-0.04993557,-0.63029706,0.58007914,0.1373049,0.29660624,0.070235305,0.2646015,0.43964365,-0.119191885,0.24253872,0.2970077,-0.35062417,-0.24800545,-0.0171274,0.0642557,0.033759333,0.08804613,0.39066318,0.32292902,0.07108666,-0.41297963,-0.18702748,-0.3907268,-0.12692115,0.13126317,0.033998545,0.29204464,0.2558861,-0.15189154,0.5510562,-0.039773945,0.47376293,-0.6200987,-0.37593293,0.10717429,-0.09007944,0.2502325,0.041109037,-0.1852571,0.051189203,-0.18650661,-0.012832786,-0.19564442,-0.23442023,-0.11036955,-0.35987583,-0.25477844,-0.15257235,-0.08383783,0.26558718,0.094960846,-0.016957575,-0.23880805,0.16869944,-0.26140147,0.20586857,-0.007392729,-0.023438985,0.3515096,-0.1555486,-0.25700888,0.22218442,0.1704154,0.79457825,-0.45757058,-0.08319944,0.4074979,0.5327084,0.35416713,0.3884754,-0.22260404,-0.21173747,-0.42253837,-0.1516898,-0.1075212,-0.6353689,0.0025904775,-0.42849976,0.007653259,-0.014188805,-0.2700499,-0.71873045,0.3474955,0.4003935,-0.11738815,-0.21258907,-0.30777353,-0.30761665,-0.50031614,0.08654179,0.09652512,0.270191,0.15114689,-0.048034586,0.14196476,0.6215281,-0.7263981,-0.025841646,0.19579247,0.011565712,0.12416459,-0.0070542316,0.1548072,0.034551933,-0.06817754,-0.38161477,0.21145397,0.17611781,0.046777096,-0.07556706,0.097673796,0.12967077,0.030116867,-0.20783485,0.39870092,0.08171217,0.39753744,0.12986983,-0.4246767,-0.051391624,0.5664941,-0.0048721707,0.09437936,0.03035533,-0.016607452,-0.11879814,-0.4862343,0.06323878,-0.4126611,0.20021391,0.14139807,-1.5429189,0.429775,-0.045413844,1.0410038,0.576996,-0.025134202,0.24354039,0.37152857,-0.87567407,-0.24750695,-0.3224083,0.27099913,0.7555573,-0.51284665,-0.8101469,0.09535313,-0.15701076,1.024187,0.10457871,-0.7282985,-0.47126734,-0.5310503,-1.244448,0.62404126,-0.099626936,-0.33834693,0.35601798,-0.34110916,0.5827499,-0.28613573,0.15968111,0.1409475,-0.08524916,-0.13251947,-0.42106703,0.33963645,0.62831366,-0.8336041,0.5519596,1.0404361,-0.31287485,-0.16239604,0.008501068,0.15687877,-0.25217512,-0.29272363,0.30671954,0.035374295,0.8435239,2.021813,-0.26907864,0.93414295,-0.26314887,-0.33972538,-0.51057756,0.41789064,0.5132976,-0.04428706,0.6432708,-1.7306222,-0.99314964,-0.31757993,-0.48300278,0.26982448,-0.40457767,0.36162984,0.6784556,0.46878192,-0.44010615,-0.42024735,0.42738396,0.20455234,-0.60961086,-0.3022034,-0.69507015,0.17166865,-0.25163132,0.34426752,0.031559717,0.003936548,0.38912693,0.88241345,-0.38327104,-1.0349411,0.42849004,-0.70010144,0.20963444,-0.13887677,-0.31674933,-0.45292503,0.36309835,-0.08176008,-1.7299657,0.08946897,-0.33275983,0.9852634,0.9124508,0.318007,0.6419692,0.0051638214,0.44245574,-0.84785706,-0.45035237,0.08720292,-0.6018671,-0.25092456,0.6852258,0.1786561,1.0300608,0.0144782085,-0.023453914,0.10625134,0.23012689,0.64416456,0.33163205,-0.23196441,0.21807702,0.3564072,-0.13705795,0.47779006,0.53442705,-0.20824397,0.3604154,-0.057786923,-0.256385,0.101902775,-0.12185245,0.6532298,0.26439402,0.15719183,-0.10893796,1.2060192,-0.3824133,-0.65261334,0.28771514,-0.3609911,-0.83910817,-0.0067538354,1.0445912,0.43717542,0.18686248,-0.5105121,-0.5444092,0.3317106,0.21671927,0.06544565,0.056464363,-0.35559297,0.21760947,-1.0403445,0.21661653,0.21725754,-0.4015004,-0.12975703,0.041918177,-0.013007345,-0.19909932,-0.29771677,-0.99550736,0.69993937,0.065537885,0.45886564,0.05335204,0.02484816,-0.56190246,0.13035515,-0.46790347,-0.51017356,-0.82859474,-0.40379944,-0.034808178,-0.12234865,1.1371447,0.35998872,0.115781516,0.15579115,0.9610866,-0.13691808,-0.33908436,-0.2911661,-0.1857619,-0.4067428,-0.24899808,0.29960352,0.19275326,-0.26151764,-0.611294,0.3474131,0.8100647,0.0009057818,-0.19316065,0.47852993,-0.12285707,0.46777707,0.04567346,0.09859222,-0.59421146,-0.10093872,0.027658647,-0.44439393,-0.59680736,-0.49961278,-0.19108002,0.58186066,0.021679088,-0.29884416,-0.09428616,0.24855861,0.47942522,0.85345286,-0.18735027,-0.07842051,-0.0557733,-1.0354127,-0.12906924,0.35764822,0.41742864,-0.61902106,-0.19428265,-0.04268108,0.08234905,-0.34740517,-0.90112585,-0.017955072,-0.11967156,0.14266542,0.07525598,-0.21239218,-0.19381112,-0.30583033,-0.5076107,0.19523284,-0.98050505,0.2884121,0.30095312,-0.10326326,-0.2973086,-0.81110185,-1.1427016,0.20533313,0.65680623,-0.21304607,0.20106599,-0.07888369,0.14047201,-0.82513803,-0.0561006,-0.07091424,0.39926088,-0.35980502,0.0087089045,-0.79233485,0.5539427,-0.37130502],"dims":[64,32]},{"bias":[0.5292422,0.004847955,0.23932044,0.5207543,0.21917525,0.72415376,0.016531765,0.03779319,0.3895642,0.5570226,0.97553307,-0.033028428,0.39550483,-0.00069670525,0.7668976,0.026135948,0.48671702,0.37983784,-0.18033735,1.3192544,0.7362586,0.08796975,-0.24808311,0.27333263,1.0589991,0.35135907,0.25271446,0.64031035,0.026991336,-0.112212926,0.09191632,0.75604063],"weights":[0.022270294,1.0639383,-0.13763942,0.7761371,0.7316545,0.09708851,0.1417997,0.4316557,-1.0114052,0.23240575,-1.1130545,0.73760027,0.30626753,0.08489324,-0.6682993,-0.22546019,0.13617073,0.33434364,-0.02043942,0.7495759,0.22272311,0.24774942,-0.12088132,-0.4144231,1.0984167,0.29079127,-0.1768866,0.4977659,0.22443084,0.42649233,-0.22715689,-0.68283683,0.04285987,-0.08537978,-0.03775913,-0.17458779,-0.18789354,0.55082,-0.2689359,0.028138235,0.28071368,0.37531388,-0.46737722,0.32073912,-0.44465947,0.4790476,-0.09259881,0.050967135,0.14905033,-1.2992792,0.11142665,-0.7674837,-0.14170744,-0.15675627,0.06602059,0.08225998,-0.22677346,-0.17453107,-0.04172936,0.026990235,0.010403285,-0.09389656,0.1504003,0.14120656,0.38206106,0.39953697,0.44094914,-0.21556525,-0.33740118,0.32179084,0.09241355,0.22015554,-0.19588727,-0.0037649358,0.013899074,-0.39868942,0.017344302,0.14681423,0.6812551,0.32040408,0.00011876317,-0.47117078,0.10306853,-1.4549819,-0.3019149,0.39679712,0.57567257,-0.2138889,-0.5205665,-0.031195747,-0.2713205,0.0093096765,0.15377109,0.20627059,0.68133324,0.27561215,0.29702464,0.2644563,0.364668,-0.13196932,-0.42584792,0.39621794,-0.17387648,-0.35347515,-0.13640662,0.02030017,0.51406443,0.4642086,-0.60944164,0.45087835,0.57133764,0.06465098,-0.5891133,-1.1805893,-0.055271987,-0.45257172,-0.9025675,-0.2316195,0.51956373,0.10073598,-0.87454385,-0.1806449,-0.4182427,-0.18750535,-0.012865928,-0.11606648,0.29433587,-0.4529199,1.8808651,-0.27047658,0.71879154,-0.41819936,-0.34857932,-0.026695956,0.23738813,-0.39604908,-1.1496522,-0.6386778,0.10328625,0.5183308,-0.27753782,0.75560695,0.08686948,-0.10897661,0.09209489,-0.7088239,-0.3744963,-0.6997025,-0.1550684,-0.0822361,-0.44752854,0.013046621,-0.7031036,-0.14804253,-0.68527,-0.61428773,-0.06746166,0.41554505,-0.21123749,-0.7890381,0.09955373,0.33559442,0.755754,0.55976963,0.16810712,-0.60711014,-0.12735373,0.21393335,-0.21169993,0.7095744,0.20512792,-0.2547535,-0.54236674,0.6518504,0.41409096,0.20752403,0.11487331,-0.6965673,0.035921704,-1.1621674,-0.16403554,-0.19344418,0.78958917,0.0124931345,-0.7485395,-0.41917166,0.110386536,-0.040521625,0.32284325,-0.17837748,0.52102786,-0.08148428,-0.023371385,0.16873553,0.3941334,0.21018592,0.25197744,-0.494612,0.43651786,-0.031118287,-0.10808789,0.32526106,0.80264837,0.24601583,0.3126955,-0.36589447,0.99080586,0.29062465,-0.22283095,-0.3636152,-0.1866533,0.20598438,-0.28713757,0.048434064,1.3237705,-0.029297356,-0.21145327,0.047454312,-0.18677253,0.6072691,-0.15873295,-0.2849733,-0.26687902,0.28440627,0.05711596,0.1582784,0.16963173,0.25848708,0.087450236,0.29536864,-0.15666765,0.13416535,0.4404097,-0.13995777,-0.19393288,-0.15830275,-0.07149386,0.06680631,0.4933784,0.073269635,-0.3143242,-0.36374998,-0.008241579,-1.2125568,-0.164698,0.4779611,0.5002031,-0.12921257,-0.83672565,-0.53053325,0.2089951,0.50352997,0.06077635,-0.06258724,0.28979144,0.398758,0.07016338,0.21769285,-0.36241904,0.38235915,-0.2729821,-0.72778684,0.17454672,0.21113423,0.4580957,-0.38116089,-0.40218723,-0.73430425,0.37487033,0.08454757,-1.3263417,0.089795776,0.29848513,0.26690865,0.47262526,0.96998334,0.67108625,0.08252175,-0.70672584,0.1461391,0.6203793,-0.010371982,0.27451572,-0.15752167,0.1696858,0.04288172,-0.5194916,-0.15431681,-0.13053054,0.13448705,-0.24001245,0.16146943,0.74603534,-0.31363443,0.043952964,-0.19047673,0.41190296,0.25176767,-1.2014836,0.047889788,0.1265076,-0.14265643,-0.68218035,0.338508,0.19647565,0.21103339,0.10914238,0.16070388,0.3840816,0.47888792,-0.08819935,0.7057197,0.6267372,0.5495329,0.047733966,0.24409422,-0.2088774,-0.054394063,-0.09493404,0.6036606,-2.2676976,-0.36081073,0.81869125,0.098691024,0.8913753,1.0202945,0.12229528,-1.2458682,0.36826202,1.240987,0.27049276,-0.20448576,-0.23591791,-0.20592968,1.1661668,0.38174847,0.72702616,0.048893195,0.05888397,-0.50993615,0.2028241,0.06862221,0.5699507,0.28061694,-0.94776934,-0.18877265,-0.0297797,0.6011015,0.27402812,-0.25632408,0.84911525,0.7653173,0.38412553,0.39918524,-0.25515744,0.36472237,0.32219723,0.45865828,-0.07693889,0.06377718,-0.38839692,-1.0182017,-0.030426249,-0.1109299,0.07962728,-0.5269355,-0.58850676,0.41842538,-0.30583936,0.103476375,0.33243707,0.3283545,0.0868428,0.3157537,-1.3768661,0.82927114,0.044216074,0.07526341,0.3095508,-0.58616495,0.5635337,-0.052959424,-0.09891444,-0.092259295,-0.5385694,0.75467485,-0.9277064,1.8906598,0.82397246,-0.62409353,-0.15992245,-0.35206753,0.029379165,-0.889078,-0.34274012,0.116111666,0.71413714,-1.1855153,-0.8869411,-0.5101687,-0.00901583,1.3514357,0.3268995,0.35165757,0.5050262,0.37007606,-1.2782538,2.442564,0.20208049,0.17572992,-0.064671226,0.37820047,-0.3726352,-0.018804712,-0.82758933,0.46543995,-0.022453137,0.1449448,0.21008205,-0.025947202,0.044705003,0.8945195,-0.024614658,0.46633622,-0.28148672,0.1034435,0.8333817,0.042562503,0.042251848,-0.2698608,0.9562083,-0.26679784,-0.1361805,0.502383,-0.6330288,-0.27562714,-0.24114059,-0.096805066,0.7934696,-0.08717697,0.8040557,0.08408296,0.35233507,0.36671925,-0.034351595,-0.18452029,0.56328565,-0.21218641,-0.5775412,0.25427872,-0.39696527,0.0453005,0.040520355,-1.2729317,0.099387564,0.4140687,0.16247605,-0.40450683,0.016106514,-0.2597342,-0.03384753,-0.3261762,-1.3848128,-0.14634556,0.22812617,1.114389,0.23902935,1.3917519,0.597464,0.09488806,-0.7563191,0.15302595,-0.8623454,0.17273471,0.2134684,-0.117729545,-0.11474287,-0.14386031,-0.69672745,-0.044716537,-1.9912707,0.058586635,-0.9711934,0.94440967,-0.24674615,-0.7370737,-1.5014321,0.2589916,0.805198,1.7427673,0.6730474,-0.40742645,-0.32716295,0.014935863,0.81263083,0.100105576,1.1874728,-0.4041387,-0.39697942,0.01935732,0.62861353,-0.62184596,0.19659542,1.7897819,-0.42122126,-0.71359175,-1.0236558,1.291502,-0.978261,-0.35167336,0.569595,-0.5785169,1.7878432,-0.22392504,0.67542654,-1.3568429,0.32110852,-0.12491349,0.53037,0.043936413,0.78519976,0.15737657,-0.5330069,-0.25441098,0.60112065,1.1991154,-1.5278381,-0.06215854,-0.7092199,0.36364958,0.064184785,0.2577479,0.30344006,0.21933049,0.20985748,0.9297429,0.1242428,0.33231637,0.6974128,-1.1602303,0.42852533,-0.58148324,-0.4215348,0.35264423,-0.16335788,1.0197806,0.99265325,-0.5428452,0.14046617,-0.04540531,-0.0044714203,-0.25228417,0.7153168,0.36697787,-0.6333614,-0.15992425,-0.89335877,0.45341203,-0.20583075,0.13812146,0.07293048,-1.9112839,0.4535356,-0.79894894,-0.24420702,-0.11698461,-1.1793712,0.53821903,-1.498617,-0.14472474,0.25861555,-0.20035572,0.41018397,0.06388094,0.53386307,-0.2122269,0.04753851,0.29056004,0.31617588,0.30515087,0.016207535,0.018188175,0.26973587,-0.28941527,0.1433747,0.05894139,0.44426432,0.35557005,0.4899154,0.34554195,0.29350317,0.19415137,0.25832602,-0.87915367,0.2720087,-0.3809487,-0.72645044,-0.00079930935,0.07563308,0.24751653,-0.21752799,0.0898373,0.36687893,0.19605638,0.11662401,0.44440973,0.065109685,-0.042990323,-0.19915731,0.06282773,0.10978165,-0.18419115,0.44283396,-0.8916022,0.078303955,0.19563341,-0.004750329,0.11884071,-0.9146133,-0.3042337,-0.108728275,0.5413981,-0.66857594,-0.07454088,0.106356464,-0.77179193,0.1808139,-0.021852817,-0.12813036,-0.36581555,-0.41688612,-0.07999557,-0.68439764,0.18405093,0.2674426,0.3093402,-0.10636481,0.3758766,-0.112727344,-0.07711813,-2.170019,-0.36028624,0.165528,-1.0143762,0.591447,0.03163982,0.22981288,-1.4197769,1.354788,0.6020905,0.56181175,-0.14149332,-0.45124742,-0.47427082,0.69283146,-0.44809422,0.06386538,1.0917629,-0.5368475,-0.30294326,-0.53345513,-0.1579195,1.1422758,0.87202376,-1.0426737,-0.15464488,0.29758203,0.6419394,0.6899954,0.6395576,0.33951217,-0.6121605,0.097218014,-0.59783804,-0.6479638,-0.15007304,-0.18949866,-0.7296703,0.38558313,-1.3638722,-0.73765707,-0.4875615,1.1929798,0.49466112,-0.18947294,0.42030683,0.7337334,0.9492372,0.049909595,-0.8200273,-0.08853179,0.18047528,-0.331441,-0.95762485,0.8420795,-0.5977372,0.09445177,-1.0317236,-0.0015652871,0.22864443,-0.1243271,0.71272796,0.53687817,-1.338398,-0.82595026,0.4517311,-0.21635933,-0.460274,0.096524104,0.5057679,-0.4972476,0.52204615,0.8102152,0.47041413,0.051998004,0.19108814,-0.6791239,0.06510664,0.805642,0.17788224,-0.4374367,-0.8552736,-0.6523511,-1.2808503,-0.84807837,-0.40172407,0.034590792,-0.7418589,-0.24915063,-0.7956233,0.81558746,-0.039337818,-0.46856564,-0.27606085,0.57564527,-0.68136334,0.75556564,0.1473179,0.48223555,-0.26420897,-0.9950582,0.24336112,0.24030124,1.087898,1.9830229,-0.46219647,-0.5520061,0.39947784,0.2235974,0.21940717,-1.0097623,0.3373988,-0.5917749,0.34914723,0.8111112,0.36917946,0.14475842,-0.38270718,-0.6886461,-1.634512,0.76208913,0.2975044,0.09673529,0.028424924,0.28510436,0.035675045,-1.4380485,-0.22835578,0.29663196,-0.10978934,0.019990694,0.17096551,0.4582142,-0.6734638,-0.29374713,0.12155527,-0.3605639,0.3038094,-1.0107833,0.34726816,0.4340919,-0.2836986,-1.0243162,-0.024143549,-0.007855907,0.38127345,0.26063192,1.2982697,0.76165223,0.28783888,-0.47576025,-0.45845193,-0.38092762,0.50685203,0.037872814,-0.09342574,0.09875334,0.12819801,-0.9893512,0.15556706,0.10074372,-0.41188183,-0.39911643,-0.49946547,-0.19581586,0.22109847,-0.63871807,0.27041757,-0.46088958,0.3481906,0.52505153,0.8124469,-0.8665179,0.83738285,0.45419973,-0.04304678,-0.56864405,0.1899768,-0.37147313,-0.6142449,-1.6707131,0.33318657,-0.897389,-0.48966792,-1.4657346,0.3377532,-0.24414122,0.57236034,0.069822,0.31556752,0.41939834,-0.44427577,0.17220034,-0.1941939,0.24220866,0.27722746,0.25765845,-0.46428335,0.14400084,0.077992976,0.41608608,0.3428205,-0.5692592,-0.41081738,0.519758,0.29771614,-0.9879644,-0.21304844,0.04987764,1.2421794,0.5316597,0.5020904,0.7746403,0.105428845,-0.9858216,-0.22853044,0.83070886,0.1782909,0.27254567,0.026429128,0.13923143,-0.09735283,-0.42324215,0.7596905,-2.7497697,-0.16574703,-0.30565116,0.19650593,0.40871206,0.49627072,0.1552097,1.1237017,-1.6820403,0.8596388,0.5167567,-0.15248433,-0.6904076,0.8022283,0.44037524,0.8185445,0.7513242,-0.5306485,-0.7133892,-0.9781243,-1.3429861,-0.5699005,0.70907944,-0.24598761,0.28156596,-0.56719273,-0.2931671,0.68611103,0.5163474,0.39356354,0.27265087,-0.6367803,0.30064762,0.45391884,0.49613994,-0.2130403,0.32803422,-0.5028773,0.24217638,0.17073448,-0.22278756,0.026910674,0.1560316,-0.089744054,0.14677523,0.26849514,-0.04532169,0.18579929,-0.006095992,0.081976764,-0.19211449,-1.1623656,-0.6641129,0.20362984,-0.44349796,0.3605199,-1.4969326,-0.0077927164,0.029689398,-0.23068205,0.0983906,0.08418194,0.23195237,-0.00026483287,1.3703196,-0.76037896,-0.7134518,1.091787,0.7252988,-0.4734123,0.66028243,-0.027415974,0.34449735,-0.699225,-0.6038184,0.75836444,0.7470742,-0.9121959,-0.86371315,0.68968314,0.487969,1.428825,-0.14252554,0.46682015,-0.0133351125,0.20298372,-0.17703073,-0.38700542,0.45986608,0.70177126,-0.01769323,0.7575558,-0.35774162,-0.27606332,-0.15410428,0.6493047,0.82730305,-0.086860694,-0.25846854,0.46785894,0.12152506,-0.6646515,0.12416205,0.3107609,0.4600114,0.21892776,-0.54397345,-0.41433915,0.42401132,0.120655924,-0.78679067,0.6669931,0.22854653,-0.15123549,0.061079048,-0.20602258,0.17215951,-0.026255524,-0.3081401,0.35041243,0.38877636,0.40004003,0.31601977,0.42211765,-0.22796744,-0.23165432,-0.27296254,0.61333513,0.29233846,0.28137675,1.4727505,-1.0655379,-1.5571938,-0.28716564,0.41187847,0.5784024,1.0009288,0.65921694,-0.42163444,-1.0333232,0.5939243,-0.24555159,-0.6175185,0.10898398,1.5730573,0.39566526,0.28002298,0.6830214,0.3263622,1.0136923,0.5129579,2.255947,0.80072325,0.93253183,-0.8367411,-0.23584026,1.1861724,-0.047258474,-0.49039957,0.30349118],"dims":[32,32]},{"bias":[0.46103135,0.21054906,0.13182981,-0.034067843,0.23732284,0.41739345,0.07764381,0.4517276,0.39332518,0.36113292,0.3247882,0.44013697,0.4691578,0.013429605,0.08418257,0.19002731,0.18090047,0.11547476,0.357769,0.14404854,0.34488094,0.59861434,0.5163135,0.7442186,-1.0801481,0.24014024,1.9004561,0.2138482,0.1495645,0.14737812,0.05513459,0.080672555],"weights":[0.014186732,0.61716163,-0.1044111,0.16295996,-0.0044014533,0.47496045,0.16297853,-0.4368969,0.3147131,0.50932145,0.19830176,0.7594036,0.52092415,0.21899068,0.32057646,0.023254016,-0.071134716,0.09999447,0.24332513,-0.05186764,0.25127137,0.56650555,0.40534216,0.5947614,0.55342865,0.5402209,-0.42867598,0.12730154,0.5342531,0.36983845,0.13450223,0.003150269,-0.11633046,-0.3681007,0.3007363,0.38043556,0.5005429,-0.48963425,0.31893304,1.4166281,-0.26568815,-0.313538,-0.31613907,-0.57638264,-0.23386632,0.31555822,-0.036834255,0.17649354,0.32061735,0.1279624,-0.5491205,-0.024283245,-0.11280826,-0.5868927,-0.13395889,0.1020018,-1.3224562,-0.20091672,-2.2194626,0.0018587122,0.009501796,-0.047970254,0.40072173,0.37176853,0.022014959,0.033165853,-0.23288207,0.07540493,-0.0024681902,-0.52311456,-0.009439597,-1.7181062,-0.06834268,-0.11368305,-0.06907338,0.1948653,-0.27237672,0.03594,0.07067018,0.09960164,0.3340906,0.28525376,0.18166558,0.07533647,-0.0566678,0.103877634,0.32301453,0.13496238,0.7664067,-0.4456839,3.0300922,-0.27985194,-0.014196324,-0.09268766,0.09959093,-0.10662848,0.58245176,0.32364258,0.19942632,-0.2137676,-0.044103798,0.226608,-0.06641878,0.66266096,0.33138734,0.6860535,0.08601273,0.17426221,0.5012071,-0.16621627,-0.056787495,0.08046473,0.13598096,0.12714708,0.24452932,0.52434015,0.5082435,-0.06742729,0.41999578,0.7196973,0.44735348,0.06682858,-0.040231694,-0.047113135,-0.178309,0.06447282,-0.15074107,0.22117575,0.39096677,0.48209208,0.19848122,0.26501334,-0.19137079,0.14201392,0.45391634,-1.7352077,0.37965477,-0.2276301,0.24033031,-0.23451607,-0.11224627,0.4019549,0.27139413,-0.0037806625,0.024572661,-0.0266932,0.1207586,0.49803883,-0.08157569,0.44728965,-0.15810283,-0.17775206,-1.2740686,0.16142985,-2.858905,0.13667174,0.09731152,0.06675312,0.17563096,0.22997189,-1.5885377,1.8966767,0.65388215,0.50679123,-3.8600283,2.6309016,-0.9403803,-1.976076,1.535068,-1.9218364,4.5505967,1.1935052,1.1170686,0.33939397,0.4011061,-0.6691064,-2.5745196,-0.14260009,1.1324914,1.6571221,-0.9829224,1.2796504,1.0477366,1.7991267,0.91096,1.728004,-0.29129976,-2.0764842,2.5316887,3.5129225,0.48949546,-0.84626293,0.54434776,0.19309446,0.030844977,-0.3324044,-0.6683456,0.65157306,-0.22351602,1.4660009,0.2637481,0.2297142,0.73969066,0.25962627,0.13446343,-0.0031313794,-0.5024168,-0.11838794,-0.6269042,-0.17011395,0.36931297,-0.7863064,-0.5419681,0.55898917,0.2581026,0.11985065,0.75070286,0.5224005,-0.7940125,-0.1900108,-0.12484187,-0.466826,-0.2551384,-0.27045256,0.12781282,-0.33297276,0.22274484,0.0940252,-0.3341587,0.2912621,0.03160423,-1.3830423,0.12932101,0.47196427,-0.001949801,-0.044215064,0.4193923,-0.002875275,0.2139601,-0.25170794,0.10140895,-0.1866643,0.08400625,-0.58491516,-0.5636281,0.6635247,0.30894592,0.24431641,0.61585754,0.472431,-1.377834,-0.28261742,-0.7174926,-0.4861958,-0.17096561,-0.31675678,-0.3764711,-0.15213414,-0.82706976,-0.012654728,-0.2089276,0.30203965,0.26519662,-0.9690818,-0.10890013,-0.03910105,0.27376825,0.19572681,0.062169116,-0.14237276,-0.11249119,-0.12848139,0.41566753,-0.0048139095,-0.25365132,0.2894461,0.12509494,-0.20465091,-0.5507625,-0.5493775,-0.09926155,-0.09886359,-2.65591,-0.05759632,-0.25754678,-0.2994061,-0.01795045,0.22277409,0.51891506,0.39743713,-0.72973406,-0.2655938,0.1439851,0.20373929,-0.07155144,0.49670604,0.6258724,0.35142964,0.56162596,0.5669454,0.45915377,-0.19438218,-0.06277156,-0.098806,0.027757987,-0.019970134,0.60985035,-0.23492478,0.21176653,1.1714373,0.6300673,0.36915314,-0.7485782,-0.111833684,2.0173404,0.39928883,-0.25737232,-0.087939896,-0.07880409,-0.019110648,-2.7360342,-0.29287893,-2.6818247,0.86757326,2.6557965,-1.9315294,1.0837646,-1.7705396,-1.4923512,-1.9480308,0.86274076,-0.3387784,-2.6248465,1.6132048,0.89187723,0.28345644,1.646455,1.7712088,-0.70368123,-0.114331424,-0.30238166,3.3613405,-0.647346,-1.06455,0.12357822,-0.8918763,1.2465694,-0.44449183,-1.2680948,2.8857498,1.5482311,0.3203024,-0.9074253,-1.9208785,-1.8102739,1.1862682,-0.06743966,-0.057802413,0.38473952,0.37808886,-0.20678225,-0.60578746,-1.4740787,1.875845,-0.7916954,0.0524881,-0.7256635,-0.052322056,-0.28609473,0.8929221,-0.77908796,-0.41577634,-0.24159405,-0.71355885,-1.0264844,-1.5885288,0.10787218,0.21387006,-0.0622515,-0.29848674,0.48876867,-1.149625,0.80824775,-0.22186172,0.11900648,0.12960075,-0.058295537,0.4800991,0.39318833,-0.0701966,0.31657642,1.5599134,0.13498907,-0.116805695,0.14465225,-0.24480945,-0.07327841,0.092322744,0.37344378,0.6758132,0.2102412,0.05868018,-0.39319602,0.8263228,0.32989952,-0.23417741,0.15610878,-0.019115528,0.18818499,0.087128565,-3.139834,0.1997215,0.68327117,0.5193182,0.13608517,0.6361337,-0.64473754,0.08331879,0.2505765,0.29376525,0.20632434,-0.22322291,0.48929697,-1.1609356,-0.16489255,-0.6740194,-0.6179167,-0.41531944,-0.49856532,0.26961973,0.20189285,0.28204566,0.02117727,0.24844153,-0.29947534,-0.048704762,0.34348184,0.11104397,-0.09436755,0.22643615,-0.91398174,-0.6289968,-2.3456366,0.32532114,0.119583204,0.29790318,0.34416673,0.24890494,1.9875628,-2.7600784,-4.282144,1.8368169,0.89397156,-0.38427314,1.5235088,1.1030548,-2.4836326,-3.5286248,-3.2968252,-2.7219002,-2.6402144,0.78567815,1.4434578,1.7466946,2.295637,2.8868637,-2.4587219,-1.6448216,0.15194316,-2.9044955,-2.5919585,-2.2876556,-1.0614676,-1.6291296,3.4323387,1.6124433,0.9706038,0.6870427,1.21515,1.7700385,-0.621942,-0.14044374,-0.13853453,0.30215392,-0.19387847,-0.28135216,0.2438152,-1.6750858,-0.16447234,-0.252949,-0.08268334,-0.44463578,0.22998013,0.061841074,0.29696175,0.10005565,0.14056812,0.2679103,0.07714249,0.21767427,0.18077542,-0.5362204,0.28789616,0.3132047,-0.59958255,-0.30155778,2.4137099,0.36040843,-0.16143598,0.039289296,-0.02706919,0.038441334,-0.04023859,0.1966518,0.13850984,0.30310807,0.5698712,-0.1711164,0.134543,1.0451303,0.15232274,0.24641699,-0.15430643,0.37438017,0.29425895,0.3760838,-0.056466524,0.06811639,0.29770595,0.100087486,-0.023327468,0.5201064,0.4631868,0.038269415,-0.1065414,0.21120338,0.7345967,0.22945884,-2.8632588,0.43553546,0.6376204,0.13252574,0.33294272,0.2471143,0.7950151,0.84318346,4.297181,-1.2861882,0.8270792,1.6677185,-1.4100709,-0.31707805,0.9790315,2.0422626,0.1613416,-0.7323996,1.3024306,-1.1326417,-0.89175904,-0.7457172,-1.7136443,-1.7342911,0.5798132,-0.62231195,-0.7777204,-0.41202006,1.1438729,1.1800257,0.84195954,0.3289438,-1.1930434,-0.6948423,0.9969098,0.51138943,-1.2640492,-0.9761395,0.20879583,0.19614863,0.5184419,-0.19016959,-0.6310253,0.20980813,-0.40437612,0.3802328,-0.23781441,0.089377604,0.5744762,0.39173558,-0.15114433,-0.6425355,-0.43060124,-0.5960526,-0.18350522,-0.53585863,-0.1341137,-0.43426257,-0.47319192,0.4594255,0.11409343,0.1473933,-0.699163,0.24831551,1.2966763,-0.6266899,-0.5130247,-0.67346865,-0.4894613,-0.24758598,4.0118885,0.3406223,5.420974,-0.33330765,0.47722706,2.0715125,-1.7242144,-1.064276,0.58447033,-0.5879502,-1.6354713,-0.15298013,0.8820132,-1.1150739,-1.8440216,-2.1497598,0.863047,-0.6803339,0.11781489,-2.101873,-1.6401767,0.9765919,-0.11256182,0.0011849882,-0.706669,0.0038158954,-0.08305322,-2.0312715,-3.0953987,-7.358574,-0.5763297,-1.0495585,-1.2719601,-0.15278032,0.3655494,-1.2456983,-1.7993486,-0.5520023,-1.3384764,1.1893318,0.40340635,-0.48217505,-2.499931,-0.39458027,0.56022,-1.2523407,-0.90232474,-1.1483396,-1.698191,-2.2998445,-0.05049092,0.62731415,-1.5234362,-1.1133293,0.6662199,0.59230167,2.605657,0.20249222,-0.6657286,-0.50486153,-0.17183338,-0.08307611,-1.8222984,-1.1789575,0.10827803,0.14737105,0.9559811,-0.62340784,-0.26385093,0.2076038,-0.49877477,-3.4441898,0.19083452,0.11452579,-0.0441936,0.3111909,0.29280257,-0.28236285,-0.54631984,-0.50680894,-0.33749047,-0.5041957,0.40771824,-0.20699717,-0.37680957,0.39385593,0.05420816,-0.07482355,0.17780738,0.39985827,1.027178,-0.26589683,-0.4205377,-0.47288767,-0.3937689,-0.8942788,-4.9243207,-0.09021395,-5.0739985,-0.40094998,0.2583337,-1.2454035,1.0380149,2.1948712,-2.662559,1.7341005,-1.0776521,-1.1744833,-0.25829735,-0.8059329,0.6158227,0.9638085,0.6401017,-1.4342291,-0.9252232,0.6125917,1.1104283,-2.5736995,-0.077315316,0.29665565,-1.8073984,-0.17474297,2.2161453,0.31239313,1.1360793,0.25260872,-0.78347456,0.65662074,0.47076893,0.06625735,-1.1088226,0.04994218,-0.57805157,-0.3155036,0.3202685,-0.29767588,0.08898783,-0.07922834,0.5817053,0.09566753,-0.32286564,-0.006571206,0.34455848,0.29665667,0.12172558,0.27684247,-0.14407615,-0.4578734,0.038651492,-0.2115648,-0.2303895,-0.09270611,-0.86395645,0.37012643,1.0892836,-0.08433816,-0.013460796,0.062037606,0.13833164,0.09571812,-1.6185669,0.92680764,-2.0286915,-3.1597862,-3.0288775,-1.3463814,-0.2050303,0.70038724,1.5977281,-1.2037668,0.0066212188,1.5896454,1.5938824,-2.2315373,-0.5107733,-1.9400136,-2.0187943,-3.368807,1.2729999,-1.4503224,-1.7748438,-3.1686966,-0.5143639,-0.8463157,-0.717828,0.395822,0.7439056,-0.2522985,-0.8423873,1.3397793,-2.9852102,-1.7934568,0.09478095,-0.3188457,0.13999583,0.36126742,0.59921753,0.23464935,0.21629435,2.0289059,0.10598902,0.29058155,0.14091061,-0.12394534,0.063427314,0.5741138,0.29819438,0.23531975,0.113345005,0.36718374,0.22818673,0.2861029,0.07924975,0.13318194,-0.19620435,-0.21879788,0.13630508,0.05223122,-2.9957514,0.063669845,-0.23151813,0.18569927,0.37900013,0.4594342,0.23640846,-0.07041439,0.21889049,-0.52196425,-0.1981467,-0.09204272,-0.15187296,-0.21660565,0.3046206,0.37914354,0.47057372,0.032825775,0.31186157,-0.35350993,-0.05661521,-0.26318496,-0.6743829,0.21523641,0.11360473,-0.06951524,-0.4268322,0.21811792,-0.13831738,0.043620776,-0.027490506,0.29859123,1.9986537,-0.23163925,0.3649528,0.27733046,0.05434455,-0.48679438,0.10871676,-0.16187914,0.2243356,0.4576458,0.5374044,0.40422603,-0.19056469,0.6868736,-0.11260934,0.18760486,0.17358328,0.26721692,0.27668178,0.5101374,0.22353828,0.3136678,0.1364384,0.36185998,0.34597042,0.40976316,0.23548846,0.2911369,0.124051556,-0.23472586,0.2998662,0.19777665,2.6838763,0.4386425,0.33358407,0.15214048,0.3384316,0.008517116,-0.026691355,-0.3493622,-0.014937622,0.18266618,0.532823,-0.6635331,-0.013366637,1.4242994,-0.1263341,-0.27430442,-0.3618625,-0.2422134,-0.2625125,-0.030361693,0.007238414,-0.13896467,0.37104958,0.331056,-0.35003862,-0.19938989,0.12788206,-0.6040525,-0.38943917,-0.29610938,1.1771884,-0.19299151,-2.6024919,0.0054306467,-0.068677016,0.32792664,0.1658205,0.23660886,0.5412215,0.22414093,-0.2999627,-0.16990511,-0.7456622,0.6214456,-0.16329263,-1.3561835,0.18557127,0.25934345,-0.097957246,-0.1320224,0.28627014,0.14270118,-0.41542214,-0.18988171,-0.40341607,-0.13058716,0.40247518,-0.30689663,-0.15274209,-0.29813853,0.32994047,0.3128791,-2.4396863,0.64615023,0.33633396,-0.07523371,-0.6159418,-0.11442142,-0.26631466,-0.42029905,-0.9988883,-0.5229417,1.1235044,-0.4998599,-1.9272554,-0.3868503,-0.12858751,-1.1772337,-1.7879149,-0.2431626,-2.2861702,-1.454508,-1.2220905,-0.6539549,-0.37615195,-0.27378812,0.3025594,-0.50977176,-1.8678766,-1.5522524,-0.41096327,-1.9325167,-0.1402938,-0.28065386,0.11400091,0.18553388,-0.32164443,-0.12938914,-0.10134304,-1.0495989,-0.14950651,-0.23972914,-0.14352448,0.09140426,0.2342864,0.1948976,0.366709,0.21607201,0.12882443,-0.333198,0.079151474,0.2971779,0.5012156,0.3788571,0.26393855,0.33528388,0.10415194,0.59811044,0.4865887,0.5567136,0.22695479,0.38584912,0.40112534,0.07091727,-0.14457507,-0.116055645,-0.4282713,0.068333164,-1.4902704,0.31445634,0.37685886,0.30519372,0.52486455,0.44963792],"dims":[32,32]},{"bias":[-0.47945824],"weights":[-2.1362684,-1.1290132,2.8010762,1.0601007,2.1571445,-1.4546345,0.9964809,4.238146,-0.802233,-1.3509582,-1.4918891,-1.1178056,-1.2306306,1.254095,1.2665823,1.1475064,1.3148798,1.0597694,-1.3193882,1.592031,1.4702615,-1.5462434,-1.3613029,-1.170488,3.1085997,-1.2868736,-4.7859674,1.2708783,1.6563475,2.017192,0.9829244,0.9865594],"dims":[32,1]}]