[{"bias":[0.14679858,0.019782506,0.14711675,0.18913448,0.2167379,0.09284485,0.118606135,0.06892349,0.24445684,0.053441107,0.09307682,0.07923676,0.081403196,0.1887294,0.4002037,0.011941364,0.25335723,0.14639601,0.08074908,0.16483095,0.058459867,0.074321546,0.1466183,0.44174603,0.2582885,0.22322743,0.16425997,0.19456676,0.34884396,0.024756497,0.19143994,0.12958667],"weights":[-0.097120695,0.65691835,0.06974078,0.5744078,-0.37014282,0.18568176,-0.03500614,0.35823855,0.33140573,0.15139052,0.15085919,0.36042497,0.14999853,-0.22873136,0.32477677,-0.13133259,0.05618272,0.57238764,0.13046768,-0.36369506,0.052965097,0.06208014,0.18293652,-0.006191014,-0.09896655,-0.2926136,-0.12595034,-0.42497548,0.2321497,0.12629317,-0.40431952,-0.10075723,-0.0681177,0.4815245,0.22531423,-0.15243039,0.072582364,-0.21326408,0.45674863,0.024154969,0.29089034,-0.0015928949,0.15546195,0.11108154,0.34409866,-0.28844705,0.42728764,-0.30244768,-0.160946,0.0642475,-0.69241935,0.073155224,-0.15083773,0.14237258,0.087164976,-0.3353593,0.018229665,-0.008897302,-0.1087779,0.0693721,0.14921796,-0.22152865,-0.4155246,-0.1386161,-0.49999636,0.051517542,-0.14634371,0.31329966,-0.07955875,-0.035672527,0.72857726,0.16325621,0.23776111,0.3008471,0.11147626,0.40697685,0.1257372,-0.08123849,0.4327268,0.2564003,-0.01426235,-0.14760506,0.14951663,0.297385,-0.09078897,0.28668532,0.10739154,0.25235194,0.05527192,-0.14360647,0.2098643,-0.054240085,0.34596834,-0.23118442,-0.19178352,0.1466077,-0.46853325,-0.10979815,0.19465335,0.11856327,0.458826,0.03952394,0.27549314,0.27170864,0.15782373,-0.3413515,-0.019520564,0.035994425,-0.021717219,0.027950207,-0.23848307,-0.297394,-0.2122083,0.6602911,-0.28691435,0.22082648,-0.2186292,0.17973205,-0.017517388,0.18185203,-0.045031756,0.012980486,-0.102337345,-0.489524,-0.29587644,0.27321663,0.024991866,-0.11585657,-0.41127998,-0.2712347,0.1891083,0.35441825,-0.097012796,-0.062908046,0.49606392,0.316597,0.21090765,-0.535303,-0.005881341,0.048516773,-0.3039522,-0.059648808,0.06360976,-0.12713988,-0.086908214,0.15890057,0.07302647,0.51153964,0.43994117,0.016099095,0.12143214,0.10973544,-0.11916527,-0.270086,0.14527623,-0.3925225,-0.15078728,-0.26829287,-0.15084824,-0.074581444,-0.39859524,-0.05941687,0.003261056,-0.0883467,0.41460836,-0.22906104,0.066975474,-0.120768584,0.28587696,-0.14874512,0.0196796,0.10802659,0.10660007,0.09426246,0.1050748,0.020826142,-0.17783132,0.39925793,-0.38009524,-0.13946709,0.7482051,0.20888883,-0.2096964,-0.15685143,-0.094964996,-0.036909223,-0.12212226,-0.2407915,-0.0116910925,-0.50384486,0.28811747,0.054992963,-0.11103031,0.14532211,0.002397476,-0.042700592,-0.13471633,0.16179298,0.40278226,0.4021858,-0.051911116,-0.43659732,-0.21913955,-0.07150305,0.36123744,0.12301784,0.25000164,-0.042372607,0.005483283,0.24688014,-0.36494914,-0.12825623,0.18966673,0.18146658,0.04273815,-0.04002902,-0.07507293,-0.12044675,0.60014707,0.16141768,-0.066595726,-0.014902031,0.21111768,-0.32793447,-0.23579878,0.39573112,0.021098342,0.019840976,-0.46225512,0.49186915,0.2596776,0.1640632,0.018019576,-0.16908915,0.0145965535,-0.2939063,0.28358936,0.24456806,0.0042296913,0.32774788,0.048903525,0.25774392,-0.38117138,0.72451556,0.29352096,0.3194883,0.28641772,-0.09496993,-0.62738436,-0.09621164,-0.0205385,-0.10924208,0.07082,-0.014129146,0.2703941,-0.08999226,-0.26234826,0.033010017,0.28939125,-0.13277878,-0.2753944,-0.122248575,0.21856709,-0.11796274,0.22488038,0.05225374,-0.032698557,-0.100458905,0.093282975,0.0719359,-0.03789336,-0.0621817,0.113895446,0.06717456,0.29653907,-0.11352314,-0.21217187,0.046817243,-0.07790016,-0.09922737,-0.32687235,-0.038534034,-0.4614915,-0.030319607,-0.25857547,0.19522674,0.22980727,0.0547934,-0.011696796,0.22022082,0.2419144,-0.09724664,-0.4624334,-0.0010720723,0.3809958,-0.21373019,0.09503356,0.354035,-0.091600284,0.33053038,-0.30218303,-0.17326929,0.47455585,-0.39449075,0.30479366,0.05413762,-0.24879123,-0.09055014,-0.008663619,0.17590582,0.07616515,-0.22537658,-0.039565828,-0.50726956,-0.13029538,-0.09183241,-0.14811635,0.2597632,0.057258848,0.2456576,-0.16674092,-0.20769869,0.044031013,0.50019443,0.24134918,-0.24180266,-0.11215673,0.31038252,0.20350583,0.15598921,-0.13932465,-0.11475209,0.142763,-0.11790951,0.33842608,-0.482273,-0.29486755,-0.041561786,0.032446258,0.052744143,-0.09761902,-0.03632328,-0.27435285,0.12677434,0.13403133,-0.15913552,0.24440703,-0.18103297,-0.0118241655,-0.19758363,-0.23936091,0.1052879,-0.33396894,0.064111546,0.07144174,-0.080868244,-0.01254926,0.14644529,0.50463897,0.38496512,0.19135553,-0.45818797,0.16551514,-0.22911473,-0.052988414,-0.56122065,0.12736507,0.10701198,-0.14140353,-0.27166924,-0.08851182,0.4089242,0.1556836,0.07796105,0.29797298,-0.29369652,-0.49124578,0.17372777,0.34308547,0.42290378,0.043979302,0.3003243,-0.09567167,0.14731342,-0.1460021,0.15822648,0.29500192,-0.2751068,0.007795168,0.22329812,0.07610809,-0.009163307,0.22410779,-0.06651531,-0.058666896,0.13140638,-0.41356015,0.060433634,0.05990177,-0.0011034502,-0.22333167,0.4895574,-0.15260729,-0.3491932,0.7448421,0.337642,0.12925687,0.073825054,-0.3469275,-0.10478051,-0.382176,-0.27069706,-0.08267963,0.5739246,-0.1737896,-0.150978,0.10436933,-0.19727145,-0.069181964,0.21330318,0.022418087,0.17835294,-0.2432581,0.2251439,0.24576019,-0.11291753,-0.3175366,-0.020451644,-0.1255254,0.40443212,0.2158851,-0.051253293,0.0730452,0.22710094,-0.14517905,-0.17992909,0.18730797,-0.10118059,0.31477877,0.047801193,0.0073021846,-0.054614753,0.23518127,-0.17278193,0.037133753,0.17118473,-0.15381224,-0.22307482,0.010681779,0.30797237,0.08491038,-0.2152606,0.0406651,-0.09188719,0.026447738,-0.15061289,0.58997506,-0.17752172,-0.053058166,0.23702924,-0.43452346,0.12880902,0.2816423,-0.016684461,0.25454035,-0.38305926,-0.34604487,0.17154346,0.19138715,0.37748644,0.06930724,0.04471559,-0.13227725,0.086536355,0.08378653,0.09267782,0.2648576,0.15320204,0.009520581,-0.2647513,-0.2693656,0.047625758,0.3360782,0.1966946,0.019782757,-0.13104099,0.09835026,-0.18274057,0.27430084,-0.27210823,0.013369518,0.3370258,-0.15760438,0.18168654,0.004159911,-0.31473193,-0.23587622,-0.07748362,-0.3800685,0.32640645,0.21874629,-0.059727516,0.094683565,0.0666877,-0.32596955,-0.25398952,-0.22114885,-0.06443663,-0.08336088,0.034480784,-0.03688105,0.085091144,-0.3258908,-0.2137182,-0.011022725,0.11635286,0.55780333,0.07207488,0.17450225,0.046868168,0.01872628,0.24012166,-0.29485232,0.10239759,-0.06257653,0.12500864,0.3067425,-0.38380617,-0.17206861,0.34529123,-0.27759004,0.34261942,-0.19565955,0.08711849,0.0023790672,0.15894629,0.259075,-0.098764494,-0.3538207,-0.16618139,-0.43908656,0.29583955,0.0067503676,0.034783337,0.013042371,0.038353387,0.0897196,0.029333176,-0.24944071,0.0858776,0.07927911,0.6004424,0.23986688,0.25712332,-0.12780079,0.020468447,0.15277287,0.36547408,0.40120566,0.10402862,-0.17037366,0.120654084,0.10991371,0.4789822,0.03195675,0.031447586,0.32215768,0.19503568,-0.03759939,-0.10880389,-0.018514734,0.5482069,0.33883268,0.14581159,-0.21789482,-0.2164462,0.31810597,0.07492574,0.13515863,0.041431535,-0.3127062,-0.016734496,0.53925097,0.272336,0.07943102,-0.53967035,-0.042031314,0.06334713,-0.31496578,0.2594547,-0.008524732,-0.33448002,-0.33483374,0.0668241,0.2639108,0.38756225,-0.08113148,-0.36188158,0.33290666,-0.07907218,-0.022009814,-0.1646952,-0.4025371,-0.12293054,-0.21441902,0.22326511,-0.36641708,-0.054403976,0.10403795,-0.12565586,0.3084765,-0.21154594,0.3408541,0.2364354,0.28374094,0.20238657,0.30337808,-0.1422206,0.090825886,-0.037026756,0.022671465,0.086018376,-0.03956011,0.19640207,0.08121447,0.053127494,-0.25676823,0.023342954,0.12426841,-0.30702597,0.08537273,0.3000084,-0.28313687,-0.12731442,-0.3955754,-0.44159207,-0.41024682,0.37154317,0.044243965,0.30884877,-0.3813204,-0.20186311,-0.00993473,-0.009734106,-0.04679347,-0.12170578,0.10433874,0.15411411,-0.009808133,0.19654685,-0.4033014,0.38468632,-0.4087903,-0.16844063,-0.13391916,0.064526655,0.57936347,0.3836188,-0.51432884,0.05990875,0.3227044,0.20710285,0.113698326,0.23213176,-0.31734163,0.1423077,0.19852047,0.050374933,-0.13960971,0.22915928,-0.0021712047,0.20347169,-0.01190561,0.013953675,0.24548857,-0.42364162,0.27444318,-0.025956685,-0.15907514,0.37630102,0.3945242,-0.1086311,-0.4196702,-0.08556485,-0.42072943,-0.2880705,-0.25407112,0.36604923,0.33951572,0.11025706,0.17062818,-0.2858503,0.12427429,-0.061642945,0.015753679,0.31808382,0.31193697,0.16014084,-0.17776893,-0.049790215,-0.123668835,0.297505,-0.2586176,-0.15548643,0.018322894,0.003979062,0.015494491,-0.13950524,-0.07837621,0.11117071,0.2640352,0.42277992,0.4531523,0.061242506,-0.6085883,0.27984855,-0.36060917,0.11226944,-0.09407895,0.19744082,0.12121979,0.4101372,-0.64405936,-0.08150075,-0.043297894,0.03819489,-0.18466693,0.009700446,-0.24702348,0.050432235,0.023451217,-0.22149292,0.16720891,-0.009725543,0.12751253,-0.04039909,-0.29336828,-0.25536638,0.11610362,0.27253404,-0.08175732,0.36591846,-0.055640046,-0.078022316,0.39105073,-0.2371157,-0.38905096,0.2584551,0.048864394,0.096673585,0.15967329,0.43711534,0.115015954,0.5433509,0.114355564,-0.048814885,-0.011022153,0.017272059,0.141738,-0.08621267,0.0022236367,-0.114669465,-0.1531915,-0.257838,-0.5382492,0.12719761,-0.03710596,-0.061436232,0.25074056,-0.24939129,-0.06892417,0.19788778,0.0981808,-0.00063042407,0.08628808,0.06906125,0.03688662,-0.6347363,0.20711023,0.2565267,0.37965816,-0.05782917,-0.23163497,0.38514417,0.024802897,-0.0031332446,0.31839514,0.29293305,0.18661226,-0.15533657,-0.15219642,-0.09079155,0.17361666,0.022381142,0.14749368,-0.14417644,0.33778998,0.11800655,0.23612213,-0.13894364,-0.30298352,-0.07609163,0.13084346,-0.24736044,0.16491258,0.17427245,0.2050471,0.051232237,-0.062715076,0.049380507,-0.26175985,-0.19323733,-0.038491555,0.3311732,-0.19728549,0.16325569,-0.38788146,0.06478192,-0.061966244,0.19970688,-0.11079914,-0.20433743,0.0063921846,0.06165394,0.16353586,-0.28852397,-0.07326123,0.42527437,0.19327433,0.12549266,0.12941869,-0.07065104,0.12898888,0.3288666,-0.11978797,-0.24412923,-0.25950414,0.11447465,-0.028260944,-0.2801959,-0.21036538,0.17356557,0.10412935,0.10905752,-0.011365394,-0.17829387,-0.17581128,0.20013896,0.28710765,0.09546393,-0.22298406,0.112936035,0.03212387,-0.2079247,0.121974915,0.019098321,0.16052242,-0.06929977,0.3064199,-0.30812916,0.0023997922,0.13233685,-0.20239496,0.025747592,-0.25980657,-0.2229755,0.04965882,0.16590767,0.03642794,-0.1635215,-0.029153187,0.09005187,0.1664642,-0.21561986,-0.19029656,0.09598101,0.122791074,-0.1768747,0.28699464,0.013326297,-0.1471631,0.010175063,-0.25317544,0.14953648,-0.059291124,0.17841558,-0.122925475,-0.1591568,-0.05900844,0.121397346,-0.15733561,0.22771102,0.01310379,0.35482433,-0.075860165,0.5535372,0.24316846,0.020198055,0.07467169,-0.27562895,0.21388982,-0.01224067,0.026663875,0.02900531,0.051031787,-0.6055605,-0.26018107,0.09706965,-0.0027065473,0.05163525,0.08694624,0.38624376,0.3908535,0.0100185545,-0.11310769,0.12899952,0.08125241,0.09299443,0.024762806,0.10810977,0.12656838,0.13010857,-0.44172096,0.2868466,0.02323906,-0.1981605,-0.3341517,-0.15454526,-0.006920797,-0.08814925,-0.17528582,0.027281987,-0.17883365,0.09492435,-0.09203424,-0.034035012,0.26324305,-0.44854826,0.20778109,-0.19583936,0.02310403,0.2685462,-0.105235554,0.2150428,0.407851,-0.16657478,-0.12972356,0.001860045,0.15537646,0.14075418,0.45261297,0.042983495,-0.26793897,-0.0787132,0.1516727,-0.024142407,-0.3674543,0.24997264,0.0029136438,-0.032798626,0.11026443,-0.09988624,-0.2768808,0.12594523,0.21197812,-0.041362487,-0.066360794,-0.089330316,-0.08895878,-0.05698297,-0.06974602,-0.033630162,-0.15755424,-0.038585752,-0.42658952,-0.23683089,-0.05250309,-0.07515913,-0.062844105,-0.06155032,0.054558918,-0.009363993,-0.03384091,-0.05455985,0.14365387,0.09314769,0.04916636,0.1554564,0.52916414,0.20003211,-0.11366448,0.20252448,-0.05939018,0.050928123,-0.047413517,-0.0121408915,-0.014551494,0.4152544,0.07304456,-0.1613935,-0.021546112,-0.374314,-0.2203852,-0.13774118,0.40534022,0.1363756,0.46067786,0.40702447,0.035427697,0.316816,0.009581036,-0.108508885,0.03885475,-0.007688465,0.15766822,-0.37316278,-0.12349529,0.08957866,-0.1463978,0.30539688,-0.116451025,-0.0277618,0.26466218,-0.01055101,-0.12595952,-0.07774711,0.03666527,0.29623136,0.10794417,-0.0191158,0.17298605,0.018054677,-0.10299394,0.08535712,0.15743016,-0.17775935,0.6127215,-0.04944989,0.21749313,0.07805811,0.08989442,-0.070693925,-0.025604106,0.026695676,-0.1314816,0.1482444,0.02941764,-0.3103112,0.1967102,0.0009763053,0.18535715,0.19183101,0.104944535,-0.02538777,-0.27335966,-0.20446756,0.14302859,0.042935636,0.10621911,-0.10809718,0.15042187,-0.09327624,0.07641863,-0.16940929,0.06483982,0.013184208,-0.123280294,-0.3322796,-0.11630346,0.25296026,0.007324663,0.21365201,-0.18096842,-0.15817228,0.15366144,0.093567535,-0.0619566,-0.15791193,-0.04620387,0.1260074,-0.010320965,-0.19905655,0.25320616,0.2962939,-0.11947658,-0.11717874,0.21973863,0.15993963,0.02203366,-0.1266037,0.23437661,-0.059858534,-0.20533527,0.095654346,0.076369904,0.01882522,-0.0020396283,-0.03542672,0.11649588,0.124076456,0.024776774,0.21747705,0.34559476,0.40410644,0.24485132,-0.1556299,0.30435586,0.18484277,-0.009455595,-0.044319026,0.07134494,-0.045760848,-0.3718472,-0.38088357,0.14788054,0.44903785,-0.02277965,0.24571301,0.06700343,-0.07829306,0.047208883,0.0509674,-0.12307656,-0.28866574,0.048027664,-0.37803563,-0.33218884,-0.029947389,0.0041170525,0.16359825,-0.02165011,-0.00035837875,-0.17196131,0.049242727,-0.15084884,0.35158673,0.4159779,0.0020645896,0.125279,0.09789321,-0.33405316,-0.11186139,-0.12868156,0.13010477,-0.07291203,-0.0020010893,0.0540095,0.20121002,-0.08816549,0.07915316,0.039133184,0.22833574,-0.07087137,0.16988653,-0.08916473,-0.31748134,0.35053372,-0.101832956,-0.22174811,0.17540574,-0.015456343,0.23311482,0.03362528,0.06483796,-0.09618278,0.054262225,-0.035673253,0.38440067,0.41707906,0.018685779,-0.067301825,0.028088607,-0.09400646,0.15409356,-0.19447803,0.16576153,0.19839308,0.16986527,0.34727123,0.15771012,0.055786405,-0.08287468,-0.1143243,0.0019994748,0.1869684,-0.09661947,-0.009068663,-0.16474779,0.31285083,-0.021799998,-0.21821542,0.027827276,-0.07192478,0.44199362,-0.32070428,-0.26351961,-0.14337176,-0.04235117,-0.042932358,0.31895187,0.06015927,-0.14181933,-0.22238281,-0.026833761,-0.053317416,0.28407225,-0.16416217,-0.09415844,-0.19195937,-0.25689533,0.23644145,-0.076138645,-0.0043623154,0.109628335,-0.10490687,-0.02746691,0.146011,0.069966085,-0.037092097,0.20285045,0.41478994,0.0037375176,0.13200772,-0.23935086,-0.07134456,-0.016730562,0.08509168,-0.18342559,-0.15818284,0.19797096,0.0062912335,0.22082724,0.19558682,-0.14462018,0.022706877,-0.06149501,0.047452033,0.054239575,0.040382806,0.020334855,0.054589745,0.19946675,0.3523388,0.11396285,0.030335918,0.17811047,0.07701528,0.07008938,0.4220041,0.14999644,-0.08340374,0.3419139,-0.077874124,-0.027198568,0.0971764,-0.019427875,0.26392648,0.06121761,-0.27031162,0.18184064,0.3065004,0.05769934,0.12787728,0.24491164,0.015719738,-0.0061672973,0.12610395,-0.16939875,0.104027316,-0.089565285,0.3186981,-0.20175332,-0.08448586,0.0303948,-0.03758289,-0.2716104,-0.2314762,0.20528911,-0.17533568,-0.118445545,-0.14645524,0.0040590144,-0.20911221,-0.12372786,0.024732718,0.14260988,0.018159034,-0.22822425,-0.41202942,0.34829015,0.20860185,-0.091360435,0.04669205,0.62569505,-0.060312342,0.055555392,0.29957068,0.02520649,0.068149336,0.19227941,-0.23930965,-0.30651668,-0.022904932,0.079464555,0.07012161,-0.075348906,0.06711161,0.8498412,-0.074365444,-0.20796669,-0.4244136,-0.058715336,0.026748346,0.13633306,-0.12120491,0.16863893,-0.23646991,-0.39464006,0.098336376,0.032815084,0.35411713,-0.0836693,-0.12092132,0.064425536,0.4582788,0.099508286,0.1166009,0.3481297,-0.0667692,-0.08292633,0.30031353,-0.08752469,-0.029909736,-0.4319924,0.32050526,-0.21657278,-0.054548807,0.25001663,-0.28608182,0.5012891,0.31510237,0.06659035,0.001561555,0.115114056,0.041706275,-0.035174806,0.32638472,0.2455461,0.28118485,-0.4234614,0.06616229,0.039442983,0.14748667,0.17258099,0.174137,-0.47816575,-0.15063658,0.42064813,0.12916727,-0.003124665,-0.20109487,-0.2114649,0.15247998,0.122102626,-0.23095766,-0.51987,-0.044881355,0.3504118,-0.10098874,-0.2147726,0.23013477,0.011622835,-0.056190237,0.27928463,0.20453677,0.29254732,0.1999087,-0.061480235,0.12831089,-0.13349469,0.29335952,-0.003076874,-0.0544135,0.017895404,0.028636785,0.062826775,0.21462306,-0.50280607,0.05545592,0.30480874,-0.32828927,0.38937697,0.13156715,-0.11558685,0.10784899,-0.36120477,-0.32973754,-0.08671249,-0.55818075,0.14994413,-0.53136224,0.19426201,0.08272623,-0.1416258,0.2583211,0.33969894,-0.09229083,-0.1314456,0.09342774,0.22001682,0.052123196,-0.21907339,-0.22367781,-0.36400744,-0.05159836,-0.11313098,-0.13863954,-0.043252822,-0.14726676,-0.509221,0.49537423,0.21367848,0.015328367,0.3187895,0.20119344,-0.1335445,-0.050441407,-0.18913804,0.13000952,0.07357302,0.09338831,-0.0750474,-0.10551232,0.13468054,0.30675194,0.15215257,-0.08855671,-0.06825635,0.045737304,-0.33419952,0.25599068,0.10664443,-0.045226526,0.1017437,0.18795511,-0.37058714,-0.07257869,-0.16619621,-0.10008365,0.060324322,0.06565165,-0.23186877,0.33659947,0.019992128,-0.31916294,0.4481583,0.104586475,-0.09859295,0.32708126,-0.023515549,0.013505388,0.22363512,-0.36101013,0.16230722,0.04168511,0.1571252,0.32654172,-0.06826637,-0.01876612,0.112514734,0.066923834,0.17635962,0.31345722,0.18997706,-0.15334874,0.2377926,0.4123263,0.18584393,0.12493584,-0.09313802,0.07755521,-0.16425283,0.1972295,0.15655398,-0.23388848,0.21060176,-0.3381235,0.19161378,-0.17451352,-0.06983119,0.06689322,-0.068453535,0.15446396,-0.22025245,-0.012092605,0.10045448,-0.12926196,-0.27024588,0.029156815,0.16710359,0.008052648,0.12796757,-0.09635128,0.09019191,0.10373058,0.039438423,0.2000143,0.52905715,0.19735932,0.37515533,0.2503441,-0.3776999,0.20447755,0.050326705,-0.34324172,0.092886396,0.40373313,0.00061516487,0.064979635,0.1848631,-0.24609753,0.048530497,0.22979912,-0.2631967,-0.42537883,-0.19656119,-0.45716298,-0.42997888,-0.023368197,-0.0281568,0.42044067,0.23975994,-0.08804349,0.23636706,0.1299135,-0.20825924,-0.022774912,0.17688373,-0.09815371,-0.470146,0.057194863,0.2516859,0.17266746,-0.19587058,-0.036253784,0.32548612,0.040246222,0.23006459,0.39844334,-0.03137083,0.09288083,0.21195523,0.20190848,-0.30242887,-0.006429911,-0.17818996,0.19084735,0.114004456,0.019891549,-0.2859552,0.08231009,-0.1622602,0.13102396,0.42955893,-0.28784952,0.4399781,0.07527449,-0.063704245,0.14733474,0.25195715,-0.4864991,-0.17092945,-0.11773835,-0.45158383,0.33692878,-0.46071598,-0.119782425,0.42376348,-0.10134992,0.027105773,-0.023234077,0.3109575,-0.16493665,0.40765536,-0.18975435,-0.13764298,-0.2996248,-0.12210763,0.084824026,-0.26055503,0.104559034,-0.39481753,-0.05864602,-0.37549302,-0.022391913,-0.21435376,-0.10762406,-0.09548819,-0.006154875,0.18539895,-0.10907508,0.028137758,0.29706654,-0.3441596,-0.10523178,-0.43575758,-0.38067845,-0.29146388,0.31759802,-0.0010841836,0.24949756,0.19496807,-0.00095518096,-0.14732067,-0.26980323,0.25405055,0.26158613,0.16487597,-0.09286187,0.19983257,-0.17296351,-0.11246434,0.0060729226,-0.29145232,0.22019073,0.3886816,0.18350334,-0.27589625,0.33255056,-0.053863816,-0.45906582,0.31411496,0.107468285,0.20683332,0.5355305,-0.12759742,0.1011277,-0.27009845,-0.05037547,0.00017901654,0.44287518,0.07243943,-0.11461821,0.20725791,-0.17160653,0.19568251,0.110624544,-0.40732718,0.20320584,-0.069582835,0.05167675,0.027008427,0.01766177,-0.16804318,-0.110561386,-0.12440768,-0.21582568,0.0045123775,0.20190357,0.06332995,-0.42371076,0.123139836,0.037403114,-0.31864792,0.30849752,0.1802711,-0.20116086,-0.31786054,-0.04491553,-0.3832427,0.13705784,0.27126774,0.019875959,0.011462708,-0.19443415,-0.47597104,0.46792206,0.30966976,-0.32355812,0.24882868,0.093661636,-0.2647072,-0.095330216,-0.0072192284,-0.12209019,-0.49165723,-0.01720115,0.00072130794,0.08362129,0.13447466,0.25946647,0.114055865,-0.27412325,0.132037,0.18423638,0.0045755547,-0.0846286,-0.10613608,-0.36390203,-0.011224088,-0.04490785,-0.3241653,-0.07167595,0.084133364,-0.1802566,0.0061503993,0.13963467,-0.36603796,0.08475257,0.23917945,0.031641696,0.31193337,0.26251516,-0.23279394,-0.020941632,-0.068024956,-0.03231142,0.23062322,-0.043225057,-0.37771004,-0.08831067,-0.04726494,0.21311688,0.085343696,-0.16139026,0.14728549,-0.07842673,0.11893404,0.12164447,0.14789315,-0.2469623,0.2964729,-0.081117555,-0.038099654,-0.14892815,-0.2813027,-0.12538663,0.17435648,-0.124368794,-0.06521904,0.33050337,-0.13975085,-0.2952296,0.37956512,0.20053096,0.1926135,0.22460368,-0.14404143,-0.019035267,-0.1931603,-0.10185306,-0.021022618,0.06710247,-0.1417104,0.100458175,0.08766758,0.03906603,0.4112881,0.044778183,0.15700899,-0.111414,-0.040305328,-0.03286917,0.0408441,-0.016734399,0.14103226,0.10741621,-0.18045832,-0.014709896,0.28559217,0.030806504,-0.21095726,-0.4072614,0.3915565,-0.08189814,0.5187692,0.09832263,-0.21983163,0.4120429,-0.044301584,-0.03641905,-0.28548503,-0.027892245,-0.0026169214,-0.5046257,-0.15555471,-0.075570434,-0.014535068,-0.57856554,0.083180405,-0.19476244,0.16560079,-0.032988843,-0.10673327,-0.5076394,-0.34090257,-0.088159114,-0.31571314,-0.20917884,-0.5268003,-0.51347804,0.30730286,0.043335743,0.4400166,0.18485603,0.3494024,0.13153736,-0.23058495,0.14195198,0.51443523,0.07674061,-0.3839169,-0.13579038,0.16033402,-0.08944043,0.01794004,-0.10097428,-0.34473452,0.12506822,0.55082,-0.1215205,-0.025694856,-0.644487,-0.10415341,-0.08945045,-0.014293226,-0.37696686,-0.5436663,0.16060352,-0.5344266,0.07029668,0.08599271,0.25595945,0.44080886,-0.000049974038,0.32857114,-0.010234328,0.3462345,-0.60408866,-0.22590095,-0.27584907,-0.24446741,0.18106559,-0.24651472,0.020214004,-0.37977824,-0.09906861,0.19111499,-0.0064736693,-0.5161302,-0.26707485,0.51346606,0.14231795,0.11631258,0.00043930206,0.23114643,0.14247607,0.010671216,0.13092479,0.05835073,0.12714504,-0.3629464,0.23363838,-0.57009804,-0.44605893,-0.03901766,0.10196331,-0.017059369,0.081459776,0.030599985,-0.2588395,-0.27974617,0.13566461,-0.08664046,-0.53399223,-0.22896454,-0.011328271,0.0041121696,-0.40309832,-0.37698358,-0.28133595,-0.15712675,0.5154381,-0.23670581,0.18054107,0.029997936,0.22463803,0.3075004,0.18849514,0.1885717,0.5372628,-0.4886037,0.26776043,-0.2964371,0.14435652,-0.091846,-0.010497534,0.26039454,0.038631383,-0.002848332,0.3918987,-0.01672375,-0.51905155,0.006547745,0.22674109,-0.43869102,0.047022104,-0.11996005,0.21030793,-0.24672364,0.22131512,-0.35347164,0.06609131,0.18314435,-0.053720813,0.09574893,0.1513209,0.065252885,0.012240976,0.34591433,-0.31302705,0.039763514,0.274513,-0.0473726,-0.046216562,-0.4072124,0.16041172,0.15856376,-0.01924118,0.5188475,0.06894831,0.16447367,-0.13740268,0.29730982,-0.39770547,0.35458598,0.23981379,-0.020410808,0.037114225,-0.21732163,0.23758131,-0.28841496,-0.14385417,-0.15541707,-0.21797326,-0.00064908987,0.107400246,-0.2752125,0.2925747,0.06846906,-0.015157766,0.041422743,0.3486948,0.34641567,0.20713991,-0.3812481,-0.17354444,-0.60270345,-0.4204252,-0.054839384,0.15622088,0.45059398,0.34665352,-0.24140091,0.5893872,0.22139491,-0.34125367,0.46980193,0.21114877,-0.06399434,0.45790473,-0.0040740687,0.13826898,0.42386186,0.21274546,0.23974358,-0.19021405,-0.2945983,0.44160092,0.46811268,-0.09330513,0.27136195,-0.12266019,-0.12016978,-0.41340062,0.074439146,-0.23126754,-0.03104385,-0.28340942,-0.3642336,-0.08632805,-0.27412808,-0.13673852,0.34554437,-0.01280357,-0.11875174,0.24334347,0.019504419,-0.31736094,0.3840218,0.0093222065,-0.26175326,-0.083104864,-0.14305535,0.007532833,-0.25960112,-0.1631464,-0.48923963,-0.36638355,-0.2589101,0.15335275,0.12723613,-0.05335509,0.41533947,0.0765976,0.2513326,-0.044507496,0.16686553,-0.24039382,0.029195776,0.276913,0.0010346854,0.1649815,-0.38671267,0.3734788,0.2620205,-0.13173068,0.06560933,0.81791544,0.021048883,-0.6152972,0.42547095,0.12667005,-0.16118555,0.21684328,0.16665278,-0.16642539,-0.115906075,-0.29577723,-0.046681527,0.087600425,0.17016818,-0.13001679,0.1344618,-0.032266144,0.071029924,0.20223588,-0.10192748],"dims":[64,32]},{"bias":[0.27335164,0.22976433,0.010865447,0.28675795,0.18569551,0.17333174,0.11493979,0.42225698,0.20605934,0.12418191,0.16975556,0.12704726,0.47987878,0.27259475,0.19111629,0.29388767,0.23213425,0.19015189,0.14562891,0.3277043,0.29075393,0.1851215,0.24067138,0.36111215,0.33508652,0.15398411,0.08558994,0.16484037,0.011265252,0.13657069,0.13544537,0.10634188],"weights":[-0.113625936,-0.39654043,0.0063600265,-0.4190771,0.42156205,0.15271237,-0.19200678,-0.079942256,0.14718239,0.10892499,0.16230997,-0.023032326,0.12982081,-0.61531883,0.3849129,-0.5902494,-0.48225805,0.31482372,-0.29738814,-0.059715007,0.17411223,-0.09863858,0.051634744,-0.12074339,0.47686857,0.31589362,-0.2752723,0.039316975,0.021995831,0.2986508,0.20213112,-0.08472199,0.0059394375,0.6607434,-0.028769841,0.50120115,-0.25151008,0.3228004,-0.5027899,-0.10172841,0.16297801,-0.457959,0.29226115,0.041004516,-0.21774082,0.06177089,0.009064103,0.020753501,0.57350403,-0.26659805,0.11047845,-0.6037318,-0.20326176,0.009473648,0.16351338,-0.45106673,-0.27241,0.17103197,0.36008224,-0.35505632,0.3699859,0.02815118,0.10084661,-0.023565013,0.16686365,-0.27031344,-0.3636117,-0.81886965,0.34092143,0.2786698,0.6189114,0.16380128,0.07468476,0.36992037,0.094833165,-0.14364687,0.66955733,-0.12911397,0.34393287,-0.8273358,-0.44095674,0.23777105,-0.4473187,0.46900013,0.37138647,-0.2320617,0.57788664,0.59829414,0.20964016,0.23566896,-0.30292282,0.06389127,-0.42870414,0.014382016,-0.48853365,-0.025522288,-0.063143454,-0.60892713,-0.0727788,-0.59496903,0.16882929,-0.22923265,-0.14235052,0.56481546,-0.07245825,-0.14715993,0.038888067,-0.01497434,0.27063116,-0.5622332,0.0093874335,-0.42507416,-0.76390314,0.3255251,0.04439307,0.3342209,0.1579273,0.33920506,0.337585,0.49485916,-0.019140046,-0.08307867,0.35450384,0.36904615,-0.29926184,0.34414017,0.2251999,-0.04217889,-0.059503358,0.43499985,-0.13142478,0.3036636,0.17762804,0.4197654,0.24089444,-0.43754834,0.25133854,-0.21154264,0.23535922,0.32114792,-0.76415634,0.5221635,0.3733702,0.08452008,0.18272848,-0.06052296,0.0055469363,-0.21190518,-0.69088024,0.362343,-0.028422788,-0.40801004,-0.44103572,0.13962997,0.1867998,-0.12932406,0.044934455,-0.1430424,0.16576536,0.33737826,-0.11374565,-0.8509867,0.06986075,-0.41604868,0.18883361,0.090276994,0.30832627,0.011648911,0.2127314,0.057616495,0.10203956,-0.37445855,-0.0790506,-0.7102921,0.17481221,-0.3747888,-0.5345659,0.37737826,-0.17800972,0.53817433,0.26152956,-0.39200547,0.10885521,0.34322563,-0.10524126,-0.04308619,-0.3467677,-0.127147,-0.4500292,0.41974372,-0.10066176,-0.36034593,0.24633121,0.32233807,0.30170435,0.42499924,-0.120473616,0.057924803,0.05219434,-0.8549295,-0.026152404,0.123174526,-0.20246726,0.11681448,-0.1343399,0.27393565,-0.24741136,0.46051207,0.68421257,-0.58141774,0.10344335,-0.78160024,-0.5383421,0.4496389,-0.4751099,-0.6969861,0.60316515,-0.36550233,-0.14057091,-0.4403668,0.2837895,-0.46979013,0.27629706,0.1031533,0.038375113,-0.26782465,-0.54926324,0.010810126,-0.05294419,0.017427454,0.5123079,0.40850064,-0.055285435,0.48565826,-0.21001004,-0.45320016,0.56631815,-0.552846,0.15101917,-0.48480472,-0.29148197,0.09226109,-0.20683779,0.49301007,0.49578497,-0.028937178,0.3511627,0.59308,0.4088571,-0.021652767,-0.26076066,0.44145623,-0.42276245,0.32505628,-0.2473469,-0.506274,-0.17156152,0.51519775,0.123870194,0.58770645,-0.2875953,0.06521482,-0.70905215,-0.53055173,-0.097771354,-0.3637279,0.034995414,0.1394708,-0.4413851,0.34187666,-0.21798906,0.3352054,0.22318392,0.13231513,0.1565064,-0.40688494,-0.9267711,0.088992715,0.2166821,-0.8087971,-0.7703235,-0.4059874,-0.08456067,-0.101441525,0.016583834,-0.2100395,-0.1478554,0.09183066,-0.18912506,-0.44777635,0.2558871,-0.72481126,0.42727542,0.38221353,-0.09567491,-0.03031215,0.30204812,0.24346922,0.2114143,-0.09225344,-0.19251293,-0.18374974,-0.07152829,-0.59979546,-0.0763245,0.34825084,0.022825377,-0.3389752,-0.08478303,-0.100243695,0.2689783,0.047484748,0.08547199,-0.12718871,-0.021414042,0.4031728,0.021693893,0.06282249,0.121200785,-0.13548508,-0.002574709,-0.2708013,-0.038501237,-0.41856176,0.25905922,-0.029662978,0.45419544,0.4963757,0.33465642,0.20786496,0.22529662,-0.20362912,0.31375822,-0.45826116,-0.18946181,-0.33992532,-0.49648476,0.18584104,0.09434608,0.6365353,0.11730154,0.10170939,-0.09993183,0.28355706,0.2185812,0.043680202,-0.26131275,0.42599925,-0.19326606,0.12848116,-0.20430182,0.2502041,-0.1381581,-0.6415225,-0.27835092,-0.76999754,0.02936187,-0.17244612,0.1340653,0.3403491,0.042757574,-0.08820232,-0.08156555,-0.0890652,0.627339,-0.46837085,-0.20783116,-0.40061274,-0.54509443,0.14745581,-0.22156267,0.66599584,0.35059017,-0.10840497,0.30833566,0.20653747,-0.2314302,-0.3018684,0.016625829,-0.06245548,0.17838736,-0.031959884,-0.35139412,-0.4189599,0.0070919497,-0.12794021,0.16712059,0.18352851,0.15748246,0.49469656,0.18998778,0.09989246,-0.24038039,0.4048145,0.42361182,0.038252495,-0.3329014,0.4118138,0.19006725,0.4652373,0.24356948,0.1657319,0.16778253,-0.31352156,-0.41954002,0.28884307,-0.15336187,-0.66783375,-0.27523297,0.36602184,0.4344961,0.017653529,0.28221512,0.2530317,0.2759966,0.006424264,-0.27205434,0.3518359,0.3373324,-0.30158672,0.19887803,0.47005385,-0.099420786,-0.7474006,0.016592931,0.0020498969,0.4306745,0.1564451,0.022372058,0.07372899,0.12149339,-0.024650961,0.35570505,0.011540179,0.23591161,-0.40374655,-0.5207785,-0.09853357,0.040939685,-0.51201236,-0.3855368,0.40279976,0.37886572,-0.1455325,0.43806916,0.31935057,0.17920724,0.033330947,0.6453688,0.43055084,0.4618286,0.54903334,0.21690992,0.6617388,-0.186329,0.35853666,0.15500605,-0.4433243,0.09531426,0.2562765,0.5345706,0.4571992,0.7895751,0.66632867,0.7912919,-0.19499952,0.17118324,-0.014918727,0.28087664,0.44053453,0.19425428,0.24407792,0.43469125,0.26873899,0.42154163,-0.23854202,0.30018756,0.3723241,0.2615997,0.61313957,0.21926448,-0.10518461,-0.074848115,-0.64383423,0.05873955,0.42537218,0.18208732,-0.04615873,0.21765816,0.17743582,-0.06811414,0.2707144,0.55161196,-0.32493764,0.13212506,-0.30194357,-0.43535665,0.3917424,0.14026882,-0.025218941,0.41190022,-0.004425135,0.23973976,0.3986879,0.110768646,0.33353707,0.34453475,0.32257363,0.38142592,0.21762423,0.33197784,0.3577779,-0.09046125,0.31896526,0.2199362,0.15277563,-0.17020398,0.15350902,-0.12150298,-0.7274109,0.28720102,-0.18546745,0.17772436,-0.12089952,-0.46865225,0.51390094,0.034845762,0.38899988,0.51667804,0.27136895,0.26416948,-0.31334898,-0.3010742,0.34909862,0.16159543,-0.23549666,-0.7936267,0.23468336,-0.095693156,0.21620359,0.04727518,-0.13179162,0.4091136,0.3045239,-0.82097304,0.3179875,0.52723086,0.61779517,-0.579713,0.0016293756,-0.61321527,-0.12782991,-0.49740335,-0.36860558,0.24038522,0.1885006,-0.4379595,0.3018174,-0.5509951,0.2947882,0.6702453,-0.5383008,-0.05628738,-0.7585818,-0.60301256,0.33846882,-0.20086652,-0.02281302,-0.92526853,-0.45595276,0.22525287,-0.15379572,0.5172943,-0.03726191,0.044999547,0.27191636,0.3005753,0.30919257,0.23094381,0.6506832,-0.08688399,0.073757224,0.22658543,-0.7651316,-0.11594729,0.15714197,0.2688602,-0.1422888,-0.84016323,0.25000757,0.15697868,0.013674725,0.32426614,-0.07973011,0.39385247,-0.5897781,-0.029032012,-0.06473512,-0.025082482,-0.25538194,-0.46165875,-0.16125628,0.115971126,0.1011206,-0.011863216,-0.21100008,0.2851105,0.17262268,-0.1587621,0.06537693,-0.1568023,0.24540497,-0.2550207,0.551005,0.11583229,-0.53037435,0.059291244,0.051307157,0.4009608,0.41971865,-0.6011932,0.41396907,0.4858216,0.5083565,-0.26433617,0.025705015,0.08787423,-0.56098664,-0.70985395,0.07158093,0.14911152,-0.6840189,0.09041891,0.18153058,0.0765686,-0.120124124,0.26929107,-0.30414605,0.36518645,0.22036685,-0.7917351,0.3158882,0.041456893,0.18596128,-0.5147365,-0.25380436,-0.75860286,-0.3396627,-0.32477525,-0.34904033,-0.16184615,0.15402502,-0.7493425,0.10278489,-0.78230685,0.2208,0.25710934,-0.036794603,0.37284172,-0.7658417,-0.3603438,-0.13938123,0.06681269,-0.41811508,-0.837756,-0.72314346,-0.080228716,-0.43997118,0.06049637,-0.42417878,-0.024152199,0.4684641,0.5090575,-0.33923984,-0.5871116,0.24992344,0.12054198,0.016056037,0.29887754,-0.025021413,0.08186851,0.34165984,0.21176079,-0.33878118,0.4399534,-0.22730173,0.4358267,-0.3733584,0.002302237,0.25756857,0.072871916,0.7212999,0.4912994,0.074583225,0.38930023,0.67233145,-0.0025250982,0.43974993,-0.47355753,0.3286581,-0.12966841,0.47568265,-0.2888696,-0.36090967,0.32912394,-0.3178397,-0.0506059,-0.109752335,0.22402014,0.22485782,-0.06469867,-0.061046157,0.3906166,-0.08475127,0.3923972,-0.020063842,0.5447678,0.05918268,-0.14630239,-0.67103714,-0.3182853,0.29625538,-0.35233638,0.41869503,0.35058445,-0.22418976,0.45008725,0.44707114,0.14683034,-0.06013566,-0.002969066,0.13433725,-0.61378324,0.21891214,-0.42054412,-0.3439995,0.5161883,0.17694727,-0.08543669,0.744834,0.38644716,0.3871991,0.25341025,0.5074865,-0.0747139,-0.05259109,0.47195154,0.059527013,0.38307083,0.48463872,0.3377368,0.3124983,0.33939818,0.20210175,0.036137547,0.83860713,0.50149345,0.2577129,0.4206668,0.52695477,0.5164087,0.10555983,0.0071104337,0.36226195,0.14469688,0.2796522,-0.20684427,-0.1235747,0.30927902,0.1597831,-0.03170638,0.14221793,0.18376786,-0.043756254,0.13585688,0.07190978,0.32273963,0.32272467,0.31289953,0.41715115,0.26011503,-0.7086966,-0.26102245,-0.7078045,-0.69964284,0.3000667,0.18077078,0.24056998,0.259939,-0.073483475,0.13295807,0.2996256,0.3868982,0.13386077,0.20245291,0.3056869,0.2741105,-0.03669039,-0.10054013,0.017993774,0.15884781,-0.12117797,-0.15871273,-0.528389,0.27803504,0.1859358,0.064669736,0.34363553,0.16934891,0.2603183,-0.2136806,0.16867907,0.45740685,-0.6777552,0.14644079,-0.039353732,-0.9064676,-0.119545124,-0.07429813,0.27459705,0.2600924,-0.28898066,0.15184632,-0.056530498,0.41607592,0.27323347,-0.10645406,0.23559175,-0.20864163,0.25164822,0.047120553,-0.22178385,0.22944403,-0.11722914,0.36036298,0.19250855,0.039517034,0.51797265,0.10670019,-0.17670201,0.034679122,0.39089558,0.4856831,-0.03873447,0.20855229,0.32792628,0.3003198,0.6331457,0.10010032,-0.09170884,0.25341943,-0.20359746,-0.31871924,0.43517682,0.14023823,-0.6448239,-0.17651933,0.63029635,0.2613623,0.058446847,0.15287682,0.29181236,0.18475333,0.271356,0.31468028,-0.12549058,0.033120446,-0.060612734,0.21029486,0.3408917,-0.19751236,0.15530443,0.1479016,0.30809066,0.18479666,0.15513584,0.056682277,-0.7060942,-0.09003832,-0.2563995,-0.5432056,-0.020035291,-0.13829976,0.2210207,-0.28828225,0.1321312,-0.09211046,0.3887785,0.40607813,0.2864682,-0.21685041,0.35311508,-0.10998839,0.020580282,-0.2140582,-0.058810156,0.20080358,0.33343822,0.3566017,-0.07102812,0.087462045,0.36797503,0.2733804,0.28625038,0.09825886,-0.111265704,0.590852,0.5166025,-0.3300812,0.57000047,0.4792172,0.48450813,0.6525613,-0.22424951,0.03099946,-0.07443454,0.29816666,0.29879126,-0.02886236,0.077005185,-0.5479501,0.15092303,0.30331284,0.29908037,0.06329645,0.39786845,0.16243497,-0.021573942,0.21608552,0.3237419,-0.27170885,0.3742186,-0.08266415,0.3797773,-0.281951,-0.7241327,-0.12597202,-0.23536776,-0.16721465,0.048560012,-0.42284134,0.20260628,0.27176645,-0.10687158,0.23042108,-0.16472407,0.32595745,-0.5700296,-0.76000184,-0.2787622,0.192713,-0.9473591,-0.5750653,-0.13936196,0.0038055242,0.24800311,-0.037959434,0.103371054,0.3363133,0.10799271,0.03715704,-0.6651264,-0.3770032,-0.62776875,0.362007,-0.03855411,-0.18041177,0.26407963,-0.030882917,-0.1187468,0.48204133,-0.06919454,-0.036410157,-0.37407732,0.34162217,-0.49349636,-0.49707666,0.20566596,0.12563062,0.20036858,0.5398796,0.036957666,-0.044626545,0.6353059,0.5885623,0.2268708,-0.26588872,0.2828509,-0.095056236,-0.102995664,-0.07019857,-0.22045156,-0.26078507,-0.13980654,0.031837415,-0.053033054,-0.12992921,0.14469823,-0.13820186,-0.44066796,-0.035501454,0.022746721,0.026692668,0.056408383,-0.81083685,0.16388343,-0.112126246,-0.03179658,0.329384,-0.009173054,0.22487386,-0.5899913,-0.087769225,0.057837564,-0.25527784,-0.23881662,-0.29562378,-0.14968015,0.08221719,-0.15837343,-0.17195995,0.11572987,0.38978186,0.31381658],"dims":[32,32]},{"bias":[0.19996722,0.14561364,0.13968211,0.15368704,0.16497251,-0.017114503,0.13417202,0.14130293,0.12004092,0.16413751,0.11194931,0.41338295,0.14819853,0.14617091,0.13851684,0.14980623,0.14526686,0.102776945,0.20774642,0.19862162,0.25436947,0.14348473,0.29469723,0.10854711,0.1275518,0.16227481,0.035111047,0.15101162,0.119791955,0.1469044,0.19537656,0.13311708],"weights":[0.26234874,-0.076828845,0.085694276,-0.13755614,0.3878565,0.19212331,0.10292847,-0.033343635,0.44719988,-0.28649068,0.13651767,0.6651895,-0.04866907,0.061524834,0.3814405,0.20192239,-0.16549748,0.19792144,0.096494235,0.090637565,0.6223004,-0.046365056,-0.46800202,-0.04773508,0.10461758,0.3582149,0.50660115,0.33479416,0.08264468,0.118614756,0.005184749,0.24394555,-0.22588702,0.51485807,-0.43174574,0.61876786,-0.8783575,0.19616069,-0.6910073,-0.7294364,-0.69097555,0.66506153,0.23209013,-0.8990203,0.70040715,-0.4008498,-0.7919551,0.2365997,0.26472682,0.44553393,-0.7791392,-0.72168845,0.5897012,0.32286036,0.8231246,-0.21869053,0.64664185,0.6563618,-0.6590315,0.16155027,0.46056086,0.5298231,-0.6959813,-0.3821997,-0.33539695,0.45449728,-0.13748859,0.2762321,0.09449562,0.06164554,-0.02903365,0.13442057,0.067370936,0.2685712,-0.08243676,-0.5633243,0.2956919,-0.18982582,-0.35541952,0.47540477,0.112876415,0.047509868,-0.24561785,0.11013136,-0.08116305,0.2500479,-0.11098432,-0.35899243,0.4070252,-0.0016897322,-0.3059024,0.34328383,0.37882817,0.084274895,0.08350909,-0.43632144,-0.92852145,0.7808511,-0.5704678,0.46166313,-1.0815936,0.63807577,-0.48458663,-0.55574316,-0.6023765,0.74279666,0.89912534,-0.907527,0.8726103,-0.79444313,-0.5107683,0.61237913,0.95801115,0.7368498,-0.9286379,-0.7575675,0.38718143,0.40864545,0.8019137,-0.90804416,0.6765528,0.71842176,-0.74373245,0.83399314,0.45933932,0.97276086,-1.0788938,-0.7362353,0.4809846,-0.15741397,0.034771193,-0.16100493,0.36813483,0.0009933279,0.29944,0.42364958,0.27057156,-0.31637892,-0.33134568,0.10781136,-0.3501279,0.3140067,0.02745153,0.08019349,-0.012938891,0.13833657,0.21700014,0.4720279,-0.27907982,-0.22268635,-0.72644806,0.20131229,-0.3779675,0.067163594,0.0058156177,0.01511859,-0.2489446,0.26196867,0.34831148,0.18342115,0.212937,0.34345368,0.11669248,0.21382302,0.043803718,-0.07656766,0.35007706,0.31646663,0.34136918,0.37519556,0.4351862,-0.24025074,0.41244456,0.03819449,0.15416338,0.38140973,0.18768536,0.070689894,0.41111705,0.113920614,0.044436514,0.4323084,0.24845771,0.39672196,0.20478156,-0.036315378,-0.041767664,-0.12665066,0.3512495,-0.059687655,0.06263732,0.04652674,0.27439478,-0.39048117,0.376018,0.07995818,0.57151157,-0.0969186,0.5375983,0.24586302,0.059260786,-0.14859094,-0.49346828,0.4213034,-0.30062222,0.060359444,0.34042063,-0.44182873,-0.40401816,-0.29585925,0.22619858,0.4362028,-0.05539566,-0.3213606,-0.37941262,-0.018069312,-0.3548649,-0.3198196,-0.17334393,-0.45358667,-0.3869317,-0.25764883,0.45451546,0.23757817,0.4213996,-0.5285288,0.62012446,-0.43096152,0.5683622,-0.4840707,0.5326107,0.6957596,0.7301017,-0.7809444,-0.86272687,0.6136042,-0.57783294,0.62332004,0.3405594,-0.91720265,-0.62798434,-0.5025319,0.7955961,0.61024505,-0.66144294,-0.66856354,-0.39694214,0.56342894,-0.6785411,-0.67381364,0.7567407,-0.42308158,-0.96475875,-0.61388606,0.537557,0.38005218,0.4518856,-0.0726819,0.38231185,-0.020162983,0.34360406,-0.2901814,-0.0109063955,-0.053694446,0.12293454,0.14544366,-0.15899277,0.19314294,-0.1263228,0.037453722,0.24633676,-0.20494643,0.058704607,-0.008408983,0.26335227,0.25207546,0.091946736,0.034654364,-0.1966553,0.4235606,-0.046865653,0.2321398,-0.07254311,-0.3000739,-0.31408116,0.21035059,0.35711098,-0.12033936,0.2654444,0.1743374,0.21908587,0.15963039,0.08304664,0.047637064,0.16532385,0.45082715,0.25613627,0.12247667,-0.36916766,0.2519821,-0.041770354,0.18225807,0.082725376,-0.17565969,-0.03264259,-0.09322228,-0.06758446,0.06894904,-0.47395238,-0.18385835,-0.66998625,0.21317215,-0.19583987,0.023098903,-0.29594678,0.18581298,-0.26457325,-0.31920147,0.12239475,0.42789266,0.4082354,0.07168291,-0.0701713,0.24698463,0.30076292,0.07291613,0.0822589,0.022988165,0.16065627,0.10745434,0.46627566,-0.20715122,0.26792455,0.3349467,0.35876176,0.15423143,0.22178705,0.3474051,0.0215188,0.0849771,0.14230396,0.12586237,0.15608697,-0.070987314,0.41223356,0.029978804,-0.21127984,0.12193458,0.41172302,0.07835516,0.39981905,0.40717855,0.05735577,0.32190913,0.23431806,0.03788546,0.14092046,0.0144212,-0.37742555,-0.354436,-0.17237903,0.16140631,0.2169374,-0.023066642,0.036873683,-0.32185793,-0.33345994,0.054752246,0.12832902,0.21117917,-0.2599017,-0.11446067,0.49345118,0.12614189,0.13168073,-0.3352374,0.279028,0.4560696,-0.00678697,0.4533843,0.35012096,0.2931524,-0.33515272,-0.1291833,0.75937885,-0.61272347,0.15908489,-0.29699042,0.6350202,-0.35271102,0.2598189,0.21275668,0.58782756,-0.7744139,-0.47891074,0.30618605,-0.32182726,0.20132339,0.5190111,-0.751139,-0.8414369,-0.33955246,0.522005,0.34748352,-0.39737546,-0.66280633,-1.0759759,0.4915559,-0.81770104,-0.6197295,0.38001066,-0.7603146,-0.71641004,-0.351483,0.34996977,0.51104295,-0.80022645,0.32740372,-0.4839797,0.5818387,-0.5379093,0.86473876,-0.7204524,-0.5178131,-0.76181006,0.67011607,0.46333516,-0.30585864,0.3900283,-0.5016565,-0.27781639,0.51089895,0.57357323,0.47936583,-0.415671,-0.51699793,0.5458991,0.78662896,0.57844967,-0.3222673,0.67722607,0.7088887,0.1651904,0.8780157,0.6343644,0.38230464,-0.5275567,-0.3538691,0.45643866,0.2882303,0.2018842,0.079303764,0.08375912,0.079292804,0.062381804,0.51548195,0.52675456,0.12789588,0.18775697,0.5184195,-0.121736124,0.36259454,0.17963187,0.036578882,-0.024792371,0.18961427,-0.04825681,0.06772715,0.22713844,-0.20841356,-0.44027823,0.19712101,0.25075907,0.39797667,0.09002987,0.279169,0.2717195,0.23658523,0.3029741,0.32591394,-0.58552307,0.251529,-0.48283008,0.75500304,-0.45512858,0.7705967,-0.5551988,-0.6063743,-0.8995409,0.7732912,0.6632355,-0.45050249,0.4888844,-0.4634192,-0.8067642,0.70974207,0.47793493,0.40914467,-0.83017105,-0.6992134,0.91933554,0.62396497,0.20859978,-0.5738733,0.5182842,0.27851838,-0.059544403,0.5646261,0.3173612,0.50508684,-0.7970485,-0.75421536,-0.791789,0.47784945,-0.6780474,0.44325486,-0.70722634,0.50723743,-0.40342715,-0.83505917,-0.62988514,0.81618106,0.3082245,-0.17256197,0.53923786,-0.47264296,-0.7682381,0.32173407,0.40550187,0.5227047,-0.7679743,-0.861865,0.329004,0.46361196,0.6505623,-0.36729467,0.39240167,0.36235163,-0.29058352,0.30036858,0.46379215,0.2903482,-0.63702726,-0.2428747,0.4730612,0.060731728,0.41140878,-0.32085255,0.3688517,-0.0012082753,-0.011235439,0.32258096,-0.027871238,-0.35707223,-0.3529912,0.16509199,-0.10629049,0.11141716,0.434973,0.12909296,-0.44817173,-0.3667504,-0.09410727,0.16071224,-0.3160959,-0.26565817,-0.49139473,0.33448055,-0.101387195,-0.21118939,0.3130527,-0.29583058,-0.2887703,-0.102306336,0.026946027,0.15451796,-0.13498741,0.34653535,-0.03662278,-0.051753286,-0.08269969,0.17039853,-0.14273474,0.060083695,-0.3851737,0.4228617,0.41322103,-0.20004946,0.42164388,-0.18037449,-0.036759567,0.1405539,0.293236,0.41847834,-0.083580256,0.09449035,0.08495783,0.2524713,0.67427665,-0.30658838,0.11843602,0.09954035,0.2721121,0.3325929,0.3199446,0.32502168,0.33404747,0.14957121,0.26704773,-0.53130454,0.46311054,-0.82444763,0.70869786,-0.19242743,0.38459376,0.2735056,0.49786267,-0.71929353,-0.70790505,0.7708965,-0.3848733,0.16029608,0.16742757,-0.7585261,-0.51730824,-0.6528275,0.38763487,0.46711797,-0.5001673,-0.40230227,0.05001027,0.31401336,-0.84848654,-0.7725191,0.5501215,-0.59342545,-0.8525112,-0.9083476,0.13391012,0.3632173,0.47735855,-0.6668438,0.17957546,-0.7887249,0.29982448,-0.30938312,0.23258644,0.21505769,0.6537386,-0.94796234,-0.40156704,0.62233347,-0.79510826,0.5195171,0.35683376,-0.72154444,-0.34517136,-0.5955273,0.6808814,0.3860625,-0.7815582,-0.76420915,-0.59224105,0.39082953,-0.48632666,-0.45320043,-0.13775985,-0.81851685,-0.36405665,-0.57246965,0.21555834,0.16948822,-0.29412222,0.15632872,0.0004747982,0.44861737,-0.101945214,0.0051507037,0.21922666,-0.24610838,0.019794226,0.5219483,0.30316192,0.24558371,0.27925673,-0.108358026,0.2707201,0.42409536,0.2971811,0.3889378,0.29560745,0.22712468,0.29288343,0.28804418,-0.22156402,-0.08559902,0.53701663,0.45663375,0.5577286,0.041299358,0.444501,0.4585097,0.2542588,-0.07709325,0.21613123,0.040718876,0.21761563,-0.24843405,0.24695611,-0.034340877,0.47026297,-0.067540124,0.21554792,-0.17723328,-0.059290845,0.55871755,-0.18397634,0.31113088,0.130297,-0.15456116,0.0330512,-0.24305929,0.44062954,0.0224102,0.23603082,0.07270632,0.3414888,0.25672868,-0.037243478,-0.18389082,0.26093972,0.02632023,-0.13051198,-0.05430732,0.3922146,-0.068537444,0.46315086,-0.8804872,0.40094408,-0.8390397,0.56809646,-0.8371835,0.4126361,0.26607552,0.6306318,-0.7327832,-0.52866256,0.5612836,-0.8179389,0.5281188,0.45557097,-0.48078403,-0.49641412,-0.81214654,0.7808898,0.39939344,-0.7100633,-0.72030973,-0.13273732,0.3634876,-0.94187623,-0.8743395,-0.23892523,-0.46626562,-0.78203356,-0.57633483,0.70629805,0.6690273,0.80952674,-0.52465665,0.5632803,-0.5703024,0.7809788,-0.33195344,0.5279094,0.8057736,0.48366293,-0.7378059,-0.66874987,0.71318144,-0.8695428,0.32116905,0.35857263,-0.64041466,-0.46262807,-0.90110064,0.7438033,0.89267,-0.5169384,-0.48702008,-0.27100027,0.67286944,-0.57028115,-0.9920424,0.88667834,-0.76582426,-0.79977083,-0.8261192,0.5155061,0.83668876,-0.07782831,0.1924287,0.2952102,-0.154989,0.24764387,0.2047149,0.35428673,0.3343256,0.16786306,0.36266837,0.23300186,-0.32581583,0.13075453,-0.017020633,0.44123614,-0.13898936,0.21560585,0.19982031,0.47610673,-0.04965619,-0.12793751,0.3339298,-0.2736721,0.4501127,0.060338825,-0.03359517,-0.21302637,0.22825353,0.1646751,0.03226875,0.17778203,0.1765565,0.0970316,0.06144579,0.086960696,0.31906947,-0.33378804,0.41643557,-0.19300665,0.044517267,0.13447027,0.19733573,-0.043974012,-0.31280214,0.21245198,-0.19268829,-0.11035441,0.34927186,-0.047747087,0.37109035,-0.16610137,0.0042355545,0.30084214,0.048862044,-0.87069035,-0.21053834,0.4760084,0.10686365,-0.25626898,0.033360336,0.17533019,0.1778284,-0.2618263,-0.32907394,-0.070004866,-0.24420783,0.40016738,0.09327424,0.024898691,0.14856596,0.3720872,0.44519565,0.42565385,0.16991138,-0.25659102,0.004615335,0.05842867,0.2884899,0.40488473,0.10704455,-0.007062728,-0.37893662,0.23818132,0.39881557,-0.24250518,0.12519494,-0.43957406,0.13608794,-0.09114662,-0.11487683,0.041974563,-0.09356345,-0.012032824,-0.1399793,0.029902361,0.3563589,-0.30587515,0.046236955,-0.2789484,0.25525466,-0.44960126,0.36010832,-0.37759003,-0.2555316,-0.34308174,-0.01909111,0.25524884,-0.540593,0.34921598,-0.063933104,0.0827863,0.2588488,0.32676712,0.33482432,0.108406894,0.00030396602,-0.18780376,0.23871918,0.26224938,-0.23934004,0.0581853,0.06693419,-0.054249052,0.05131021,0.41302928,-0.019173635,-0.20837243,0.12117333,0.41977042,0.02278297,0.12539984,0.23286118,0.27439845,-0.047818422,0.44691572,0.022167325,0.30822474,-0.14420971,-0.2554527,0.26003897,-0.079074174,0.25753853,0.221511,0.09048917,0.06721717,-0.12180368,0.22811194,0.12141917,-0.27553347,0.10756864,-0.66812307,0.34133917,-0.16156676,0.1573435,-0.22852106,0.2624292,-0.07634808,-0.04049497,-0.023670692,0.39482275,-0.19186386,-0.045856994,0.0050051953,0.4429485,0.07382665,0.35109118,-0.26302066,-0.030162344,-0.4307809,0.36829785,0.41263816,0.015047704,0.40940374,0.08673825,-0.3634763,0.0058494164,0.24205518,0.30777848,-0.32368284,0.17395683,-0.03194263,0.13720715,0.3426558,0.024603894,0.20941587,0.17497051,-0.031352706,0.4128187,0.18821758,0.15026452,-0.15261154,-0.41657436,-0.19296959,0.14951165,-0.22465636,0.103239864,0.08656818,0.009105135,-0.23414078,0.045363646,-0.1161047,0.3186126,0.32033297,-0.18013012,0.46853608,0.030771073,-0.41843438,0.19214691,0.4334855,0.27079907,0.06632175,-0.37061304,0.5279093,0.06701277,0.44621503,0.03652092,0.38749677,0.33788767,0.22454426,0.03638495,0.3334592,0.4081567,-0.09208334,-0.21522446],"dims":[32,32]},{"bias":[-0.11654675],"weights":[-0.39903978,0.84657115,-0.58659273,0.77836436,-0.41825482,0.73002744,-0.6116168,-0.55912995,-0.7493804,0.41143417,0.45704982,-0.47160655,0.50422037,-0.8287371,-0.72288525,0.49675933,0.5321121,0.44861174,-0.5015947,-0.49704167,0.7952125,0.55056477,-1.1058861,-0.69645137,0.4288705,0.9016139,-0.94020516,0.82974654,0.7807315,0.8770459,-0.60769355,-0.76153654],"dims":[32,1]}]