[{"bias":[-0.1322498,0.8328508,-0.272643,0.10886813,0.2292398,0.4404139,-0.023355836,0.34391692,0.048453394,0.24750996,-0.12548734,0.033580553,0.13152704,-0.124695934,0.08424296,0.12979992,0.82120943,0.16258469,0.35535794,0.17807703,0.31349403,0.26979142,0.7394653,0.045461874,0.44413602,0.575029,0.080011986,-0.05045189,-0.37023017,0.5452203,-0.27672064,0.12714007],"weights":[2.0445888,-1.6307855,2.1707985,2.271112,1.118693,-0.37484777,-0.17797598,-0.3888212,0.66032535,-0.99928886,1.3278153,0.8722008,-0.090020366,-0.03455841,-0.0994796,-1.4904033,0.58309174,2.6983027,0.50223917,-0.90249246,-1.1913438,-0.46454963,2.1415648,0.96141106,-1.3109907,-0.62136185,-0.88679135,0.5634044,-0.8834738,0.9043152,2.422435,0.5183402,0.8360025,-0.1483228,2.15945,1.3478162,0.6232716,-0.60992414,0.62029445,-0.18682237,-1.0237079,0.16198996,-0.57775676,0.16664961,-0.3233591,0.12849654,-0.20578624,-1.0135888,-0.92470706,2.4580457,-0.18833593,-1.4286139,-0.7102926,-0.8510082,1.9745599,0.18175676,-0.6478981,0.18012758,-0.010935421,1.0380614,1.0911865,1.2960435,0.854734,0.5984391,0.056582715,-0.31369177,0.16971628,0.8888461,0.5733287,-1.2535989,0.21726848,0.41563728,-0.6036108,0.18871142,-0.47371292,-0.40786076,-1.5509248,2.3126616,-1.0325358,-1.1206647,1.7505232,-0.219451,-0.36376444,-0.50515944,0.00792894,0.089458436,1.4496903,-1.4205782,-0.83706486,0.45532727,-0.6113655,-1.8314866,1.5185381,1.062364,-0.66450894,0.1523885,-0.1158477,-0.63848996,-0.8649828,0.3462731,0.090210125,-0.095754,-0.36756572,0.1376414,0.29527745,-0.054487463,0.2329398,-0.43639308,-1.1468512,-0.5102637,-0.19576707,0.5264728,-0.23612384,-1.1863706,0.23460822,0.017358059,-0.72541267,0.019492788,0.5578205,-0.0038905174,0.058567904,0.11496054,0.09904203,0.42512348,-0.12428706,-0.40458885,0.88229054,-0.5105139,-0.3115221,0.42310706,-0.18580346,0.13927309,0.43571478,-0.22947189,0.7915113,0.38868415,-0.05283789,0.2410721,0.2480854,0.52830637,0.32575113,-0.40085086,0.12675937,0.33906955,0.3921118,-0.08692974,0.4293661,-0.3396521,-0.039827358,0.050256614,-0.12695004,-0.045826226,0.8284403,-0.5932274,-0.7401489,0.076043464,-0.13344134,-0.20435515,0.17735815,-0.9869137,-0.33152482,0.171504,0.4905376,-0.37719032,-0.113894515,-0.58339787,0.35817888,-0.15595563,0.4611664,1.0422992,-0.22737183,-1.0133278,-0.22394474,0.13976401,-0.5973417,-0.0067361887,0.79500395,1.2191979,0.11519415,-0.24329008,-0.07517461,0.0062658982,-0.27061352,-0.37534916,-0.09517346,0.20280415,-0.030784786,-0.45637593,-0.13508223,-0.08718019,-0.44340786,-0.91184044,0.42502424,0.06202268,0.071276136,0.9883478,0.2523362,-0.9368058,0.48575082,0.73064995,-1.859478,-0.35655305,0.07512405,0.3163446,-0.34918118,0.7982484,-0.6813108,-0.3529573,-0.45240635,0.52221495,-0.66874695,-0.7445711,-0.10363074,-0.7221269,0.5723636,0.0014199695,0.39472908,-0.16533023,-0.09058168,0.49864987,0.9266462,0.591547,0.68848974,0.49424478,2.015442,0.19635938,0.20134589,-0.58531326,0.3664654,-0.52955145,2.0728896,0.32133886,-0.07304828,0.62549657,-0.14439912,-0.068040065,0.23340265,0.12927459,-0.19672233,-0.21219316,1.0974312,0.68646216,0.24556585,-0.18156211,0.009270302,0.559475,0.77023953,1.5971777,0.68659776,0.18913658,0.18095815,1.0518368,1.6039937,-0.2554019,0.50382096,0.5469772,-0.4794258,-0.7152979,0.46279052,0.8705889,-0.39052504,-0.47847825,-0.89133155,0.11620674,-0.33925715,-0.18485615,-0.26344,-0.9243646,-0.89396614,0.24759865,-0.778986,0.42667928,0.37852398,0.55348486,0.5593477,-0.5043526,-0.590643,-0.1982132,-0.52995694,-0.12538317,-0.109379716,-0.4682926,-0.36023772,0.370068,-1.596854,0.14329733,0.3608482,-0.4961956,0.7107107,-0.6483106,0.4427078,0.8643958,0.5827022,0.130552,0.11190454,0.060416497,-0.52457577,0.32371777,-0.4333108,-0.23443133,0.01842946,-0.15623645,-0.4006102,0.34328267,-0.695895,-0.015096827,0.06452732,-0.8189251,-0.7648802,-0.4232028,0.6690666,-0.44145638,0.2622351,0.3004053,-0.25090906,0.37761793,0.13565281,0.8095572,0.8989902,0.18628359,0.48115483,0.38228935,-0.43939087,0.65937823,-0.7590737,-0.38566166,0.5796775,0.17976393,0.0035972442,0.065488964,0.059957612,0.38216794,0.07506488,-0.27214488,0.41869158,-0.30517003,0.091366604,0.116786964,0.20208071,-0.29192144,0.38796812,0.08448456,0.1706383,-0.09772028,0.2682825,0.68021005,0.462701,0.8657355,-1.038582,0.52541506,-0.25469738,-0.7573955,2.4661357,0.16027716,0.30938703,1.0698284,0.15475054,0.38997597,1.1535444,-0.41756105,-0.11964877,0.40637028,-0.85340977,-0.66331714,0.45744845,0.1469553,0.14422995,0.5723439,-0.41525367,0.1459743,0.09176758,0.06274855,-0.36480534,0.55648726,-0.84399927,1.5536335,0.6646324,0.15555146,-0.14267737,1.8071445,1.4019797,-0.3630954,0.3762077,-0.7656608,0.9843006,0.21158235,1.498548,0.12926655,0.5244808,0.022156926,0.40880203,0.011814182,-0.04186904,0.32356492,0.107791886,0.07309636,-1.1654624,-0.5077278,-0.52217245,0.49746734,0.46714586,1.0006676,0.6312811,-0.20598985,-0.4689479,-0.10413342,-0.063061096,0.16493584,1.5219501,-0.6208873,-0.008862052,1.2898473,1.4385017,-0.69483227,0.05307939,-0.8497199,-0.0464654,0.46786556,-0.22432032,-0.22355717,0.12671144,-0.2195957,0.47837958,0.4654262,0.39240658,-0.15216492,0.052040126,-0.32139787,1.1244655,0.49108297,0.88964367,0.2982163,-0.40166512,0.566093,-0.54452276,-0.2370951,0.39144737,-0.042688217,0.117983684,0.56874925,-0.8881513,0.3717134,-0.6208898,0.54414755,0.6078762,-0.25536057,-0.6686837,0.11840253,-0.46342137,-0.013328456,0.66022694,-0.292004,-0.11440893,-0.5556651,0.55504775,0.19697422,-0.2203817,-0.19519709,0.40035194,0.42821208,0.2116188,-0.9134464,-0.36724526,-0.021393264,0.08769285,0.61638856,-0.34163356,-0.27285168,-0.32955608,-0.6576123,0.38025478,0.21512446,0.56114405,0.23076843,-0.2965685,0.10896585,-0.13078302,-0.22778873,0.03124973,-0.61315465,-0.46918997,-0.38287365,0.0805011,1.4585123,0.8806782,0.43658692,1.717091,0.39801112,-0.47783038,0.10808836,-0.060038004,0.3688529,-0.20664613,-0.528682,-0.02105536,-0.55311733,0.47485122,0.39585242,0.1925762,-0.47886062,-0.3977028,-0.4127189,0.4550238,-0.39945188,0.6761605,-0.6348446,0.70680493,0.6638263,0.549168,0.38247457,-0.5032073,-0.68344253,-1.0679978,-0.23397177,-1.5441606,-0.077767536,-0.07676872,-1.0169476,-0.39687163,-0.13037242,0.7402056,0.3022122,-0.8196467,-0.04967045,-0.68945265,0.0462942,0.016656157,0.31435528,0.87038994,0.08165685,-0.17099302,0.06909186,-1.0702412,-0.5160016,0.78057593,-0.21511684,0.5833786,0.7328741,0.44967028,1.0443093,-1.471967,0.46665218,-0.23092762,0.39988643,-0.4918745,-0.17263593,0.5303052,0.72774434,-0.15313374,-0.90887415,0.045781694,0.65245634,-0.32857406,-0.4604062,-0.91226566,0.13306588,-0.65047103,0.27438283,0.36492875,-0.03528239,0.03408147,-0.08246281,-0.63842106,-0.37475544,0.17565803,-0.6765969,0.12587503,-0.78765786,-0.2982329,0.71701103,0.24309987,0.012604113,0.16080083,1.3995959,-0.13009359,0.2045559,0.4765634,0.6323941,0.6467948,0.72062147,0.31722483,-0.79858273,0.62496513,-0.514985,-0.52216375,0.19049458,-0.91898215,-0.7979013,0.005252056,-0.022848407,0.28128695,0.8283437,-0.121681035,-0.42373994,-0.033575635,0.063110396,0.7357223,-0.039615635,-0.78585184,0.10391648,0.5760395,0.3648966,0.37010914,0.30641723,0.97334456,-0.28529269,-0.108549625,0.46345425,1.1333631,-0.31452933,-0.3233281,1.2085133,0.30268264,0.55539936,0.7362507,0.27582985,0.41025773,0.6585676,0.090754405,0.12144414,0.4624915,0.1720701,0.18953104,-0.0814808,0.48653403,1.1503994,0.45348945,-0.33564624,-0.31074247,-0.05263563,1.2886833,0.95304257,1.4630876,-0.14054585,0.064890295,1.3784223,-0.6699779,0.6203787,1.3088541,-0.5015229,0.14566338,-0.042471465,-0.661996,-0.084508575,0.24591249,0.5865854,0.29581353,-0.39442563,0.16333936,-0.14666958,0.07803173,0.5658954,0.6912406,-0.79713064,0.19969176,0.27799883,-0.41121116,0.09590274,0.3176516,-0.27894264,-1.3197494,-0.41973254,0.8888009,1.13117,0.2395288,0.20457175,0.09248292,0.2392012,-0.010068309,-0.534054,0.9116614,-0.5965492,0.3354004,-0.5685967,-0.06936619,0.9773409,0.29520515,-0.25674385,0.5068259,0.17009477,0.22877693,-0.10115673,0.27712113,-0.057751887,-0.10650824,-0.26002824,0.109135434,-0.23988573,-0.29455325,0.37438783,-0.4409151,-0.22996052,-0.7904932,-0.2058027,-0.33074924,0.76298565,0.4297727,0.04535814,0.0942742,0.7975738,0.15353276,-0.32661402,0.55985236,0.3232937,0.17360987,0.4593086,-0.721277,-0.42288753,0.6241048,0.4869394,-0.57819617,-0.35185048,0.32515147,-0.27443182,-0.15606242,-0.14294282,-0.17158228,-0.23650569,-0.3126214,0.5671911,-0.25986022,-0.15613255,-0.2699403,-0.04220736,0.2716328,-0.39488557,0.90321994,0.85094625,0.23020504,-0.04948265,-0.5484061,0.06230915,-0.15653318,-1.0147727,-0.13097824,-0.6665472,0.16060735,0.011880212,-0.23129748,-0.09943141,-0.2254999,0.47699037,-0.566589,-0.16858456,0.15112014,0.95233446,0.17521358,0.01421075,-0.11534857,-0.98713845,-0.26641402,0.1530112,0.37143153,0.35187742,-0.642166,-0.10365647,-0.3870248,0.31132314,0.7596433,0.26964447,1.0447102,-0.17961057,0.09728545,-0.22506222,0.1085896,0.512308,-0.41180784,-0.5188884,0.36996615,-0.2101344,-0.6064934,1.1358736,0.4722582,-0.07382016,0.5557365,0.21985644,-0.35258815,0.17014924,0.06921913,-0.27338895,-0.4881811,0.32136238,0.64004534,0.72875726,0.17530507,-0.8831592,-0.6646159,0.08271211,-0.112860404,0.4980645,-0.361423,-0.09192709,-0.977422,-0.7140691,-0.5980664,0.37993357,0.3890929,-0.17482029,-0.6019041,0.011429825,0.29480058,0.2834478,0.6938903,0.3972527,0.66347134,0.24360034,-0.2064973,0.30774304,0.6094297,0.49889043,-0.11110846,-0.05533751,0.32274017,-0.37929505,0.13467887,0.23253003,0.15730348,0.36338633,0.6024929,-0.47568545,-1.5788817,-0.28186268,-0.121409155,0.7109987,0.58755517,0.3425606,0.23767625,0.6512046,-0.6404524,0.45415395,0.09557071,0.4422407,-0.51863825,-0.010982065,0.022637954,0.23497532,0.16008422,0.026553147,1.7562257,0.25999206,-0.072157055,0.87127066,-0.18780951,0.18419886,0.04670395,0.059180822,0.6880794,-0.05714211,-0.20688304,-0.03835207,0.13965032,-0.11242029,0.0325793,1.2430295,-0.28188297,-0.16102412,0.22646126,0.50635934,0.45151457,-0.71728504,0.71545166,1.0849266,0.12831393,0.8075256,-0.2746069,0.468024,-0.12150801,-0.64640266,0.10562479,0.21470593,0.17891763,-0.07392485,0.5509435,0.09192591,-0.7614188,-0.33411843,0.46038085,0.052888688,-0.14519271,-0.13429293,0.38062564,0.24456416,-0.052999206,-0.23775911,0.5034022,0.21922459,-0.008602122,0.8209856,0.16919929,0.6918382,0.1436742,-0.32699773,-0.045353908,-0.71074027,0.39353752,-0.17909238,0.6414214,0.62940294,-0.30512962,0.25501856,0.46869716,0.2597788,0.21997994,0.16095859,-0.18037945,0.35152704,0.37497786,0.13074522,-0.47495958,-0.2581639,-0.1436721,-0.29347754,-0.29837438,0.8113889,-0.4325672,-0.7776789,0.10084535,-1.0243951,0.36078328,0.57392573,0.4079696,0.19675079,0.3501078,0.118496165,-0.7301591,0.6038536,0.22939713,-0.37146246,0.19541413,-0.5973047,-1.1754969,-0.72473633,0.064176105,-0.91716945,0.16265322,0.39950877,0.043921947,-0.11009205,-0.24215306,-0.645526,0.2659417,0.053591747,0.37141567,0.02313984,-0.17052734,0.39934328,0.80396664,-0.2841954,-0.80265474,-0.06918092,-0.72016394,-0.6264281,0.94090647,0.16683872,0.3197039,0.6345376,0.1923484,-0.9075154,-0.14439128,0.10600011,0.22422935,0.6584667,-0.30319613,0.11553556,0.53445506,0.18098186,0.24681085,0.11404408,0.50502974,0.7504412,0.012095755,-0.012004981,0.029351866,0.009128238,0.327078,0.30865896,0.3185046,0.23394847,-0.0077292575,0.096274436,0.72124565,0.21603018,0.12771438,0.39792797,0.001034162,0.045470934,0.26408002,0.15865022,-0.15394735,0.31935456,0.10516109,0.21812028,1.2337044,-0.28475946,-0.6350366,-0.051563334,0.5828905,0.05116059,0.186022,0.36524272,-0.20335792,0.38589486,-0.095360644,-0.23651753,0.15599756,-0.2216087,0.21299683,0.2933546,-0.42582867,0.10025544,0.14182046,-0.018597081,-1.2012937,0.006553163,0.23468292,-0.55491173,-0.1101975,-0.08741386,0.12141208,-0.0926473,-0.22874391,0.52837646,-0.5997439,-0.34647593,-0.25641736,-0.6813637,-0.47379437,-1.8335801,-0.13605955,-0.37750176,-0.54864806,-0.40739182,0.5477699,0.4874498,-0.615249,-0.069377206,-0.99155855,-0.37978083,0.5643268,0.14711213,0.079692215,0.93109673,0.38194346,-0.21718769,-0.27940294,0.55276245,1.057626,-0.18248321,-0.5117174,-0.80251104,0.6259627,-1.281905,-0.06180925,-0.0848424,-0.4829313,0.2639789,-0.5452329,0.2455249,-0.20475385,1.0852926,0.02930809,0.28040594,0.4959119,0.3996063,0.680228,0.94496334,0.62069917,-0.37633225,0.2703756,-0.27056322,0.38411614,0.18143043,0.62367606,-1.2537796,0.3778243,-0.092213504,-0.6459801,0.41214576,0.2556433,0.29076582,-0.3146677,0.08826586,-0.15045391,0.9265543,-0.22334681,0.18579397,-0.10701636,-0.52219576,0.006794999,-0.5867171,-0.08200253,-0.28514093,-0.0071358373,-0.34476873,0.20033479,0.084201984,0.25489944,-0.43108886,-0.4183873,-0.0913663,1.1090547,0.19757083,0.27043375,-0.1271,-0.23244771,-0.02635888,0.34056738,-0.38780436,-0.9316822,0.0027038755,-0.6824319,0.054790013,-0.105264194,-0.18441978,-0.035858836,-0.52312136,-0.19077629,0.15467441,-0.07402861,0.89038575,-0.18168885,-0.18209465,-1.5456303,-0.5900122,0.42939082,-0.18875799,-0.26469707,0.68485427,0.20693183,0.38270617,-0.14696822,-0.80679244,0.2957451,0.20714404,0.1810069,-0.4857389,0.59204197,-0.67674166,-0.106626175,-0.08076474,-0.07892238,0.83673644,-0.62536407,0.19637711,0.4702238,0.21614419,-0.13221505,0.062036656,-0.8327288,-0.07031013,-0.41151354,0.10309076,0.4817893,-0.05944696,-0.27256253,0.57042295,0.31107333,0.048869647,0.43460065,-0.33898035,0.31439134,0.58658206,0.47808427,0.18257934,0.33951613,-0.43955463,0.09367136,0.20552498,-0.12869099,-0.10577151,0.29025713,0.15860285,-0.5048015,0.22597344,0.09050937,0.14497194,0.57464564,0.12239204,0.34570414,0.25461075,-0.46454978,0.08867866,-0.07759423,0.18634653,0.06911487,-0.21919148,-0.4537607,-0.49433807,0.2438771,-0.044044565,-0.2207326,0.1645298,-0.121744044,0.35246944,-0.1069931,0.43442136,0.08660687,0.0049651857,-0.5208569,-0.25162432,-1.0959811,-0.020625932,0.5461782,-0.36255312,0.18372886,0.0985487,-0.15014984,0.101904705,0.28554267,-0.26618788,0.12104914,-0.6245537,-0.62868,0.3253309,0.03192962,-0.115822405,0.12154896,0.57107973,0.16329981,0.0964898,0.624833,0.5924373,0.75251234,-0.18339422,0.2442347,0.5709047,0.52632487,0.8041812,0.51755774,-0.30743352,0.5482119,0.1351725,-0.13192755,-0.9230605,0.43225235,-0.2694813,0.00717658,0.107348986,0.11467072,0.12602979,0.38610998,0.08077868,0.09861215,-0.043303203,-0.27879247,-0.24493362,0.5994399,0.06976112,0.25758457,0.4911124,-0.7579797,-0.052086603,-0.23246576,-0.16887163,-0.009146879,-0.26438844,-0.07409705,1.14501,-0.22933345,0.03796505,0.17605357,-0.4612885,0.55834013,0.32498327,0.6754223,-0.22345711,0.55193555,-0.07171645,-0.30337074,0.6057618,0.6021276,-0.45148802,-0.007179791,0.59694695,0.8269903,0.28225622,-0.8356568,0.17617474,0.009579511,-0.28452766,-0.26479653,-1.0679826,-1.0434253,-1.933339,1.3182281,0.7142685,-1.0291688,0.4437031,0.18699424,-0.37644127,-0.7887181,-0.7181415,-0.2847217,-0.113509364,0.66688746,-0.12351214,-0.32843658,-0.58980846,0.93111473,-0.63732094,0.10998715,0.40802583,-0.33922988,-0.22527924,0.27196103,-1.5677178,-0.04451936,-0.62178534,-0.19749849,0.890627,-1.563673,0.2331436,0.6637502,0.50628555,1.2093753,-0.3073157,0.3584209,-0.69988936,-0.53020006,-1.2463408,-0.30867136,0.14082733,-0.5575165,-0.19001347,-0.20884691,-0.29737788,0.17034128,0.41178712,-0.24296463,-0.4510505,0.6841008,-0.35188028,0.10062251,0.367644,-0.6587957,0.48606533,-0.5463247,0.3818826,0.16661513,-0.58048725,-0.03284955,-0.085749306,0.37541077,0.43173897,-0.99194854,-0.6492927,-1.1202718,0.13439007,0.04119442,0.4021178,-0.5766979,0.16066992,0.41396576,0.35406145,0.067068525,-0.18251194,0.51966727,-0.03733239,0.32525656,-0.076083235,0.49558452,-0.8731742,0.81512374,-0.20548342,-1.148884,0.36999786,0.3642571,0.7662551,-0.073632516,-0.7366925,0.21821347,0.21582416,-0.6446398,0.76093,-0.5241766,-0.34942377,0.6442451,0.6817215,-0.23830363,-0.26263177,0.7269102,0.5047151,-0.5214516,-0.2018926,0.33793733,0.6740297,0.15508269,0.2313667,0.48784146,-0.11720113,-0.36149126,0.171651,-1.7744757,0.39242953,-0.031532284,0.16658768,-0.68830013,-0.058296133,0.25009727,-0.20449889,0.20828688,0.21103917,-0.2760155,-0.8599946,0.69149995,0.1556705,0.1359656,-0.20770633,0.32632446,0.08823967,0.49380112,0.22591436,-0.047585767,-0.29859003,0.5956437,-0.5033188,0.0050909286,0.17955211,-0.22207142,0.095140904,0.7402932,-0.053172242,0.057544537,0.35476,-0.699415,-0.3675537,0.90965384,-0.14896142,0.32465103,0.3634555,0.1631788,-0.24755362,0.026553854,0.15671949,0.40325275,-0.8095014,-0.48006186,-0.43794015,-0.45988795,0.7119836,-0.22205302,-0.21530789,-1.3120022,-0.09743434,-0.06779553,0.4820261,0.17312713,-0.27166998,-0.015806193,0.5164416,0.49114433,-0.5049742,0.05744194,0.13537967,-0.45890865,0.54666495,-0.6824016,0.393644,0.338761,0.05387526,-0.26103,0.052082118,0.20421231,0.25337946,0.21218824,-0.08416365,0.016545104,0.034547273,0.20411904,-0.03228034,0.15674092,-0.31010497,0.85788804,0.46531022,-0.45324802,-0.71231383,0.36142355,0.37383592,-0.30764773,-0.25814196,0.25340316,0.7538371,-0.08379569,-0.47252417,0.21704753,0.26314586,0.020277448,0.59661067,-0.55359906,-1.4083166,0.3685924,-0.16326608,0.71647304,0.28957716,-0.85085636,-0.5555672,0.48232454,0.6244271,0.2856772,-0.40079814,-0.1450376,0.18332934,0.35683644,0.7398885,-0.6095441,0.111303516,-0.682583,-0.7485258,0.3786937,-0.5493168,-0.38056493,-0.37795264,0.40985322,0.8437119,-0.07500357,-0.18259507,-0.3686514,-0.6007163,0.022739144,0.09230667,-0.3510458,-1.4150016,1.0729706,0.13912466,-0.96412426,0.5086155,-0.5876061,0.34806347,-0.78892654,-0.07788681,0.73453975,-0.35909277,-0.2875418,0.043581348,0.033690643,-0.22498849,0.45130628,0.34887108,-1.4168357,-0.068326734,-0.23080252,0.6053998,0.92965764,1.7982734,-0.7013086,0.0964003,-0.015584232,-0.5707424,0.11018461,1.2272203,0.0588894,0.42059958,-0.65256965,0.19490212,0.41237026,-0.55592173,0.35676223,-0.52840716,0.25995538,0.08224726,0.36622253,-0.31003255,0.6046206,1.2207459,0.32533288,0.116893515,0.09959996,0.0020918131,-0.5848596,0.31806055,0.21877688,0.27635497,0.4517459,0.10138218,0.3708321,0.46998647,0.092784576,0.009134583,0.7036851,-0.25484014,0.6740806,0.286194,1.0454845,0.6553857,-1.0589811,-1.0464429,0.49339584,-0.2669974,0.34210718,-0.32430252,-0.675736,-0.17140782,-0.11231574,-0.08083745,-0.08498675,-0.17132488,-0.26819777,-0.23796426,0.20565581,0.13307416,-0.057286575,-0.05095228,-1.315437,0.55330974,0.63946795,-0.34908107,-0.5801498,0.0010922661,0.37065047,0.8220371,0.31399316,-0.89048135,0.07058296,-0.07539225,0.9777903,0.67727196,0.2879592,0.5072243,-0.3929158,0.24726953,-0.018054757,0.11302592,-0.39576235,-0.13848387,-0.90574527,-1.0385063,-0.16371545,0.7265899,-1.0943443,0.68693906,-0.91255474,-0.086820185,-0.8537013,-0.86741805,-0.006821705,0.71685773,0.37601182,-0.026840182,0.60616297,-0.07453523,-0.07592783,-0.28559038,-0.1373908,0.27895144,0.9232766,-0.4540055,-0.2158949,-0.26974046,0.14887811,0.09465101,1.2025259,-1.1121422,-0.8250778,0.20743032,0.03544818,0.24116372,1.1951158,-1.1552027,-0.52067256,-0.3656157,0.87805915,0.1153848,-0.011771371,0.61479414,-0.33316177,0.27982396,0.31649697,0.47105014,0.52790165,0.22121236,0.46848086,-0.3129042,0.18948513,0.15503076,-0.15556817,0.20662463,0.27301452,0.16407311,-0.18910895,0.45661804,-1.137551,0.43380398,0.38338605,-0.08930804,0.2699971,0.2881248,0.38273865,0.04642754,0.30988878,-0.10478778,-0.005916098,-0.43798912,-0.024107274,0.033558257,-0.20340335,1.0194632,-0.65480465,-0.22481096,-1.2969657,-0.3791556,0.54972816,0.42566684,0.4463886,-0.47755092,-0.0595662,0.5541576,-0.14410718,-0.2772284,0.5754383,-0.099373296,-0.2641277,0.21464926,-1.5434413,0.90133256,0.72064483,-0.049917564,-0.9673871,0.08021724,0.11967844,-0.5248332,0.21495302,0.47906,0.118556745,-0.3518467,0.099447824,-0.41255835,0.5895982,-0.5887509,-0.22885567,-1.15572,-0.09820131,-0.6319516,0.3989704,0.09091575,0.32572567,0.25234836,0.22575769,0.8829635,0.725194,0.25868034,0.7419462,0.4669695,0.0018215845,-0.13827059,0.452704,-0.26799852,0.9182883,-0.08948542,-0.8247606,0.31768152,0.27202597,-1.6422335,0.51085246,0.19835056,0.27376512,-0.14008315,-0.9861293,-0.51659954,0.45362103,-0.07809352,0.25133526,-0.7386864,0.9327305,0.104886435,0.008116495,0.21186261,-0.26979816,-0.40044317,-0.4090623,0.30474207,0.24411274,0.24403006,0.24453434,-0.32680959,0.03736242,-0.11560635,0.5256927,-0.4580985,1.160778,-0.25811586,-0.91097325,0.465098,0.2615681,-0.22025213,0.34266186,-0.4393736,0.78509796,0.029540917,0.19457023,0.021385832,0.35642907,-0.17587908,0.46355093,-1.4480518,-0.3489993,2.057452,0.36141047,0.24043348,0.14158829,-0.6493553,-0.95014226,-0.28757295,0.28666404,-1.0166045,0.85219646,-0.31645185,0.6623023,0.581528,-1.1296182,-0.87156206,0.16153015,-0.39915702,-0.21403722,0.30603385,0.21561389,-1.6449963,-0.020283913,-1.5845137,0.25965565,-2.0916913,0.84620506,0.6387122,-1.4616718,0.9523727,-0.86100423,-0.8465333,-1.347905,-0.0000750725,-0.13032669,-0.1594002,-0.5892352,-0.015138499,0.51432633,-0.2793849,0.30481794,-2.1310492,0.8347719,0.17200646,1.3424379,0.2992636,0.7578087,-1.9647319,1.523973,-0.7027678,0.2608557,-0.5064543,-0.73856306,-0.23426338,-0.18231776,-0.47612247,0.68370205,0.31696332,-1.1456716,-0.40993118,-1.1862909,-0.08388284,-0.4659386,-0.14334022,-0.4228359,-0.22440422,0.22318703,0.3148036,-0.07595615,-0.20186114,-0.33098465,0.32354978,0.42296666,-2.4622705,0.12657392,0.42780522,-0.50857544,1.2142361,0.77347964,0.3985834,1.5154597,-0.2445036,-0.54242843,-0.12758495,0.110150315,-1.1389153,-0.15982121,-0.17262892,-0.16046114,-1.5640346,-0.12487947,0.6263608,-0.2569085,-0.40036803,-0.41479474,-1.2077233,-1.2163322,0.665221,-0.07403693,0.040325705,0.43161398,0.06026496,0.04712367,0.0011743831,0.4586414,-1.2080318,0.40763268,0.19760732,-0.6247302,0.33374313,-1.1353843,0.11483174,0.2623701,-0.69713426,0.3535377,-0.7536235,0.24688275,0.46113995,-0.735662,-1.4016527,-0.07394807,-1.0875491,0.40817615,0.56264764,-1.2837224,0.68954676,0.6340549,-0.46299535,0.7278663,1.2461385,0.61219174,0.9789826,-0.31745547,-1.2574303,0.6939343,1.5580473,0.33760864,0.0540575,0.44231206,0.70962024,-0.16078444,0.09084261,0.38424617,-1.4911844,1.2020057,0.20503731,-1.3946393,0.8441249,1.1020559,1.7955141,-0.46156004,-0.3343301,0.7212399,-0.5225391,-2.34747,-0.22945003,0.7858493,-0.17627549,0.739739,-0.01507161,1.366797,2.2939296,-0.10106258,0.29859897,0.5517156,-1.279863,-0.016182486,0.2074254,0.12692593,0.19355655,1.4268129,-0.14601262,0.38381055,0.09265987,-1.3841769,0.12583853,1.5500038,-0.7441381,0.3191472,0.013483457,0.6321035,0.15932073,-1.0129055,-0.013455323,0.15210694,0.8747151,-0.7974341,0.4417518,0.29185954,0.42332524,-0.16841488,-0.6375088,-0.14467186,0.6686227,-0.036090396,0.08248825,-0.30087453,-0.39269236,0.10030705,1.4219474,0.06753299,-0.41024435,-0.5053364,0.291588,-0.48287535,0.099591866,-0.039714575,-1.0692492,0.026945705,-0.38097382,0.0056238896,0.23948807,-0.05651961,-0.31907162,0.7578612,-0.9059607,0.8428602,-0.9440832,-0.4245278,-0.035953004,-0.08970646,0.27176198,-1.4190367,-0.2546259,-1.720125,-0.7936091,0.5629132,-0.14015698,0.20802827,0.47061175,0.21698761,0.6374365,0.01420894,-0.34293732,-0.70247304,0.11287078,0.22604716,-0.034515508,0.3454889,-2.280628,0.28077972,-0.065734655,-0.11341062,0.49054122,-0.55820674,0.5156583,-0.1893626,-0.025905397,0.7154845,0.95335305,-1.0735111,0.31623185,-0.14965428,0.17776741],"dims":[64,32]},{"bias":[1.2581247,0.0768219,-0.14795867,-0.30378702,0.38043225,0.10324975,0.8096921,1.8270074,0.45017716,0.6542804,-0.06829776,-0.24118286,0.2275764,0.35994264,0.98331404,1.2695582,0.49550155,0.7513573,0.12485665,-0.0043535368,1.0745643,0.72724897,0.42730507,1.1907957,0.6817394,0.4049628,0.260793,0.10773384,0.54935586,-0.4068854,0.55879784,0.79208976],"weights":[0.9963468,0.5580957,0.046226382,0.3044922,-0.17470512,1.1536219,-0.08632017,-1.0384892,0.15788025,-0.18678723,0.8679495,0.56041384,-0.3441356,-0.48693332,0.47057697,-0.5175129,0.12655586,-0.2839764,0.5313065,0.92736727,-0.56148994,0.9050807,-0.5915154,-0.259819,-0.78494185,1.534225,1.8436123,0.0065000406,-0.22085719,-0.60410845,1.1275007,-0.42767572,1.3942864,0.69995993,0.48344368,0.54874665,-0.031424813,0.075790085,0.3389627,0.93698174,0.5670877,1.1040764,-0.3551483,0.1008623,0.30365103,0.46549997,-0.36124086,0.99436164,0.8568965,0.48383388,-0.3835114,-0.4910004,-0.19610508,-0.11995306,-0.01226969,0.6330436,-0.119152,0.033675488,0.68969613,-0.17263947,0.5035096,0.4524725,1.1842661,-0.39562446,2.9495978,2.1263046,-0.23136443,-0.4986162,0.04717153,-0.4046188,-0.5131524,0.50890607,0.8048753,2.2246363,0.26236218,-0.1101747,-0.070261054,-0.082438916,-0.05459093,1.2725267,-0.47194877,0.10344693,3.1148372,1.5042107,-1.9926918,0.92594266,-0.33034283,1.0060993,0.27714285,-0.95829767,0.7229907,0.57210857,-0.6648152,0.45792553,-0.45770428,0.25291583,-0.18013237,-0.7471323,0.71279067,-0.16481228,1.1079257,0.32425472,-1.0224413,-0.43377474,0.67352664,1.5014107,-0.18242924,0.39262766,-0.00039026391,0.5516748,0.2914676,0.46442643,0.28058457,1.0497013,-1.4719617,0.19147015,0.66081125,0.31085613,1.030095,-0.545041,-1.5766882,1.2396381,0.20355672,-1.1181532,0.10327797,-1.1480243,5.5907955,-0.3091776,-0.6769279,-0.25126657,0.6808146,0.72749776,0.6228761,-0.42355335,0.06441502,0.38073766,0.77944297,-0.7352197,0.4391655,0.07844534,0.19916949,0.29318637,-0.09840808,0.38695082,-0.1757635,-1.3891175,-0.19822262,-0.18814147,0.2102661,-1.5661116,0.82282263,0.23949018,-0.14068197,0.2814784,0.037820943,-0.3377009,0.059871178,0.72799826,-0.36593023,-0.3646513,1.0882381,-0.07559001,-0.30127487,-0.8705735,-0.2781572,0.3049658,0.035928812,-0.41222933,-0.6058231,0.35874075,-0.30125183,-0.34694824,-0.21812531,0.19595872,0.15623452,-0.23733272,0.24986634,0.85437506,-0.29293543,0.22865687,-0.10403901,0.82013077,-0.2582793,-0.904359,-0.47655663,0.8471826,-0.43722817,-0.33380097,0.41486323,0.56977284,0.42937538,0.28702444,-0.15313658,1.5272102,1.4088603,0.009154461,-0.05668377,0.28703976,-0.46809247,0.074656226,-0.5731601,-0.8077988,0.23068681,-1.5996305,-0.78194636,-0.8874813,-1.9863106,-0.5318349,-1.4031249,0.056778427,0.59840435,-0.25326258,0.55273026,-2.5618205,1.5018166,0.31747812,-0.017242724,-0.32081145,0.5088152,0.29912838,-0.46206617,-0.25463006,2.9396224,-0.82232857,-0.068564534,-0.4053365,-1.6570343,0.2540229,0.096083865,-0.18803787,-0.9345772,-0.8023359,0.2821104,-0.14392649,-0.9672142,-0.23558693,-0.5588499,-0.84663016,-0.21263295,-0.65932053,0.507075,-0.39333335,-0.8636734,0.6397789,0.17784987,1.5142412,0.6996134,-0.12923907,-1.564963,0.8152363,-0.5126115,0.15997206,-0.25083852,-0.11510557,1.6230863,-0.38364375,-0.43332258,-0.071107835,0.23789415,-0.89992976,0.21215291,-0.55540866,0.44127414,0.12426936,-0.2272175,0.94905597,0.24770989,-0.17940639,0.25246823,0.03434644,-0.15311293,0.2177276,-1.2367748,-0.7785664,0.5749722,0.5019817,-0.28245384,0.3392012,-0.4164283,0.456853,0.4399813,0.47124928,1.1002611,-0.115620084,0.26677877,0.9312189,-0.7947912,0.49558562,1.3608234,0.6540007,0.66177255,-0.11572221,-0.82568175,0.4718858,0.08230425,-0.89690727,-0.46953577,0.01051341,0.24001537,0.22624752,-0.30901474,0.5684579,0.3982037,-0.81520724,0.5735341,0.09973329,0.788941,0.5453359,-0.28446478,-0.7475645,0.010261362,-0.95584375,-0.22800583,0.1713212,-0.28552562,-0.305125,0.39421263,0.9252694,-0.11404508,0.04185162,0.30866215,1.170976,0.69158083,-0.048847225,-0.22242412,0.22408037,-0.055659287,0.23470183,0.065265305,0.23843873,-0.3149985,-0.043556187,0.48569876,0.9282372,-0.06446881,0.32918087,-0.97696614,-1.3556185,0.32054606,0.06814872,-0.46251044,-1.0000153,0.29796833,0.7923368,0.3126068,0.20538786,-0.45124927,0.225163,0.29870707,0.60750496,1.3868968,0.37452444,-2.4334452,-2.2552037,0.23090528,-0.7144583,-1.3134396,-0.90074396,0.4091362,-1.0852653,0.1578234,-0.13831578,0.3745958,-0.17680265,-1.4318762,-0.7664728,1.1295105,-0.7571668,0.63136405,1.6795797,-1.0103636,-1.1978421,-1.0590134,0.40964732,-0.78008765,-0.10914513,0.32529995,-0.18143144,0.39294595,-0.76765436,0.65871066,-0.3479326,-1.2355524,-0.04974332,0.42737722,0.25664178,0.51411647,0.4223132,-0.38872796,0.31100622,-0.48236158,0.3720631,0.050544087,0.30412513,0.0061294963,0.65460604,0.1753602,0.49331275,0.3092355,-0.059181295,-0.7298742,-1.0296704,0.6075556,0.07890039,-0.33437058,-1.3113221,0.31791967,-0.1282426,0.7237996,0.34883526,0.527328,0.70932907,-0.009820975,0.082514815,0.8881246,0.032321185,0.70751876,1.1224236,0.92282355,-0.42193407,0.28830028,-0.35192797,0.49891943,0.22090474,0.5125809,0.6403576,0.06427301,-0.65178317,-0.036822822,0.66941094,-0.12713456,0.72495735,-1.4143286,0.6141695,0.6036063,0.17100637,0.24276707,-0.34123886,-0.04371178,0.5944817,0.93014437,0.30036646,1.3127949,-0.10234536,0.45549852,-0.24236415,0.78451186,0.26513815,1.1643218,-0.30048907,0.011575753,-0.4371213,1.1573726,-0.31488106,-0.16626376,-0.32649928,0.7348356,0.23352928,1.2772486,0.4533721,-0.16908981,0.2786964,0.09910194,0.44874248,1.2171257,1.0955625,-0.4556187,-0.22624475,1.3987378,0.20133144,0.2558923,0.09651395,0.3310156,0.06096869,-0.68068755,0.021767367,-0.19778077,0.3438935,0.32407865,0.24174988,-0.9646553,0.38862523,0.30017158,0.3041635,0.7354799,0.16133748,0.57010543,-0.72416264,0.39179534,-0.2743366,-0.26122954,0.6508865,0.48695618,0.54466265,0.20589201,0.6113908,0.43166223,-1.0412418,-0.5805809,1.2189808,0.4308565,-0.8812962,-0.55928457,0.19058865,0.35038626,-0.4989189,0.082200155,0.6990783,0.041541014,-0.070487365,-1.813492,0.2449292,1.4490924,0.50603676,-0.11537372,0.7650382,1.1105511,1.1694137,-0.3206013,0.66763127,0.51730853,0.1300933,0.28269294,-0.21666294,-0.45350388,-0.3463068,1.0634918,0.060191296,1.0996097,0.65461236,0.9705306,0.67293274,0.7404661,0.70688623,0.20946175,-0.4062455,-1.0544828,0.0879683,0.47034252,0.73849714,-0.37019455,0.13732043,0.43052372,-0.09718469,-0.89211416,-3.5763986,-0.112087525,-0.7086745,-1.5403936,-0.5292209,-0.832879,0.5539324,0.30115935,1.7053574,0.10959499,-0.62034905,-0.5453673,-0.17324278,0.788759,0.61282337,-0.19969563,0.55607593,-0.1736174,0.05772847,-0.9557946,0.48839742,-1.1541977,-0.4469128,-0.79528475,0.19049749,-1.2317983,-0.071997285,1.0348836,-2.7945652,2.0890477,0.35972628,0.33981845,0.84167707,0.008267879,0.24308282,-0.3612104,0.43185,-0.13993771,-1.2877886,-0.061166625,0.12295687,0.10822386,0.83062595,0.72395736,0.11202269,0.25251046,-0.55115473,0.15690105,0.6238343,0.60824114,0.23538315,-0.7538765,-0.011689388,0.44217694,-0.35196322,-0.08520057,0.81447643,-0.77342045,-0.17752188,0.3817632,0.39462486,0.5312601,-0.3553083,1.7350447,0.67631036,-0.33796218,0.22594514,0.1875333,0.20140836,-0.19931129,-0.3354711,0.54169464,0.25430247,-0.2985167,0.0015247966,-0.047853906,0.08184505,-0.13149667,-0.83679533,-0.4599776,0.5728983,0.3111634,-0.27115747,0.66604495,-0.49796554,0.042028382,-0.42867652,0.685562,0.4738,-1.1149024,-0.48647332,0.91936964,-0.21634068,-0.004643201,-0.670762,-0.5642186,-0.6426288,0.090017214,-0.65557694,0.0073458226,-0.08152055,-0.08971475,-0.50001824,-0.8918397,-0.60148174,0.6562404,0.23624815,0.017119432,-0.44994545,0.4758794,-1.4076445,-0.79612345,0.54343736,0.12573707,0.21287201,0.006022605,-0.4261171,0.47067392,-1.0273006,0.94700307,0.8298978,-0.35343024,-0.06104356,0.28814217,-0.5848709,0.4296448,0.20869514,-0.63838744,-0.16767064,0.3938641,0.28943983,-0.24783392,0.56881976,0.015810875,0.74013937,0.054448195,-0.19264108,-0.06031661,0.2313243,0.76258796,0.2781706,0.38884953,0.8432731,-0.3940776,-0.9548369,0.23853633,0.8419518,-0.6458294,0.55278873,0.4634104,0.62801987,0.03739572,0.48995793,0.30940342,0.4792232,0.2876677,-0.030950101,0.88729036,-0.12983906,1.7503917,1.6265085,0.034726642,0.7578337,0.21662968,0.40478218,1.1448749,-0.06443033,0.5283588,0.5707442,0.21138316,0.37958562,0.5475939,0.4642563,0.2715162,0.20510891,-0.14826503,-0.20824924,0.59289885,-0.60176873,0.15476045,-0.5011419,0.92572784,0.13656399,1.4371217,-0.5337457,0.89414036,0.44816363,-0.75173044,1.0785698,0.9435147,0.14064619,-1.003543,-0.9883381,-0.2890255,-0.3394403,0.43919194,-0.7741123,0.14269081,0.21282378,0.69240814,-1.0742259,-0.40281713,-0.25099823,-0.11258238,-0.047223978,-0.059657972,0.049889237,0.2919212,0.5472089,0.49997717,-2.0409124,0.33379698,-0.4025644,-0.16783564,-0.20007291,-0.8716312,-1.2862293,-0.57612556,2.0566244,-0.40182948,-1.021545,-1.4636881,0.57467633,0.9106049,-0.41042364,-0.1840697,-0.10965643,0.43250674,1.4944353,-0.2567174,0.8637302,1.2945267,-0.42288813,0.006280516,0.33661658,0.38105118,0.40813482,-0.26268223,0.8845757,-0.092288606,-0.6481336,0.056847926,1.4701179,1.13204,0.005782705,-0.109290734,0.8143217,0.6188372,-0.6989347,0.58472794,0.13159335,-0.7329664,-0.17979296,-0.14143018,0.023390135,0.45968774,-0.25167304,-0.7783934,0.54053545,1.2272536,-0.2612704,-0.84678274,-0.43251216,0.37011734,-0.52838635,-0.5085272,0.44441223,0.22502372,0.5795309,0.68631715,-0.8301453,0.25332382,0.7317118,-0.27625614,-0.2096324,1.1740851,1.1284156,-0.15141815,0.40930393,-0.22227085,-0.11915287,-0.08596397,-1.1888082,0.29383603,-0.0796641,-0.38157848,0.29548877,-0.003629296,0.6526179,0.6045735,0.23841242,0.05092124,-0.009718796,-0.23009136,0.85902065,-1.3656076,0.1410793,0.7659934,-0.11372494,0.12794857,0.3765397,-0.3078921,-0.25178188,-0.6659379,-1.2759475,0.54188347,0.29178396,0.31575125,-0.48000014,0.15082508,0.35926044,0.22275706,-0.12870072,0.021913044,0.41709068,-0.25486156,0.74639535,0.17130634,-0.079766095,2.0898447,0.03128331,1.490501,-0.7786955,-0.865196,-0.9893448,-0.032023728,0.79671055,0.5174735,-0.7872414,0.86250776,0.6539002,1.1397758,0.5144925,-0.38989326,0.93613553,-1.1351676,0.5453702,-0.45301032,-0.34156388,-0.64594895,-1.5394,0.4134496,0.23207754,1.9580803,2.4036677,-0.3023728,-0.2756274,1.9906117,0.41948625,-1.142443,1.200968,1.6740333,-0.11556954,-0.17174155,-5.6797285,0.5428407,0.009435408,-0.6587288,-1.344373,-0.57952833,-1.2330776,1.1036869,0.2533791,-0.4200708,0.022201395,0.39364338,-0.005766692,-0.30562732,-0.37337524,0.3623201,2.1556761,0.8841508,-0.019490147,0.56411254,-0.33635747,0.2685642,2.0317094,-0.7989184,0.72446704,-0.681544,0.15743567,0.04160664,2.5518146,1.0133826,1.7778566,0.064000666,0.7275292,0.07070398,0.9930718,0.77820176,0.07927032,-0.7656737,0.89271986,-0.26365682,-0.13253431,0.032771733,-0.16374871,0.23780313,-0.15679272,-0.16251796,-0.6392474,1.4443545,1.4440213,0.027841363,0.12555994,0.28889474,0.14802684,0.49493855,0.17921197,0.19526897,0.53753656,-0.3720524,0.21929763,1.0386071,-0.4939465,0.92833275,2.1474917,-0.12588365,0.0930459,-0.38398394,0.733108,-2.452538,0.10281849,-0.9584986,1.4828523,0.8014442,-0.72997034,0.32690558,-0.41702536,-0.30810645,0.48477525,-0.47871792,-1.8389212,-0.3154233,0.30930838,0.041877024,-0.56734556,-0.716169,-0.51381695,-0.6563776,2.1130247,-0.8390113,1.4492491,0.10391741,-0.307856,2.7550232,0.16217253,1.1261344,0.47807276,-0.36866292,-0.448591,-0.6251107,-0.47416988,0.31289807,-0.38960516,-0.47273582,0.8156093,-0.30174518,0.21246198,0.17950188,0.16534337,0.08870958,-1.0030534,-0.0686915,-1.0712216,0.8343635,-0.4722172,-0.59984016,0.26058832,-0.20360135,-0.51630545,0.30882418,0.38883337,-1.2728926,0.4117275,0.17145547,0.3397154,-0.9218864,0.1891711],"dims":[32,32]},{"bias":[-0.041240104,1.0537866,0.8506243,-0.12855703,0.80318415,0.32391745,0.4725306,0.5141239,-0.64584225,-0.35058412,-1.3142271,0.8240189,-2.2160075,1.167443,0.08804514,1.0582136,-0.19360688,0.7578847,-0.09014811,0.6711017,0.02260314,0.2548611,0.55114585,-0.49345002,-0.05651801,-0.014478372,1.0245024,0.36457986,0.8146653,0.7270532,2.362851,0.96982926],"weights":[0.28806624,0.42965397,0.65098673,0.652676,0.5275144,0.27416757,0.15340024,0.58879495,0.37034562,0.5838024,0.1416255,0.19036172,1.5369785,0.6725536,-0.13383295,0.74768066,0.8328471,0.8292917,1.3058752,0.30088323,0.013707545,0.5819748,0.85245436,0.40782678,-0.20459063,0.51604074,0.7537894,0.6844242,0.66306996,0.48959887,0.8136791,0.83579654,0.40241966,0.36504325,0.11415863,0.6571836,-0.17863372,0.09902504,0.6417226,0.377095,0.75593376,0.6178244,-0.7128678,0.5945832,-1.0577066,0.65653867,0.46666571,0.68736887,0.40366763,-1.152183,-1.4714785,0.3343546,0.20265803,0.7105354,0.77496433,0.5827712,-0.16623493,0.2985286,0.4597614,0.18571422,0.75765425,-0.6187492,0.333917,0.7419115,-0.29143816,0.26599732,-0.06325064,-0.27456713,-0.8387676,-0.023342146,-0.018862393,-0.54817975,-0.15966623,-0.59242916,-2.6763735,0.32247302,-0.6142989,0.14505102,-0.08044687,0.2966708,0.51088566,-1.0260409,1.0483421,-0.61684245,1.039599,0.13869227,-1.6962687,0.37692207,-0.15600754,-0.5307812,0.47980046,0.37448207,0.029125122,0.52623135,-2.25746,0.28429282,1.0402348,1.1260622,-0.41899258,-0.35258344,0.7532647,0.06439857,-3.3381662,-0.12413194,0.8607537,2.002163,-1.349006,1.5460011,-2.186118,0.10402858,3.9133584,-0.94825286,1.6963758,-1.1911646,1.2529255,0.128626,-4.316387,1.0484611,-3.8419192,-0.53183544,-0.3306465,-0.07162907,-1.1849167,-1.0841873,-0.59204197,1.1024472,-2.5268128,0.15307224,-0.38711634,0.6333431,1.8576163,0.21297736,1.6326454,-2.720348,-2.2542784,-1.6038824,-0.23670156,-0.09426675,1.015028,-0.5137572,0.75801176,1.4442698,-0.65684706,1.4515467,0.9707564,0.9034347,1.3556004,-2.489787,0.35095575,-1.0885471,-2.024819,-0.1533712,-0.056036767,3.2924902,1.1035699,-2.0394917,0.98898107,-0.07298197,-2.7297869,-0.12467382,0.5785173,0.54658604,0.260136,0.98056096,0.20065665,0.5262847,0.33061418,-0.11401073,1.381912,1.1269814,1.4958574,0.046872985,0.8461841,-0.1483437,0.5652642,0.21758813,0.08655457,1.2859992,-0.91783047,-0.046278004,0.026669206,0.6584292,1.2138746,0.33686998,0.18369167,0.5059516,-0.5383529,0.1497261,-0.15295358,-1.0898823,0.6238965,0.03034851,0.32226348,0.360176,0.71953046,0.26240966,0.8814002,1.0974915,0.9086433,1.7469728,0.13352023,0.80203944,0.5941836,0.4098848,1.6151061,1.3850733,0.8144532,0.19453059,-0.19061212,0.4090943,-2.2075024,-0.92541057,1.0986987,-1.057215,3.3302438,-0.20276551,-0.07626062,-0.77507323,0.9975593,0.9442108,-0.58661246,0.6706908,3.1994617,0.58097553,-1.2496558,-0.13644078,-1.1605543,-0.22459954,2.344043,-1.7449219,-2.146622,-0.8728936,0.368212,1.3912551,-1.2889116,-0.021403726,-1.2692666,-1.0723008,-0.49365008,-0.5450036,-0.6976699,-0.19006771,-0.20479596,-1.3785114,-5.35844,-2.9457142,-5.273281,-1.8726381,0.08456343,-2.1791098,-0.13820532,4.3657866,0.7788379,-2.230883,-4.1856194,-1.031793,-2.0129738,-0.35870808,0.018198509,-0.8739841,1.3861306,-1.0941281,-0.20480618,0.74216944,-0.12964216,-2.596029,-0.8157077,-0.7290038,-0.6608405,0.84435177,-1.8041387,-0.12417031,-0.003659228,0.49322456,-2.3806233,-0.66295475,1.3348905,-2.3791146,3.4542844,3.7844145,0.21421154,0.44461042,-1.3666564,-1.0937649,-2.4911196,1.3160042,3.5687163,1.2864215,0.5089481,0.26582852,0.11878652,0.39701447,0.46823838,-0.085136175,0.25101808,-0.09514681,0.891999,0.2916429,-0.55229914,0.4166374,-1.5610685,0.3483138,0.5219256,0.25881281,0.041280977,-0.06359699,-0.57215124,1.1451925,0.86412907,-0.24407698,0.29476914,0.6436756,-0.25683004,0.3972924,0.38570175,0.9024223,0.11499035,-0.23146446,-0.85701615,0.5531132,0.5571649,-0.91612977,-0.3497146,0.64335895,0.6727596,0.18367745,-0.036119986,-1.3733084,0.4351132,-0.48411334,1.0972834,-0.52204543,0.031821735,-0.26625183,0.18566443,0.018395081,-1.2549735,0.04503866,-1.5822226,-0.06643528,-1.1775067,-0.41201526,1.6988114,-0.5128994,0.23205726,0.7367931,-0.7244185,1.3416756,-0.49105683,0.018339703,2.533036,-0.41663197,0.20489752,-0.22860827,0.02239656,0.5569887,0.87491345,-0.14549208,-0.26336136,0.07029073,0.3996729,0.12805957,0.7876802,-0.052867115,1.6006879,0.30972546,0.26906085,0.19708942,-0.38904396,0.08898234,-2.9759135,-0.020529145,0.33025306,-0.2193451,2.2960556,-0.48170477,-0.0050645988,0.063129805,-0.24443835,-0.104952216,-0.6138969,0.07762131,1.0241455,0.13113625,-0.33758095,0.14646901,0.17477484,-0.053330414,-0.4150991,-0.5679187,-0.37782186,-0.32537672,-0.074860565,0.09942451,-2.388947,0.5589111,-0.03324468,0.7680453,-0.17900649,0.06686706,-0.19607377,-0.16873378,2.2626626,-0.27529648,0.1589754,0.44512263,-1.6680665,-0.6796782,-0.3015698,-0.60581285,-0.20784466,0.3647566,0.07255647,0.7681476,-0.7488251,0.7573109,0.2878593,-0.21843055,-0.35398987,0.66437984,0.38513243,0.44587746,0.29795554,-0.07184489,0.12042024,0.33558336,1.7619027,-0.26630783,-2.0595076,0.2313317,0.022468653,-0.5044033,-0.011390672,-2.1604328,-0.56087136,-0.00090046035,0.26590142,0.0313701,1.2863649,0.037517928,-0.356254,0.12533474,-0.21768135,-0.07768226,0.027094,-0.03255435,1.2492157,0.22258276,-0.042744793,0.4058333,0.5726534,0.47155565,0.16368917,0.4055732,-0.14402172,-0.25330523,-0.2702951,-0.63533545,-0.38481784,0.5043835,0.30590987,0.7788195,-0.10213132,0.0121958535,0.0251285,-2.2694538,1.3804184,-0.13480115,0.83164763,0.2153714,-0.31450248,-0.5863356,0.042773727,0.15178837,0.12291653,0.40396875,0.2276992,0.69865435,0.11177706,0.6216413,-1.2406188,-2.3663356,0.5800795,-3.5014637,1.5224116,-0.6157608,-2.188146,-2.5759168,-4.2466526,-2.535638,1.4269807,-2.4268572,0.03305896,-2.4565275,-0.80205375,0.40325627,-1.484573,-0.39929995,2.0713747,-1.0160681,-5.28496,1.6890931,-4.69876,-0.09477165,-0.021393448,0.09185299,-3.7277238,-2.1534486,-2.5148306,-0.70668435,-6.4904146,-2.2503586,-1.84595,0.35445738,-1.7423744,-2.394316,-0.05117772,-3.043267,1.8459053,-1.0555015,-1.8362502,-0.41691783,0.40190315,-1.7985145,0.5295708,0.8084643,-0.9733074,-1.4478184,-4.0897794,1.7259594,-0.45305386,2.9678433,2.1201737,0.59398526,1.8156235,-1.4114156,-0.14273356,0.38149858,0.8349167,-2.1145086,-1.9148551,-0.60884523,1.8611355,3.3210037,-0.9797566,-2.4349198,-1.9035811,-4.33894,-0.5249393,-0.3982811,0.04684368,1.5166167,-1.7478744,-1.8016152,0.5903056,-2.9385602,-1.4975237,-2.810144,-0.96015525,-2.8618674,-3.9595156,-0.41623646,1.0738175,-0.28201967,-6.2068653,-1.5186484,1.8369384,-1.9538474,-0.3375119,-1.589324,-2.9538443,-2.8966143,-2.5916443,0.297479,1.1706446,-2.513571,0.32690215,0.22112356,0.41461328,0.56158406,0.029064197,-0.024791405,0.031991847,0.27764744,0.51391035,0.09247608,1.5244915,0.64904153,0.03390282,0.44151956,0.26222876,0.23405233,-0.13911705,1.424127,-0.9808856,0.15497658,0.4075663,0.08520865,1.6005917,0.6218901,0.044582136,0.42615524,0.40583992,0.63293684,0.3847341,-0.29184812,1.5391158,0.032614466,0.046015672,-0.2758366,0.40767062,0.4400515,-0.36768258,0.25644642,-0.2944271,0.07795924,-0.085509814,-0.17574437,-1.7934757,0.33105013,-0.7083882,0.21090186,0.01466456,0.5330239,0.6960122,-1.3757346,0.3372334,-0.5101557,0.62299854,1.0145718,-1.6897156,-0.053754874,-0.058715496,0.5362233,-0.35887662,0.6416803,-0.035912603,0.5910318,-0.9867345,0.22798118,0.68811744,-0.7740538,-1.1461831,-0.40238285,0.09398015,2.8759675,2.3594265,0.25163776,-1.4770703,-1.1428384,-0.63041484,-0.28815907,-0.10486597,-0.54109216,1.1206205,-0.08909473,-1.8078479,-0.648317,-1.4387652,2.9746723,-0.7437163,-1.2986646,1.205794,-0.6990138,-0.21223457,-0.8257934,-0.8759477,-0.8438368,-0.07328771,2.638983,1.2948097,-1.2304678,2.3637092,-2.923712,-2.2836092,-1.7570692,0.19571394,1.0498416,1.0228468,1.3356353,-1.5440602,2.362224,-0.49902055,-0.2784146,-0.10959492,-0.28722495,2.1931982,-0.67694163,-3.6201346,0.17954993,-1.0503035,-0.36260477,-4.8345084,0.266731,1.3364553,1.706813,-0.34355512,-0.4336202,-0.97967064,-2.5167348,-2.2865841,4.1585827,1.2883846,-0.1226848,0.8400503,0.08059288,0.37561908,0.30735928,0.54387087,0.23728228,-0.013285252,0.30987865,1.1775812,0.67414725,0.926554,-0.28610295,0.5174105,0.010913766,0.3605471,0.118539445,-0.6912916,-0.1201469,-0.86620116,-0.34155247,-0.11488644,-0.46918055,2.9861162,0.103449844,0.05362137,0.43600085,-0.19166784,-0.49958488,-0.26563025,-0.6382135,1.5545671,0.06432508,2.7626076,1.4225157,0.31410545,-2.2770026,-0.31743518,1.1848893,1.1618855,0.4494908,1.1368195,2.6547194,1.1833097,1.6915698,-0.053349555,-2.0990262,0.19899748,-0.17499487,-1.3790809,0.8530834,2.227437,-0.13075043,1.2826747,-1.403452,-4.727926,-4.553019,-0.16978799,-3.721437,3.4086854,0.79572386,3.5792072,-0.73732954,-5.3377457,-2.2948022,0.424599,-0.015298546,0.18832465,0.319592,-1.1451569,0.25839236,0.20673302,0.6199358,-0.50187975,-0.30008417,-0.9171654,-0.13003129,-2.0196278,0.03248991,-0.04117157,0.04747618,0.68685806,-0.37320542,1.1039642,-0.26896048,0.79444,-0.35479102,-5.0086718,-0.543814,-0.053187564,-0.350523,0.27932078,0.691422,0.43445557,-0.3536064,-3.615957,0.07693098,0.16483779,0.24722686,0.44408974,0.15196733,-0.3736406,0.5332636,0.5190513,0.36567718,0.13659365,0.12752804,0.59530497,0.43916062,-2.9605486,0.057490386,0.41755098,0.3109686,0.7219078,-0.16777639,0.6159878,0.3897699,0.38911495,0.50442064,-1.1347623,0.06164475,-0.15707351,-0.024241807,-0.040150948,0.44727716,0.19016533,-0.5516089,-1.4033209,0.43222377,-0.7307451,-0.4257026,-3.2196662,1.1978532,-1.2184033,1.2409443,-0.038152937,0.6146192,-2.0317888,-0.7322451,-0.5211251,0.4845684,0.4929722,-1.5012645,-0.955205,-1.5488678,4.524176,0.47149774,1.3242064,0.39732862,0.096876964,0.34847164,-3.0376437,-1.2707256,-0.25259838,-0.5184638,0.77379197,-2.913537,1.567703,-1.0227561,-3.8738003,-1.4239262,0.103391044,0.28633597,0.07893637,0.4859708,-0.2191141,-1.1987811,0.19322821,0.067160524,0.90628064,0.22267765,-2.1313317,0.5804921,-1.2539108,0.46601924,0.58268154,0.06226995,0.703622,-2.5903678,1.1026496,-0.61624163,0.38517493,0.1228257,-4.306611,0.94296986,-0.3029752,-0.17415722,0.23010908,0.7671812,0.314871,0.4811114,-2.8518085,0.19646752,0.40356782,-0.22457305,-0.57936454,0.71185297,0.68851864,0.43002793,0.6608681,0.101883516,-0.40158024,-0.3420383,-0.24817692,0.19068009,2.7093933,-0.2752482,0.16736172,-0.6194932,-0.455697,0.68769884,-1.9538592,-0.0009363635,0.1966713,-0.11394275,0.74676174,0.41187024,-0.07308858,0.40995327,0.19941485,0.38583145,-0.3195929,-0.43280432,0.64462703,-0.17938346,-0.14505365,0.5659372,0.38803735,0.31908965,-1.0985968,-0.16795847,0.40747583,0.14400434,0.3491354,0.15277742,-0.9172233,0.45710543,0.18525565,0.31844905,0.03918138,0.1721464,0.1864545,0.24177244,0.7592786,0.24650101,0.0028910562,0.60044426,-3.069891,-0.0002397514,-0.20160104,-0.677774,0.61880475,0.670254,0.005100794,-0.2778201,-2.2547314,0.28882343,0.42206874,0.5763284,0.627582,0.20610465,0.14687595,0.33012873,0.50400096,0.1428954,0.24461493,0.3802362,0.2271524,0.70749235,0.9977826,0.5985008,0.3188852,0.4979862,0.42035687,0.4371917,-0.059831772,0.17798184,0.34334993,0.63007855,-1.1478058,0.5239748,0.20460057,-0.00095122476,0.7984615,0.79236907,0.57818663,0.74313146,-0.5797962,0.18205991,-1.0237843,-0.5124293,-1.2164916,-0.35123357,0.8505984,-0.26022103,-0.7224725,-0.007412592,0.11675984,1.1318569,0.39202794,-0.7297411,2.5213277,-1.9626585,-0.68183863,-1.4586641,-0.81149125,1.3536595,-2.172913,-0.192335,-1.340694,-0.091881946,2.8490124,0.80583835,0.14104052,-1.4201149,-0.5133708,0.4141349,-0.9948078,-0.2812185,1.3616613,-1.7374797],"dims":[32,32]},{"bias":[0.41922095],"weights":[-0.9349392,0.93056697,0.75389165,-1.1936595,-2.9070182,-1.2778882,-0.98889124,-1.0152669,-1.4465427,-1.2384259,-7.615575,1.1403679,10.591494,0.9076454,-1.0492184,0.94003433,1.6249733,-5.8285046,13.092742,-1.5193818,-1.647042,0.9226498,-28.81149,-1.5361089,0.16665983,-1.4522537,1.3403639,1.1266934,1.0478234,3.8440282,-10.028044,0.86760676],"dims":[32,1]}]